{"learner":{"attributes":{"best_iteration":"52","best_score":"0.2573727627509335","scikit_learn":"{\"_estimator_type\": \"classifier\"}"},"feature_names":["candidate_count","rank_andorra","rank_argentina","rank_australia","rank_austria","rank_belgium","rank_bolivia","rank_brazil","rank_bulgaria","rank_canada","rank_chile","rank_colombia","rank_costa_rica","rank_czech_republic","rank_denmark","rank_dominican_republic","rank_ecuador","rank_egypt","rank_el_salvador","rank_estonia","rank_finland","rank_france","rank_germany","rank_greece","rank_guatemala","rank_honduras","rank_hong_kong","rank_hungary","rank_iceland","rank_india","rank_indonesia","rank_ireland","rank_israel","rank_italy","rank_japan","rank_latvia","rank_lithuania","rank_luxembourg","rank_malaysia","rank_mexico","rank_morocco","rank_netherlands","rank_new_zealand","rank_nicaragua","rank_norway","rank_panama","rank_paraguay","rank_peru","rank_philippines","rank_poland","rank_portugal","rank_romania","rank_saudi_arabia","rank_singapore","rank_slovakia","rank_south_africa","rank_spain","rank_sweden","rank_switzerland","rank_taiwan","rank_thailand","rank_turkey","rank_united_arab_emirates","rank_united_kingdom","rank_united_states","rank_uruguay","rank_vietnam","af_danceability","af_energy","af_valence","af_tempo","af_acousticness","af_speechiness","af_instrumentalness","af_liveness","duration_ms","explicit","days_since_release","is_friday_release","track_in_viral50_at_obs","artist_prior_chart_count","artist_prior_unique_regions","artist_prior_best_rank","artist_prior_unique_tracks","multi_artist_flag","artist_country_ratio","target_continent_antarctica","observation_month","observation_year","artist_prior_success_in_target_mean","artist_prior_success_in_target_max","target_population_mean","target_population_max","target_avg_daily_streams_mean","target_avg_daily_streams_max","target_new_entry_rate_30d_mean","target_new_entry_rate_30d_max","target_continent_africa_mean","target_continent_africa_max","target_continent_asia_mean","target_continent_asia_max","target_continent_europe_mean","target_continent_europe_max","target_continent_north_america_mean","target_continent_north_america_max","target_continent_oceania_mean","target_continent_oceania_max","target_continent_south_america_mean","target_continent_south_america_max","cultural_dist_min_mean","cultural_dist_min_max","cultural_dist_missing_mean","cultural_dist_missing_max","same_language_flag_mean","same_language_flag_max","same_continent_flag_mean","same_continent_flag_max","neighbor_entered_count_mean","neighbor_entered_count_max","origin_country_count_at_obs"],"feature_types":["int","int","int","int","int","int","int","int","int","int","int","int","int","int","int","int","int","int","int","int","int","int","int","int","int","int","int","int","int","int","int","int","int","int","int","int","int","int","int","int","int","int","int","int","int","int","int","int","int","int","int","int","int","int","int","int","int","int","int","int","int","int","int","int","int","int","int","float","float","float","float","float","float","float","float","int","int","int","int","int","int","int","int","int","int","float","int","int","int","float","int","float","int","float","float","float","float","float","int","float","int","float","int","float","int","float","int","float","int","float","float","float","int","float","int","float","int","float","float","int"],"gradient_booster":{"model":{"cats":{"enc":[],"feature_segments":[],"sorted_idx":[]},"gbtree_model_param":{"num_parallel_tree":"1","num_trees":"83"},"iteration_indptr":[0,1,2,3,4,5,6,7,8,9,10,11,12,13,14,15,16,17,18,19,20,21,22,23,24,25,26,27,28,29,30,31,32,33,34,35,36,37,38,39,40,41,42,43,44,45,46,47,48,49,50,51,52,53,54,55,56,57,58,59,60,61,62,63,64,65,66,67,68,69,70,71,72,73,74,75,76,77,78,79,80,81,82,83],"tree_info":[0,0,0,0,0,0,0,0,0,0,0,0,0,0,0,0,0,0,0,0,0,0,0,0,0,0,0,0,0,0,0,0,0,0,0,0,0,0,0,0,0,0,0,0,0,0,0,0,0,0,0,0,0,0,0,0,0,0,0,0,0,0,0,0,0,0,0,0,0,0,0,0,0,0,0,0,0,0,0,0,0,0,0],"trees":[{"base_weights":[-3.9284605E-1,-9.8008305E-1,1.1537521E0,-1.0196412E0,2E0,2.8544474E-1,2E0,-1.1029515E0,1.4008458E-1,-6.964819E-3,2E0,-1.6108109E-1,1.8564421E0,1.4952757E0,2E0,-1.1182252E0,-3.811927E-1,-1.3597481E-1,1.5621173E0,1.3768817E0,8.35917E-2,-3.3970106E-1,2E0,1.0856469E0,2E0,8.8250583E-1,2E0,1.8580458E0,2E0,-1.0307423E0,-1.1882907E0,-5.5650455E-1,2E0,1.0746863E0,-3.126673E-1,7.543481E-1,2E0,2E0,-3.5667667E-1,8.4928505E-2,-8.5245264E-1,2E0,-6.7869264E-1,2E0,5.9175026E-1,2E0,1.481079E-1,4.085689E-1,1.8802882E0,2E0,1.3637475E-2,6.8970114E-1,2E0,8.35917E-2,6.7767784E-2,-4.5338344E-2,-2.8740294E-2,-4.9764663E-2,-1.7256906E-2,-7.55464E-3,-4.4214245E-2,8.35917E-2,-3.2178514E-2,2.7637398E-2,8.35917E-2,-1.5842574E-2,8.35917E-2,1.6410843E-2,8.35917E-2,1.4061393E-2,8.35917E-2,4.323732E-3,8.35917E-2,2.6834821E-2,-4.8827533E-2,-2.5996713E-2,1.6867764E-2,2.6082681E-2,-3.736935E-2,8.35917E-2,4.323732E-3,2.9335048E-2,-5.0200168E-2,6.092375E-2,8.35917E-2,-1.5387309E-2,4.1922867E-2,3.7182722E-2,8.35917E-2,-3.0979523E-2,4.5751702E-2,4.9142987E-3,8.35917E-2,8.35917E-2,1.761527E-2,4.0154487E-2,8.35917E-2,9.55591E-3,8.35917E-2,8.35917E-2,4.4945616E-2],"categories":[],"categories_nodes":[],"categories_segments":[],"categories_sizes":[],"default_left":[0,0,0,0,0,0,0,0,0,0,0,0,0,0,0,0,0,0,0,0,0,0,0,0,0,0,0,0,0,0,0,0,0,0,0,0,0,0,0,0,0,0,0,0,0,0,0,0,0,0,0,0,0,0,0,0,0,0,0,0,0,0,0,0,0,0,0,0,0,0,0,0,0,0,0,0,0,0,0,0,0,0,0,0,0,0,0,0,0,0,0,0,0,0,0,0,0,0,0,0,0],"id":0,"left_children":[1,3,5,7,9,11,13,15,17,-1,19,21,23,25,27,29,31,33,35,37,-1,39,41,43,45,47,49,51,53,55,57,59,61,63,65,67,69,71,73,75,77,79,81,83,85,87,89,91,93,95,-1,97,99,-1,-1,-1,-1,-1,-1,-1,-1,-1,-1,-1,-1,-1,-1,-1,-1,-1,-1,-1,-1,-1,-1,-1,-1,-1,-1,-1,-1,-1,-1,-1,-1,-1,-1,-1,-1,-1,-1,-1,-1,-1,-1,-1,-1,-1,-1,-1,-1],"loss_changes":[7.9547183E3,1.0267578E3,2.9485923E3,6.082803E2,1.3309387E1,1.1156753E3,7.059082E1,6.4700195E1,1.657094E2,0E0,5.146179E0,5.604832E2,1.4314417E2,1.7849847E2,1.581543E0,3.5115723E1,5.3991825E1,7.566727E1,2.5120407E1,2.0117128E1,0E0,2.52377E2,6.641086E1,9.30851E1,1.4663086E1,9.458539E1,6.9093018E0,9.218683E1,4.248047E-2,4.7336914E1,5.8100586E0,2.1470032E1,1.865749E1,2.8529732E1,5.4789093E1,1.7709377E1,2.0753372E1,1.5935997E1,3.9110434E0,1.4287292E2,3.2348297E1,1.5935974E1,6.8212676E0,8.303741E0,4.870056E1,1.2259277E1,3.811557E0,9.050596E1,3.910945E1,3.0149536E0,0E0,4.1380043E1,5.4490967E0,0E0,0E0,0E0,0E0,0E0,0E0,0E0,0E0,0E0,0E0,0E0,0E0,0E0,0E0,0E0,0E0,0E0,0E0,0E0,0E0,0E0,0E0,0E0,0E0,0E0,0E0,0E0,0E0,0E0,0E0,0E0,0E0,0E0,0E0,0E0,0E0,0E0,0E0,0E0,0E0,0E0,0E0,0E0,0E0,0E0,0E0,0E0,0E0],"parents":[2147483647,0,0,1,1,2,2,3,3,4,4,5,5,6,6,7,7,8,8,10,10,11,11,12,12,13,13,14,14,15,15,16,16,17,17,18,18,19,19,21,21,22,22,23,23,24,24,25,25,26,26,27,27,28,28,29,29,30,30,31,31,32,32,33,33,34,34,35,35,36,36,37,37,38,38,39,39,40,40,41,41,42,42,43,43,44,44,45,45,46,46,47,47,48,48,49,49,51,51,52,52],"right_children":[2,4,6,8,10,12,14,16,18,-1,20,22,24,26,28,30,32,34,36,38,-1,40,42,44,46,48,50,52,54,56,58,60,62,64,66,68,70,72,74,76,78,80,82,84,86,88,90,92,94,96,-1,98,100,-1,-1,-1,-1,-1,-1,-1,-1,-1,-1,-1,-1,-1,-1,-1,-1,-1,-1,-1,-1,-1,-1,-1,-1,-1,-1,-1,-1,-1,-1,-1,-1,-1,-1,-1,-1,-1,-1,-1,-1,-1,-1,-1,-1,-1,-1,-1,-1],"split_conditions":[1E0,1E1,1E0,6.25E-2,4.4833332E-2,1E0,5E0,4E0,6E0,-6.964819E-3,1.1E1,8E0,5E0,2E0,2.2222222E-1,2E0,3E0,8E0,3.3333334E-1,1.01E-1,8.35917E-2,2E0,3E0,9E0,9.3E1,5E0,9.6E1,7E0,6.5E1,6E0,5.4545456E-1,1.3E2,2.4E1,1.1111112E0,3E0,3.5604456E5,2E-1,3.3333334E-1,2.2319146E4,1E-1,0E0,1.6830832E8,2.9453782E7,2E0,1E-1,3.7779614E-2,4.37E-1,4E0,6.7E1,1.39586E5,1.3637475E-2,3.75E-1,1.1764706E-1,8.35917E-2,6.7767784E-2,-4.5338344E-2,-2.8740294E-2,-4.9764663E-2,-1.7256906E-2,-7.55464E-3,-4.4214245E-2,8.35917E-2,-3.2178514E-2,2.7637398E-2,8.35917E-2,-1.5842574E-2,8.35917E-2,1.6410843E-2,8.35917E-2,1.4061393E-2,8.35917E-2,4.323732E-3,8.35917E-2,2.6834821E-2,-4.8827533E-2,-2.5996713E-2,1.6867764E-2,2.6082681E-2,-3.736935E-2,8.35917E-2,4.323732E-3,2.9335048E-2,-5.0200168E-2,6.092375E-2,8.35917E-2,-1.5387309E-2,4.1922867E-2,3.7182722E-2,8.35917E-2,-3.0979523E-2,4.5751702E-2,4.9142987E-3,8.35917E-2,8.35917E-2,1.761527E-2,4.0154487E-2,8.35917E-2,9.55591E-3,8.35917E-2,8.35917E-2,4.4945616E-2],"split_indices":[114,0,118,89,95,90,0,119,0,0,0,0,0,22,115,80,118,81,115,72,0,80,83,81,55,119,51,0,83,0,96,80,80,89,118,94,89,115,93,115,77,91,91,90,115,95,69,90,23,75,0,89,97,0,0,0,0,0,0,0,0,0,0,0,0,0,0,0,0,0,0,0,0,0,0,0,0,0,0,0,0,0,0,0,0,0,0,0,0,0,0,0,0,0,0,0,0,0,0,0,0],"split_type":[0,0,0,0,0,0,0,0,0,0,0,0,0,0,0,0,0,0,0,0,0,0,0,0,0,0,0,0,0,0,0,0,0,0,0,0,0,0,0,0,0,0,0,0,0,0,0,0,0,0,0,0,0,0,0,0,0,0,0,0,0,0,0,0,0,0,0,0,0,0,0,0,0,0,0,0,0,0,0,0,0,0,0,0,0,0,0,0,0,0,0,0,0,0,0,0,0,0,0,0,0],"sum_hessian":[8.758322E3,6.34804E3,2.410282E3,6.2954595E3,5.258049E1,1.5902603E3,8.200218E2,5.873533E3,4.2192603E2,2.8169398E0,4.976355E1,1.2383774E3,3.5188272E2,2.7879617E2,5.4122565E2,5.7517515E3,1.2178221E2,3.5341962E2,6.850641E1,1.4327443E1,3.5436108E1,1.1589653E3,7.941218E1,1.8033107E2,1.7155167E2,2.0008757E2,7.870859E1,1.0121164E2,4.40014E2,2.5587502E3,3.193001E3,1.13968605E2,7.8136106E0,4.493591E1,3.084837E2,2.485203E1,4.365438E1,9.729262E0,4.598181E0,6.340101E2,5.2495526E2,7.02087E1,9.203473E0,5.7205463E1,1.231256E2,1.672555E2,4.2961707E0,1.3576425E2,6.432331E1,7.619129E1,2.5173006E0,5.50383E1,4.6173336E1,4.366191E2,3.3948824E0,2.2105022E3,3.4824802E2,3.18321E3,9.790898E0,6.523552E1,4.8733086E1,5.4378324E0,2.3757782E0,3.7582424E1,7.3534837E0,3.0126465E2,7.2190733E0,2.1912533E1,2.939497E0,7.551902E0,3.6102478E1,4.444805E0,5.2844567E0,2.0713975E0,2.526783E0,1.9695323E2,4.3705685E2,1.4353519E1,5.106017E2,6.57639E1,4.444805E0,2.5149298E0,6.6885433E0,2.9683472E1,2.752199E1,3.693408E1,8.619152E1,1.0203612E1,1.5705188E2,2.2271438E0,2.069027E0,1.226733E2,1.3090956E1,4.8186184E1,1.613713E1,3.1047258E0,7.308656E1,4.339813E1,1.1640172E1,3.937409E1,6.7992477E0],"tree_param":{"num_deleted":"0","num_feature":"120","num_nodes":"101","size_leaf_vector":"1"}},{"base_weights":[-3.7497082E-1,-9.652121E-1,1.1059803E0,-1.0710039E0,3.851539E-1,2.8507867E-1,2E0,-1.0880847E0,-2.6136842E-1,1.8161125E-1,2E0,-1.3848385E-1,1.7114334E0,7.8541857E-1,2E0,-9.839824E-1,-1.1723968E0,-7.9041016E-1,5.554471E-1,9.631642E-1,-1.280315E-1,8.35917E-2,2.2153647E-1,-7.895876E-1,4.0307495E-1,1.997584E-1,2E0,-4.180522E-3,2E0,1.6674795E0,2E0,-1.0200403E0,-5.880755E-1,-1.1855695E0,-1.023166E0,-4.6176305E-1,-1.1781471E0,9.5791675E-2,2E0,4.4593912E-1,1.6671988E0,-5.146751E-1,5.883413E-1,1.0521207E0,-4.6309903E-1,8.812413E-1,-8.3665454E-1,-6.057174E-1,7.8876275E-1,1.7494224E0,-9.1027305E-2,2E0,-5.0008166E-1,-4.0554383E-1,9.1969484E-1,2.9962957E-1,2E0,1.0051764E0,2E0,2E0,1.2178324E0,-4.611097E-2,-3.7809994E-2,-2.7846333E-2,5.910767E-2,-4.9663503E-2,-1.5140898E-2,-4.9829863E-2,-3.7134536E-2,-2.308898E-2,4.626081E-2,-5.0478958E-2,-3.0048143E-2,2.7449448E-2,-3.1202853E-2,-1.102828E-2,8.35917E-2,7.471523E-2,-3.1524652E-3,8.35917E-2,2.3843056E-2,-2.9795188E-2,5.7955584E-3,3.462288E-3,7.501249E-2,-3.1124197E-2,8.35917E-2,5.8922763E-3,-4.93496E-2,7.857573E-2,-4.2595368E-2,-4.0352963E-2,-1.4787333E-2,-2.9000826E-2,8.2355745E-2,2.407253E-2,8.35917E-2,2.4789318E-2,8.35917E-2,-2.1319503E-2,1.8636212E-2,5.925747E-2,8.35917E-2,1.3247219E-2,-4.224129E-2,-2.6267111E-2,6.633574E-2,-2.3527114E-2,7.9508744E-2,6.0241584E-2,-2.7237276E-2,8.35917E-2,4.205111E-2,-7.6978216E-3,7.130329E-2,8.35917E-2,1.5156898E-2,8.35917E-2,2.5526704E-2,1.31560955E-2,8.35917E-2],"categories":[],"categories_nodes":[],"categories_segments":[],"categories_sizes":[],"default_left":[0,0,0,0,0,0,0,0,0,0,0,0,0,0,0,0,0,0,0,0,0,0,0,0,0,0,0,0,0,0,0,0,0,0,0,0,0,0,0,0,0,0,0,0,0,0,0,0,0,0,0,0,0,0,0,0,0,0,0,0,0,0,0,0,0,0,0,0,0,0,0,0,0,0,0,0,0,0,0,0,0,0,0,0,0,0,0,0,0,0,0,0,0,0,0,0,0,0,0,0,0,0,0,0,0,0,0,0,0,0,0,0,0,0,0,0,0,0,0,0,0],"id":1,"left_children":[1,3,5,7,9,11,13,15,17,19,21,23,25,27,29,31,33,35,37,39,41,-1,43,45,47,49,51,53,55,57,59,61,63,65,67,69,71,73,75,77,79,81,83,85,87,89,91,93,95,97,99,101,103,105,107,109,111,113,115,117,119,-1,-1,-1,-1,-1,-1,-1,-1,-1,-1,-1,-1,-1,-1,-1,-1,-1,-1,-1,-1,-1,-1,-1,-1,-1,-1,-1,-1,-1,-1,-1,-1,-1,-1,-1,-1,-1,-1,-1,-1,-1,-1,-1,-1,-1,-1,-1,-1,-1,-1,-1,-1,-1,-1,-1,-1,-1,-1,-1,-1],"loss_changes":[7.5435776E3,8.8156104E2,2.7565322E3,7.910156E1,1.9724702E2,9.70196E2,1.0696045E2,4.9052734E1,5.1209732E1,1.0006478E2,4.5064514E1,4.3666388E2,1.8598083E2,9.298869E1,2.7770996E1,3.5739746E1,5.945801E0,9.099056E0,3.8274067E1,4.2638718E1,8.207955E1,0E0,8.245834E0,4.430722E1,2.6310297E2,3.0206017E1,5.137378E1,1.8588734E1,1.83694E1,1.4927863E2,1.086084E1,2.195874E1,3.292781E1,6.2026367E0,5.6151733E0,5.63367E0,3.4696198E-1,1.7779789E1,1.0812675E1,4.7444717E1,2.1027725E1,2.4931816E1,6.3334118E1,1.1383789E1,3.4777224E0,2.957211E1,3.3982605E1,4.2638977E1,1.3756226E2,6.465515E0,1.2741682E1,3.5131226E1,3.4990206E0,1.5639886E1,2.2242662E1,7.188933E0,1.7681274E0,1.4993042E2,6.385376E0,6.8808594E0,2.098524E1,0E0,0E0,0E0,0E0,0E0,0E0,0E0,0E0,0E0,0E0,0E0,0E0,0E0,0E0,0E0,0E0,0E0,0E0,0E0,0E0,0E0,0E0,0E0,0E0,0E0,0E0,0E0,0E0,0E0,0E0,0E0,0E0,0E0,0E0,0E0,0E0,0E0,0E0,0E0,0E0,0E0,0E0,0E0,0E0,0E0,0E0,0E0,0E0,0E0,0E0,0E0,0E0,0E0,0E0,0E0,0E0,0E0,0E0,0E0,0E0],"parents":[2147483647,0,0,1,1,2,2,3,3,4,4,5,5,6,6,7,7,8,8,9,9,10,10,11,11,12,12,13,13,14,14,15,15,16,16,17,17,18,18,19,19,20,20,22,22,23,23,24,24,25,25,26,26,27,27,28,28,29,29,30,30,31,31,32,32,33,33,34,34,35,35,36,36,37,37,38,38,39,39,40,40,41,41,42,42,43,43,44,44,45,45,46,46,47,47,48,48,49,49,50,50,51,51,52,52,53,53,54,54,55,55,56,56,57,57,58,58,59,59,60,60],"right_children":[2,4,6,8,10,12,14,16,18,20,22,24,26,28,30,32,34,36,38,40,42,-1,44,46,48,50,52,54,56,58,60,62,64,66,68,70,72,74,76,78,80,82,84,86,88,90,92,94,96,98,100,102,104,106,108,110,112,114,116,118,120,-1,-1,-1,-1,-1,-1,-1,-1,-1,-1,-1,-1,-1,-1,-1,-1,-1,-1,-1,-1,-1,-1,-1,-1,-1,-1,-1,-1,-1,-1,-1,-1,-1,-1,-1,-1,-1,-1,-1,-1,-1,-1,-1,-1,-1,-1,-1,-1,-1,-1,-1,-1,-1,-1,-1,-1,-1,-1,-1,-1],"split_conditions":[1E0,1E0,4E-2,4E0,2.841836E5,1E0,1E0,2E0,1E-1,1.6E1,8.621842E4,1.81E2,1E0,1E0,2E0,2E0,1.0909091E0,1.3E2,3.1E1,2E0,2.3333333E0,8.35917E-2,1.1298891E8,0E0,1E0,7E0,9.3E1,2E0,3.3333335E-2,1E0,1E0,8.2666665E-2,4.2E1,5.4545456E-1,6.8333335E-2,8.6E1,9.5E1,3.8E1,2.857143E-1,2E0,1.8E1,4E-2,9.974337E-2,1.2876E0,2.9E1,4.117647E-1,1.02E2,1.3E1,5.3846157E-1,6.896552E-1,1.1111112E0,7.366667E-2,1E0,5.3846157E-1,9.6E1,3.8115336E7,3.656749E4,1.56E2,4.9E1,4.691102E8,2.1E1,-4.611097E-2,-3.7809994E-2,-2.7846333E-2,5.910767E-2,-4.9663503E-2,-1.5140898E-2,-4.9829863E-2,-3.7134536E-2,-2.308898E-2,4.626081E-2,-5.0478958E-2,-3.0048143E-2,2.7449448E-2,-3.1202853E-2,-1.102828E-2,8.35917E-2,7.471523E-2,-3.1524652E-3,8.35917E-2,2.3843056E-2,-2.9795188E-2,5.7955584E-3,3.462288E-3,7.501249E-2,-3.1124197E-2,8.35917E-2,5.8922763E-3,-4.93496E-2,7.857573E-2,-4.2595368E-2,-4.0352963E-2,-1.4787333E-2,-2.9000826E-2,8.2355745E-2,2.407253E-2,8.35917E-2,2.4789318E-2,8.35917E-2,-2.1319503E-2,1.8636212E-2,5.925747E-2,8.35917E-2,1.3247219E-2,-4.224129E-2,-2.6267111E-2,6.633574E-2,-2.3527114E-2,7.9508744E-2,6.0241584E-2,-2.7237276E-2,8.35917E-2,4.205111E-2,-7.6978216E-3,7.130329E-2,8.35917E-2,1.5156898E-2,8.35917E-2,2.5526704E-2,1.31560955E-2,8.35917E-2],"split_indices":[114,90,117,119,94,90,116,80,117,81,93,82,116,90,119,119,85,80,22,90,89,0,91,77,116,81,55,119,111,90,101,96,60,96,96,80,4,80,101,83,83,117,96,109,81,111,82,7,113,85,89,96,9,113,82,91,93,82,83,91,22,0,0,0,0,0,0,0,0,0,0,0,0,0,0,0,0,0,0,0,0,0,0,0,0,0,0,0,0,0,0,0,0,0,0,0,0,0,0,0,0,0,0,0,0,0,0,0,0,0,0,0,0,0,0,0,0,0,0,0,0],"split_type":[0,0,0,0,0,0,0,0,0,0,0,0,0,0,0,0,0,0,0,0,0,0,0,0,0,0,0,0,0,0,0,0,0,0,0,0,0,0,0,0,0,0,0,0,0,0,0,0,0,0,0,0,0,0,0,0,0,0,0,0,0,0,0,0,0,0,0,0,0,0,0,0,0,0,0,0,0,0,0,0,0,0,0,0,0,0,0,0,0,0,0,0,0,0,0,0,0,0,0,0,0,0,0,0,0,0,0,0,0,0,0,0,0,0,0,0,0,0,0,0,0],"sum_hessian":[8.629664E3,6.170441E3,2.4592227E3,5.7221733E3,4.4826758E2,1.6057144E3,8.5350836E2,5.603907E3,1.1826614E2,4.1329846E2,3.496911E1,1.2381445E3,3.6756982E2,7.270457E1,7.808038E2,2.508308E3,3.0955994E3,7.17803E1,4.6485844E1,1.17211914E2,2.9608655E2,2.0689442E1,1.4279667E1,5.621883E2,6.7595624E2,6.6861465E1,3.0070834E2,4.9891666E1,2.28129E1,2.5521179E2,5.25592E2,2.2987595E3,2.0954851E2,2.8437695E3,2.5182996E2,3.8988716E1,3.279158E1,3.738593E1,9.0999155E0,6.767996E1,4.9531956E1,1.9232072E2,1.0376582E2,6.4251432E0,7.8545237E0,1.5346226E1,5.468421E2,1.8693806E2,4.890182E2,1.0473567E1,5.6387897E1,2.9253152E2,8.176823E0,3.4827415E1,1.5064253E1,6.3991203E0,1.641378E1,1.7971361E2,7.5498184E1,5.0719968E2,1.8392311E1,1.3351643E3,9.635952E2,2.0174939E2,7.799118E0,2.8345227E3,9.24664E0,1.11265495E2,1.4056445E2,3.6929638E1,2.0590806E0,3.0626886E1,2.1646924E0,2.2457407E1,1.4928522E1,2.083314E0,7.0166016E0,1.88625E1,4.881746E1,3.644E1,1.3091961E1,1.475508E2,4.4769936E1,7.3212364E1,3.0553465E1,2.2359102E0,4.189233E0,4.313779E0,3.5407448E0,1.0060726E1,5.2854996E0,4.315809E2,1.15261185E2,1.8083473E2,6.1033254E0,4.2181216E2,6.7206024E1,3.7213154E0,6.7522516E0,3.167443E1,2.4713465E1,1.0488534E2,1.876462E2,3.1603968E0,5.016426E0,3.1394716E1,3.4326992E0,6.023509E0,9.040744E0,2.882249E0,3.516871E0,1.4270593E1,2.1431875E0,6.666276E1,1.1305085E2,7.3058174E1,2.440007E0,5.0350906E2,3.690591E0,1.1423785E1,6.968525E0],"tree_param":{"num_deleted":"0","num_feature":"120","num_nodes":"121","size_leaf_vector":"1"}},{"base_weights":[-3.5709465E-1,-9.466967E-1,1.0535605E0,-9.8691535E-1,2E0,2.593285E-1,2E0,-1.0748332E0,1.6566786E-1,2E0,-9.452072E-3,1.7436398E-2,2E0,1.3158847E0,2E0,-1.0912541E0,-3.1282106E-1,-8.637903E-2,1.3456802E0,2E0,8.613053E-1,-3.2549167E-1,1.2220632E0,2E0,1.0814128E0,7.357745E-1,2E0,1.409162E0,2E0,-1.0010253E0,-1.164459E0,-5.0203437E-1,2E0,1.0922675E0,-2.6428118E-1,9.9756896E-1,2E0,8.35917E-2,6.324641E-2,-1.2795118E-2,7.1455665E-2,-8.369288E-1,1.085014E-1,2E0,7.8006977E-1,2E0,-3.1393383E-2,5.3183764E-1,2E0,5.2480537E-1,2E0,2E0,8.925823E-1,1.4399388E-1,2E0,1.9649066E-2,2E0,-4.422002E-2,-2.6904609E-2,-4.9153496E-2,-4.2541575E-2,1.0909616E-3,-3.7198935E-2,8.35917E-2,-2.9983941E-2,3.0529045E-2,8.35917E-2,-1.3904289E-2,8.35917E-2,2.5277374E-2,7.598301E-2,8.35917E-2,5.5970445E-2,-3.6253337E-2,8.35917E-2,-2.515153E-2,1.6705405E-2,8.35917E-2,-2.6850559E-2,1.5515436E-2,6.5820575E-2,2.6931709E-2,8.35917E-2,5.2165143E-2,-4.96496E-2,4.140246E-2,8.35917E-2,1.3274063E-2,8.35917E-2,8.35917E-2,-1.2958928E-2,8.35917E-2,3.0639807E-2,1.6016077E-2,8.35917E-2,-1.2783396E-2,8.35917E-2,4.2552177E-2,8.35917E-2,8.35917E-2,6.0195126E-2],"categories":[],"categories_nodes":[],"categories_segments":[],"categories_sizes":[],"default_left":[0,0,0,0,0,0,0,0,0,0,0,0,0,0,0,0,0,0,0,0,0,0,0,0,0,0,0,0,0,0,0,0,0,0,0,0,0,0,0,0,0,0,0,0,0,0,0,0,0,0,0,0,0,0,0,0,0,0,0,0,0,0,0,0,0,0,0,0,0,0,0,0,0,0,0,0,0,0,0,0,0,0,0,0,0,0,0,0,0,0,0,0,0,0,0,0,0,0,0,0,0],"id":2,"left_children":[1,3,5,7,9,11,13,15,17,19,-1,21,23,25,27,29,31,33,35,37,39,41,43,45,47,49,51,53,55,57,59,61,63,65,67,69,71,-1,-1,-1,-1,73,75,77,79,81,-1,83,85,87,89,91,93,95,97,-1,99,-1,-1,-1,-1,-1,-1,-1,-1,-1,-1,-1,-1,-1,-1,-1,-1,-1,-1,-1,-1,-1,-1,-1,-1,-1,-1,-1,-1,-1,-1,-1,-1,-1,-1,-1,-1,-1,-1,-1,-1,-1,-1,-1,-1],"loss_changes":[7.0791484E3,9.594956E2,2.649464E3,6.0290625E2,1.0134033E1,9.156292E2,1.3896338E2,6.913086E1,1.2545787E2,6.363159E0,0E0,6.110293E2,1.8166138E1,1.9331232E2,1.3433105E1,3.560742E1,5.1498127E1,7.29292E1,2.7921509E1,4.8675537E-1,5.2791038E0,2.5556885E2,1.2232352E2,1.744043E1,1.4651707E1,7.52604E1,1.3637695E1,5.999729E1,5.071289E0,4.9281006E1,4.932617E0,2.2151237E1,1.6342575E1,2.2519558E1,5.3503323E1,1.916819E1,1.2259369E0,0E0,0E0,0E0,0E0,5.275128E1,1.288676E2,3.458499E1,7.004936E1,1.123291E1,0E0,1.94576E1,2.2801857E0,6.8665184E1,1.1443756E1,5.201477E0,9.153499E0,2.2289358E1,5.053955E0,0E0,5.8447266E-1,0E0,0E0,0E0,0E0,0E0,0E0,0E0,0E0,0E0,0E0,0E0,0E0,0E0,0E0,0E0,0E0,0E0,0E0,0E0,0E0,0E0,0E0,0E0,0E0,0E0,0E0,0E0,0E0,0E0,0E0,0E0,0E0,0E0,0E0,0E0,0E0,0E0,0E0,0E0,0E0,0E0,0E0,0E0,0E0],"parents":[2147483647,0,0,1,1,2,2,3,3,4,4,5,5,6,6,7,7,8,8,9,9,11,11,12,12,13,13,14,14,15,15,16,16,17,17,18,18,19,19,20,20,21,21,22,22,23,23,24,24,25,25,26,26,27,27,28,28,29,29,30,30,31,31,32,32,33,33,34,34,35,35,36,36,41,41,42,42,43,43,44,44,45,45,47,47,48,48,49,49,50,50,51,51,52,52,53,53,54,54,56,56],"right_children":[2,4,6,8,10,12,14,16,18,20,-1,22,24,26,28,30,32,34,36,38,40,42,44,46,48,50,52,54,56,58,60,62,64,66,68,70,72,-1,-1,-1,-1,74,76,78,80,82,-1,84,86,88,90,92,94,96,98,-1,100,-1,-1,-1,-1,-1,-1,-1,-1,-1,-1,-1,-1,-1,-1,-1,-1,-1,-1,-1,-1,-1,-1,-1,-1,-1,-1,-1,-1,-1,-1,-1,-1,-1,-1,-1,-1,-1,-1,-1,-1,-1,-1,-1,-1],"split_conditions":[1E0,1E1,1E0,6.25E-2,1E0,8E0,5E0,4E0,6E0,9.52381E-2,-9.452072E-3,6.25E-2,1.0526316E-1,1E0,1E0,2E0,3E0,8E0,8E0,2.3529412E-1,1.7712904E4,1.81E2,9E0,4E0,6.25E-2,1.5E1,8E1,2E0,9.1682E4,6E0,1.3888888E0,2E0,2.4E1,1.1111112E0,3E0,6.305555E-2,2.25E-1,8.35917E-2,6.324641E-2,-1.2795118E-2,7.1455665E-2,1.21E2,1E0,3.6E1,5E0,1E0,-3.1393383E-2,5E0,1E0,6E0,8.9E1,1.24E2,5E0,8.05E-1,5.265486E-2,1.9649066E-2,5.05E-1,-4.422002E-2,-2.6904609E-2,-4.9153496E-2,-4.2541575E-2,1.0909616E-3,-3.7198935E-2,8.35917E-2,-2.9983941E-2,3.0529045E-2,8.35917E-2,-1.3904289E-2,8.35917E-2,2.5277374E-2,7.598301E-2,8.35917E-2,5.5970445E-2,-3.6253337E-2,8.35917E-2,-2.515153E-2,1.6705405E-2,8.35917E-2,-2.6850559E-2,1.5515436E-2,6.5820575E-2,2.6931709E-2,8.35917E-2,5.2165143E-2,-4.96496E-2,4.140246E-2,8.35917E-2,1.3274063E-2,8.35917E-2,8.35917E-2,-1.2958928E-2,8.35917E-2,3.0639807E-2,1.6016077E-2,8.35917E-2,-1.2783396E-2,8.35917E-2,4.2552177E-2,8.35917E-2,8.35917E-2,6.0195126E-2],"split_indices":[114,0,118,89,33,0,0,119,0,97,0,89,97,22,116,80,118,81,0,107,93,82,81,22,89,24,13,119,75,0,85,80,80,89,118,95,103,0,0,0,0,6,116,21,90,116,0,80,77,90,58,44,90,67,95,0,72,0,0,0,0,0,0,0,0,0,0,0,0,0,0,0,0,0,0,0,0,0,0,0,0,0,0,0,0,0,0,0,0,0,0,0,0,0,0,0,0,0,0,0,0],"split_type":[0,0,0,0,0,0,0,0,0,0,0,0,0,0,0,0,0,0,0,0,0,0,0,0,0,0,0,0,0,0,0,0,0,0,0,0,0,0,0,0,0,0,0,0,0,0,0,0,0,0,0,0,0,0,0,0,0,0,0,0,0,0,0,0,0,0,0,0,0,0,0,0,0,0,0,0,0,0,0,0,0,0,0,0,0,0,0,0,0,0,0,0,0,0,0,0,0,0,0,0,0],"sum_hessian":[8.5111455E3,6.002401E3,2.5087444E3,5.9494404E3,5.2960545E1,1.6161667E3,8.925778E2,5.527795E3,4.2164536E2,5.0939037E1,2.0215046E0,1.4788916E3,1.3727513E2,2.9779346E2,5.9478436E2,5.411136E3,1.1665892E2,3.4752127E2,7.412408E1,4.578947E1,5.1495695E0,1.1512433E3,3.2764832E2,1.1531321E2,2.1961931E1,2.0836032E2,8.943312E1,3.9685856E1,5.550985E2,2.4245088E3,2.9866272E3,1.0796465E2,8.694268E0,4.5496567E1,3.0202472E2,5.9760098E1,1.436398E1,4.1904297E1,3.8851712E0,2.1974149E0,2.9521546E0,5.2842255E2,6.228207E2,1.1197526E2,2.1567305E2,1.1306412E2,2.2490873E0,1.5538736E1,6.4231944E0,1.8779051E2,2.0569815E1,7.805034E1,1.1382784E1,2.1469902E1,1.8215954E1,2.2501962E0,5.528483E2,2.0908792E3,3.3362973E2,2.7672744E3,2.1935269E2,4.5767532E1,6.2197124E1,6.5347815E0,2.159487E0,3.745991E1,8.036657E0,2.9448508E2,7.5396485E0,4.0547844E1,1.9212252E1,1.061496E1,3.7490203E0,5.237241E2,4.6984563E0,1.8105692E2,4.417638E2,1.0707222E2,4.9030366E0,1.4252318E2,7.314988E1,6.2496495E0,1.0681447E2,1.099271E1,4.5460267E0,2.576881E0,3.8463132E0,1.6877615E2,1.9014357E1,1.84553E1,2.114516E0,7.4636024E1,3.4143136E0,8.95726E0,2.4255233E0,1.8145918E1,3.3239827E0,5.6066937E0,1.260926E1,5.4962604E2,3.2222373E0],"tree_param":{"num_deleted":"0","num_feature":"120","num_nodes":"101","size_leaf_vector":"1"}},{"base_weights":[-3.417012E-1,-9.324158E-1,1.0119382E0,-9.7410864E-1,2E0,4.1208932E-1,2E0,-1.0618275E0,1.2398976E-1,2E0,9.4264716E-1,-2.269065E-2,1.567263E0,1.3309728E0,2E0,-1.0787228E0,-3.0444044E-1,-2.47231E-1,8.9545316E-1,1.7120802E0,8.35917E-2,3.8264725E-2,8.35917E-2,-2.3971751E-1,1.7527201E0,8.4016186E-1,2E0,6.7203045E-1,2E0,2E0,-3.6146503E-2,-1.1544645E0,-9.875795E-1,-5.81241E-1,1.0666233E0,-3.1812656E-1,2E0,1.3618248E0,-6.645016E-3,8.1478685E-1,8.35917E-2,-2.8823165E-2,5.0472677E-2,-7.6076084E-1,1.7586991E-1,2.2880927E-1,2E0,2.1744236E-1,1.1802485E0,1.2891276E0,2E0,1.5268326E-1,2E0,8.35917E-2,6.1077796E-2,2E0,6.0318254E-2,-4.87961E-2,-4.1952606E-2,-4.373763E-2,-2.5813809E-2,-3.5970468E-2,7.6680123E-3,-2.601702E-3,8.35917E-2,-2.9438563E-2,-3.040854E-3,8.140262E-3,8.35917E-2,4.668044E-2,8.35917E-2,5.3944696E-2,-5.174169E-3,8.35917E-2,-7.4815485E-3,3.799744E-2,-3.3807933E-2,-2.4561381E-2,1.9272117E-2,-1.4572466E-2,8.35917E-2,4.3196756E-2,8.35917E-2,-1.1184138E-3,5.431711E-2,8.35917E-2,3.6237415E-2,8.35917E-2,3.8476877E-2,5.1915847E-2,8.35917E-2,8.35917E-2,-3.8221402E-3,8.35917E-2,5.9173806E-3,8.35917E-2,6.1036047E-2],"categories":[],"categories_nodes":[],"categories_segments":[],"categories_sizes":[],"default_left":[0,0,0,0,0,0,0,0,0,0,0,0,0,0,0,0,0,0,0,0,0,0,0,0,0,0,0,0,0,0,0,0,0,0,0,0,0,0,0,0,0,0,0,0,0,0,0,0,0,0,0,0,0,0,0,0,0,0,0,0,0,0,0,0,0,0,0,0,0,0,0,0,0,0,0,0,0,0,0,0,0,0,0,0,0,0,0,0,0,0,0,0,0,0,0,0,0],"id":3,"left_children":[1,3,5,7,9,11,13,15,17,19,21,23,25,27,29,31,33,35,37,39,-1,41,-1,43,45,47,49,51,53,55,-1,57,59,61,63,65,67,69,71,73,-1,-1,-1,75,77,79,81,83,85,87,89,91,93,-1,-1,95,-1,-1,-1,-1,-1,-1,-1,-1,-1,-1,-1,-1,-1,-1,-1,-1,-1,-1,-1,-1,-1,-1,-1,-1,-1,-1,-1,-1,-1,-1,-1,-1,-1,-1,-1,-1,-1,-1,-1,-1,-1],"loss_changes":[6.714667E3,9.434697E2,2.4098735E3,5.5774023E2,9.208374E0,9.7623413E2,7.373633E1,6.8572266E1,1.2271974E2,4.2645264E-1,1.4161387E1,5.442319E2,1.9507153E2,1.5899252E2,2.3808105E1,3.6075195E1,4.453761E1,5.182724E1,5.8569046E1,1.0206539E1,0E0,5.4747505E0,0E0,2.7254916E2,1.5039871E2,4.642238E1,4.459253E1,9.341756E1,2.8671265E-1,3.4277344E-1,0E0,5.486084E0,5.179492E1,2.0862408E1,3.312964E1,2.6683228E1,6.6461716E0,2.4668564E1,7.2479544E0,1.5254742E1,0E0,0E0,0E0,4.496338E1,1.5253003E2,5.5017475E1,1.9397705E1,2.0520609E1,3.67381E1,2.9323685E1,3.5856323E1,5.436399E1,2.398935E1,0E0,0E0,1.8554688E-1,0E0,0E0,0E0,0E0,0E0,0E0,0E0,0E0,0E0,0E0,0E0,0E0,0E0,0E0,0E0,0E0,0E0,0E0,0E0,0E0,0E0,0E0,0E0,0E0,0E0,0E0,0E0,0E0,0E0,0E0,0E0,0E0,0E0,0E0,0E0,0E0,0E0,0E0,0E0,0E0,0E0],"parents":[2147483647,0,0,1,1,2,2,3,3,4,4,5,5,6,6,7,7,8,8,9,9,10,10,11,11,12,12,13,13,14,14,15,15,16,16,17,17,18,18,19,19,21,21,23,23,24,24,25,25,26,26,27,27,28,28,29,29,31,31,32,32,33,33,34,34,35,35,36,36,37,37,38,38,39,39,43,43,44,44,45,45,46,46,47,47,48,48,49,49,50,50,51,51,52,52,55,55],"right_children":[2,4,6,8,10,12,14,16,18,20,22,24,26,28,30,32,34,36,38,40,-1,42,-1,44,46,48,50,52,54,56,-1,58,60,62,64,66,68,70,72,74,-1,-1,-1,76,78,80,82,84,86,88,90,92,94,-1,-1,96,-1,-1,-1,-1,-1,-1,-1,-1,-1,-1,-1,-1,-1,-1,-1,-1,-1,-1,-1,-1,-1,-1,-1,-1,-1,-1,-1,-1,-1,-1,-1,-1,-1,-1,-1,-1,-1,-1,-1,-1,-1],"split_conditions":[1E0,1E1,7E0,6.25E-2,8.3333336E-2,6.25E-2,1.4814815E-1,4E0,5E0,1.1E1,4.2857143E-1,4E0,3.75E-1,1E1,8.62E-1,1.56E2,2E0,1E1,1.6981132E-1,6.25E-2,8.35917E-2,9.96615E4,8.35917E-2,1.7E2,1.08E2,1E-1,2.6923078E-1,1.25E-1,1E-1,8E0,-3.6146503E-2,1.0909091E0,6E0,4E0,1.7E1,6.75E-2,1.7E1,8E0,4.28E-1,2E-2,8.35917E-2,-2.8823165E-2,5.0472677E-2,0E0,1E-1,1E0,3.75E-1,4E-2,4E0,4E0,3E0,5.766353E3,6E-1,8.35917E-2,6.1077796E-2,4.23333E5,6.0318254E-2,-4.87961E-2,-4.1952606E-2,-4.373763E-2,-2.5813809E-2,-3.5970468E-2,7.6680123E-3,-2.601702E-3,8.35917E-2,-2.9438563E-2,-3.040854E-3,8.140262E-3,8.35917E-2,4.668044E-2,8.35917E-2,5.3944696E-2,-5.174169E-3,8.35917E-2,-7.4815485E-3,3.799744E-2,-3.3807933E-2,-2.4561381E-2,1.9272117E-2,-1.4572466E-2,8.35917E-2,4.3196756E-2,8.35917E-2,-1.1184138E-3,5.431711E-2,8.35917E-2,3.6237415E-2,8.35917E-2,3.8476877E-2,5.1915847E-2,8.35917E-2,8.35917E-2,-3.8221402E-3,8.35917E-2,5.9173806E-3,8.35917E-2,6.1036047E-2],"split_indices":[114,0,0,89,97,89,113,119,0,0,115,119,115,0,73,82,118,2,107,89,0,94,0,82,82,115,113,89,97,43,0,85,0,0,119,96,119,0,67,107,0,0,0,77,115,45,115,117,83,83,0,94,111,0,0,75,0,0,0,0,0,0,0,0,0,0,0,0,0,0,0,0,0,0,0,0,0,0,0,0,0,0,0,0,0,0,0,0,0,0,0,0,0,0,0,0,0],"split_type":[0,0,0,0,0,0,0,0,0,0,0,0,0,0,0,0,0,0,0,0,0,0,0,0,0,0,0,0,0,0,0,0,0,0,0,0,0,0,0,0,0,0,0,0,0,0,0,0,0,0,0,0,0,0,0,0,0,0,0,0,0,0,0,0,0,0,0,0,0,0,0,0,0,0,0,0,0,0,0,0,0,0,0,0,0,0,0,0,0,0,0,0,0,0,0,0,0],"sum_hessian":[8.397125E3,5.846018E3,2.5511064E3,5.7899727E3,5.6045265E1,1.9436022E3,6.0750433E2,5.361674E3,4.2829913E2,4.750978E1,8.535487E0,1.4121964E3,5.3140576E2,1.6565582E2,4.4184854E2,5.2446294E3,1.1704448E2,2.8921027E2,1.3908887E2,1.058499E1,3.692479E1,6.1980066E0,2.3374803E0,1.2584618E3,1.5373463E2,2.1922868E2,3.1217706E2,1.3237862E2,3.3277218E1,4.390076E2,2.840922E0,2.8635854E3,2.381044E3,9.743982E1,1.960466E1,2.8151404E2,7.6962123E0,9.165007E1,4.74388E1,8.111393E0,2.4735973E0,3.8484313E0,2.3495755E0,5.583444E2,7.001173E2,5.0973427E1,1.0276121E2,7.750491E1,1.4172377E2,8.904129E1,2.2313576E2,9.586277E1,3.6515842E1,3.0814476E1,2.4627414E0,4.3652963E2,2.4779725E0,2.6351162E3,2.2846901E2,2.0539463E3,3.2709744E2,7.135714E1,2.6082682E1,1.1820707E1,7.7839518E0,1.0928256E2,1.7223148E2,2.0670664E0,5.6291456E0,8.002368E1,1.16263895E1,3.832714E0,4.3606087E1,2.4848137E0,5.626579E0,1.5580964E1,5.427635E2,1.9037785E2,5.0973947E2,3.899464E1,1.197879E1,2.1146555E1,8.161465E1,6.3325397E1,1.4179521E1,3.8608406E1,1.0311537E2,2.49239E1,6.411739E1,6.3116837E1,1.6001892E2,8.567791E0,8.729498E1,2.9550257E1,6.965583E0,4.3442285E2,2.1067996E0],"tree_param":{"num_deleted":"0","num_feature":"120","num_nodes":"97","size_leaf_vector":"1"}},{"base_weights":[-3.3425975E-1,-9.200265E-1,9.579037E-1,-9.618708E-1,2E0,3.8099423E-1,2E0,-1.0492166E0,1.1129895E-1,1.2632061E0,2E0,6.539135E-2,1.797803E0,1.2145886E0,2E0,-1.065841E0,-3.1098142E-1,-2.4116935E-1,8.2385176E-1,5.2392954E-1,8.35917E-2,4.3475255E-2,8.35917E-2,-2.4536206E-1,1.1647518E0,1.0178697E0,2E0,6.0004383E-1,2E0,2E0,-3.545391E-2,-9.700233E-1,-1.144542E0,-4.8590538E-1,1.9377197E0,9.210428E-1,-4.0424863E-1,1.2331767E0,-3.6056626E-3,1.7732573E0,-5.0159357E-2,6.3932195E-2,-8.5550815E-1,2E0,6.170192E-1,6.6990215E-1,2E0,1.1392415E0,2E0,8.103872E-2,1.8681018E0,8.35917E-2,5.6680836E-2,2E0,4.4614706E-2,-4.313126E-2,-2.474342E-2,-4.7933504E-2,-1.767394E-2,-5.6127966E-3,-4.1281305E-2,8.35917E-2,-1.0095767E-2,2.2605907E-2,7.653682E-2,-2.0165987E-2,8.35917E-2,4.2809255E-2,8.35917E-2,4.7985457E-2,-8.751052E-3,1.09682E-2,8.35917E-2,-2.560874E-2,1.3196557E-2,1.8706681E-2,-3.7319284E-2,6.0451087E-2,8.35917E-2,7.0309876E-3,6.4746484E-2,-2.2396564E-2,3.8687333E-2,8.35917E-2,-2.759512E-2,1.71996E-2,8.35917E-2,5.007956E-2,8.35917E-2,2.9016549E-2,-2.9399445E-2,8.35917E-2,7.0926547E-3,8.35917E-2,5.7952486E-2],"categories":[],"categories_nodes":[],"categories_segments":[],"categories_sizes":[],"default_left":[0,0,0,0,0,0,0,0,0,0,0,0,0,0,0,0,0,0,0,0,0,0,0,0,0,0,0,0,0,0,0,0,0,0,0,0,0,0,0,0,0,0,0,0,0,0,0,0,0,0,0,0,0,0,0,0,0,0,0,0,0,0,0,0,0,0,0,0,0,0,0,0,0,0,0,0,0,0,0,0,0,0,0,0,0,0,0,0,0,0,0,0,0,0,0],"id":4,"left_children":[1,3,5,7,9,11,13,15,17,19,21,23,25,27,29,31,33,35,37,39,-1,-1,-1,41,43,45,47,49,51,53,-1,55,57,59,61,63,65,67,69,71,-1,73,75,77,79,81,83,85,87,89,91,-1,-1,93,-1,-1,-1,-1,-1,-1,-1,-1,-1,-1,-1,-1,-1,-1,-1,-1,-1,-1,-1,-1,-1,-1,-1,-1,-1,-1,-1,-1,-1,-1,-1,-1,-1,-1,-1,-1,-1,-1,-1,-1,-1],"loss_changes":[6.2681597E3,8.9323E2,2.3057893E3,5.287051E2,8.507385E0,8.719508E2,1.02004395E2,6.397168E1,1.06667114E2,1.8768633E1,1.5669556E0,5.449101E2,9.478833E1,1.5750409E2,2.3024414E1,3.8335938E1,4.5358997E1,5.3904724E1,4.760772E1,2.8129484E1,0E0,0E0,0E0,2.3468222E2,1.7423587E2,5.244403E1,3.1159058E1,8.743682E1,6.4312744E-1,1.4116211E0,0E0,5.379492E1,4.604004E0,1.8831608E1,1.0362343E1,1.1998314E1,5.368856E1,2.2015167E1,1.1080704E1,9.413738E0,0E0,1.4064476E2,2.0427673E1,1.0560913E1,9.1812805E1,2.8412506E1,2.5391678E1,3.8636044E1,1.8728882E1,4.547373E1,2.2097E1,0E0,0E0,8.1396484E-1,0E0,0E0,0E0,0E0,0E0,0E0,0E0,0E0,0E0,0E0,0E0,0E0,0E0,0E0,0E0,0E0,0E0,0E0,0E0,0E0,0E0,0E0,0E0,0E0,0E0,0E0,0E0,0E0,0E0,0E0,0E0,0E0,0E0,0E0,0E0,0E0,0E0,0E0,0E0,0E0,0E0],"parents":[2147483647,0,0,1,1,2,2,3,3,4,4,5,5,6,6,7,7,8,8,9,9,10,10,11,11,12,12,13,13,14,14,15,15,16,16,17,17,18,18,19,19,23,23,24,24,25,25,26,26,27,27,28,28,29,29,31,31,32,32,33,33,34,34,35,35,36,36,37,37,38,38,39,39,41,41,42,42,43,43,44,44,45,45,46,46,47,47,48,48,49,49,50,50,53,53],"right_children":[2,4,6,8,10,12,14,16,18,20,22,24,26,28,30,32,34,36,38,40,-1,-1,-1,42,44,46,48,50,52,54,-1,56,58,60,62,64,66,68,70,72,-1,74,76,78,80,82,84,86,88,90,92,-1,-1,94,-1,-1,-1,-1,-1,-1,-1,-1,-1,-1,-1,-1,-1,-1,-1,-1,-1,-1,-1,-1,-1,-1,-1,-1,-1,-1,-1,-1,-1,-1,-1,-1,-1,-1,-1,-1,-1,-1,-1,-1,-1],"split_conditions":[1E0,1E1,7E0,6.25E-2,1.1E1,4E0,1.4814815E-1,4E0,5E0,4E0,4.8E-2,6.25E-2,4E-2,1E1,8.62E-1,2E0,3E0,8E0,1.6981132E-1,1E1,8.35917E-2,4.3475255E-2,8.35917E-2,2E0,6E0,1E0,3E0,1.25E-1,1E-1,1.74E2,-3.545391E-2,6E0,5.4545456E-1,1.3E2,7E0,6.761111E-2,1E0,8E0,3E0,3.3333334E-1,-5.0159357E-2,1E-1,0E0,2.857143E-1,5E0,1E-1,1.9E1,1E0,3.75E-1,1E0,6E-1,8.35917E-2,5.6680836E-2,2.7272728E-1,4.4614706E-2,-4.313126E-2,-2.474342E-2,-4.7933504E-2,-1.767394E-2,-5.6127966E-3,-4.1281305E-2,8.35917E-2,-1.0095767E-2,2.2605907E-2,7.653682E-2,-2.0165987E-2,8.35917E-2,4.2809255E-2,8.35917E-2,4.7985457E-2,-8.751052E-3,1.09682E-2,8.35917E-2,-2.560874E-2,1.3196557E-2,1.8706681E-2,-3.7319284E-2,6.0451087E-2,8.35917E-2,7.0309876E-3,6.4746484E-2,-2.2396564E-2,3.8687333E-2,8.35917E-2,-2.759512E-2,1.71996E-2,8.35917E-2,5.007956E-2,8.35917E-2,2.9016549E-2,-2.9399445E-2,8.35917E-2,7.0926547E-3,8.35917E-2,5.7952486E-2],"split_indices":[114,0,0,89,0,119,113,119,0,81,95,89,117,0,73,80,118,81,107,80,0,0,0,83,81,24,0,89,97,29,0,0,96,80,81,95,25,0,83,115,0,115,77,89,90,115,3,16,115,80,111,0,0,97,0,0,0,0,0,0,0,0,0,0,0,0,0,0,0,0,0,0,0,0,0,0,0,0,0,0,0,0,0,0,0,0,0,0,0,0,0,0,0,0,0],"split_type":[0,0,0,0,0,0,0,0,0,0,0,0,0,0,0,0,0,0,0,0,0,0,0,0,0,0,0,0,0,0,0,0,0,0,0,0,0,0,0,0,0,0,0,0,0,0,0,0,0,0,0,0,0,0,0,0,0,0,0,0,0,0,0,0,0,0,0,0,0,0,0,0,0,0,0,0,0,0,0,0,0,0,0,0,0,0,0,0,0,0,0,0,0,0,0],"sum_hessian":[8.281033E3,5.698025E3,2.5830085E3,5.6400312E3,5.7993534E1,1.9499353E3,6.330733E2,5.21554E3,4.244915E2,1.6407001E1,4.1586533E1,1.5948041E3,3.551312E2,1.659915E2,4.6708182E2,5.1006255E3,1.149143E2,2.840558E2,1.404357E2,1.282789E1,3.5791116E0,2.0879304E0,3.9498604E1,1.2434182E3,3.5138583E2,1.13690094E2,2.414411E2,1.3276672E2,3.3224773E1,4.643029E2,2.7789285E0,2.3008774E3,2.7997483E3,1.0670458E2,8.209714E0,3.4886753E1,2.4916902E2,9.392056E1,4.651513E1,7.4365096E0,5.3913803E0,8.2520654E2,4.182117E2,1.3195139E2,2.1943443E2,9.1837616E1,2.1852478E1,4.256421E1,1.9887689E2,9.429569E1,3.8471035E1,3.0674952E1,2.549824E0,4.6226352E2,2.039367E0,1.9768268E3,3.2405054E2,2.7907593E3,8.988965E0,6.282777E1,4.3876816E1,6.165642E0,2.044072E0,2.4738266E1,1.0148487E1,2.4248991E2,6.6791096E0,8.15682E1,1.235236E1,6.9701476E0,3.9544983E1,3.2852952E0,4.1512146E0,2.2375963E2,6.014469E2,1.1627924E1,4.0658377E2,3.584218E1,9.6109215E1,1.4820963E2,7.122481E1,1.6046385E1,7.579123E1,1.83155E1,3.5369778E0,2.7911612E1,1.4652597E1,2.973587E1,1.6914102E2,5.293275E1,4.1362946E1,3.1650858E1,6.820176E0,4.5898846E2,3.2750711E0],"tree_param":{"num_deleted":"0","num_feature":"120","num_nodes":"95","size_leaf_vector":"1"}},{"base_weights":[-3.131255E-1,-9.014831E-1,9.302819E-1,-9.4451636E-1,2E0,3.762157E-1,2E0,-1.0356809E0,1.2595151E-1,1.2007117E0,2E0,-4.7753848E-2,1.3683187E0,1.250693E0,2E0,-1.0463725E0,2.2884822E-1,-2.2400595E-1,8.2042646E-1,5.3006977E-1,8.35917E-2,5.8280163E-2,8.35917E-2,-3.4233028E-1,9.051264E-1,9.4652635E-1,2E0,7.43478E-1,2E0,2E0,2.6475186E-3,-9.4552606E-1,-1.129119E0,-3.7081042E-1,2E0,8.099795E-1,-3.786579E-1,6.1966085E-1,2E0,1.6033994E0,-1.0317621E0,-8.922793E-1,-3.7100572E-2,-7.307886E-2,1.1519616E0,6.3962114E-1,1.793959E0,1.1356367E0,2E0,4.2550552E-1,8.35917E-2,2E0,2.2668604E-2,2E0,1.7855953E0,-4.212899E-2,-2.345004E-2,-4.72892E-2,-1.7189372E-2,4.8749592E-2,-3.254301E-2,8.35917E-2,2.752343E-2,4.6995655E-2,-1.5258631E-2,-1.789435E-2,8.35917E-2,4.0710907E-2,-2.5073527E-3,4.3242678E-2,8.35917E-2,4.7074426E-3,8.35917E-2,-4.961444E-2,-2.8772213E-2,-3.8351327E-2,5.1101707E-2,-2.4281578E-2,7.68907E-3,5.1763363E-2,-1.2169633E-2,8.35917E-2,3.9753042E-2,4.400014E-2,-1.11385705E-2,8.35917E-2,2.4844602E-2,1.7376121E-2,8.35917E-2,8.35917E-2,1.0264558E-2,-2.2318164E-2,4.082302E-2,8.35917E-2,1.6644489E-2,8.35917E-2,6.608857E-2,3.560854E-2,8.35917E-2],"categories":[],"categories_nodes":[],"categories_segments":[],"categories_sizes":[],"default_left":[0,0,0,0,0,0,0,0,0,0,0,0,0,0,0,0,0,0,0,0,0,0,0,0,0,0,0,0,0,0,0,0,0,0,0,0,0,0,0,0,0,0,0,0,0,0,0,0,0,0,0,0,0,0,0,0,0,0,0,0,0,0,0,0,0,0,0,0,0,0,0,0,0,0,0,0,0,0,0,0,0,0,0,0,0,0,0,0,0,0,0,0,0,0,0,0,0,0,0],"id":5,"left_children":[1,3,5,7,9,11,13,15,17,19,21,23,25,27,29,31,33,35,37,39,-1,-1,-1,41,43,45,47,49,51,53,-1,55,57,59,61,63,65,67,69,71,73,75,77,79,81,83,85,87,89,91,-1,93,-1,95,97,-1,-1,-1,-1,-1,-1,-1,-1,-1,-1,-1,-1,-1,-1,-1,-1,-1,-1,-1,-1,-1,-1,-1,-1,-1,-1,-1,-1,-1,-1,-1,-1,-1,-1,-1,-1,-1,-1,-1,-1,-1,-1,-1,-1],"loss_changes":[5.9627007E3,8.60834E2,2.185202E3,5.3396387E2,1.108374E1,8.265829E2,1.0844531E2,6.8197754E1,1.0440753E2,1.9331608E1,3.7045288E-1,3.8652155E2,2.1110498E2,1.0904913E2,8.190186E0,4.1598633E1,5.513708E1,4.571874E1,4.268145E1,2.4510796E1,0E0,0E0,0E0,1.7655624E2,7.8525696E1,1.0446628E2,2.8544617E1,8.875158E1,7.6375732E0,1.2404785E0,0E0,5.4051636E1,4.5063477E0,2.1130177E1,3.4408417E0,1.3795969E1,4.1732292E1,3.0779377E1,3.1220016E0,1.157497E1,2.24545E-1,2.0225372E1,8.1353226E1,1.881552E1,4.7614624E1,1.1062338E2,6.3775116E1,3.0146297E1,7.614929E0,6.569444E1,0E0,7.154297E0,0E0,3.2592773E-1,2.6386826E1,0E0,0E0,0E0,0E0,0E0,0E0,0E0,0E0,0E0,0E0,0E0,0E0,0E0,0E0,0E0,0E0,0E0,0E0,0E0,0E0,0E0,0E0,0E0,0E0,0E0,0E0,0E0,0E0,0E0,0E0,0E0,0E0,0E0,0E0,0E0,0E0,0E0,0E0,0E0,0E0,0E0,0E0,0E0,0E0],"parents":[2147483647,0,0,1,1,2,2,3,3,4,4,5,5,6,6,7,7,8,8,9,9,10,10,11,11,12,12,13,13,14,14,15,15,16,16,17,17,18,18,19,19,23,23,24,24,25,25,26,26,27,27,28,28,29,29,31,31,32,32,33,33,34,34,35,35,36,36,37,37,38,38,39,39,40,40,41,41,42,42,43,43,44,44,45,45,46,46,47,47,48,48,49,49,51,51,53,53,54,54],"right_children":[2,4,6,8,10,12,14,16,18,20,22,24,26,28,30,32,34,36,38,40,-1,-1,-1,42,44,46,48,50,52,54,-1,56,58,60,62,64,66,68,70,72,74,76,78,80,82,84,86,88,90,92,-1,94,-1,96,98,-1,-1,-1,-1,-1,-1,-1,-1,-1,-1,-1,-1,-1,-1,-1,-1,-1,-1,-1,-1,-1,-1,-1,-1,-1,-1,-1,-1,-1,-1,-1,-1,-1,-1,-1,-1,-1,-1,-1,-1,-1,-1,-1,-1],"split_conditions":[1E0,1E1,7E0,6.25E-2,1.1E1,4E-2,8E0,2E0,5E0,1.1111111E-1,4.8E-2,6.25E-2,8E0,1.6E-1,6E1,2E0,1.7E1,8E0,8E0,1.1E1,8.35917E-2,5.8280163E-2,8.35917E-2,1.04E2,1E-1,2.857143E-1,3E0,5E0,1.64E2,1.25E-1,2.6475186E-3,6E0,5.4545456E-1,4E0,2.4E1,1.25E-4,4E1,1.6981132E-1,2.7E-1,3.3333334E-1,7.47E-1,1E0,1E-1,6E0,3E0,2E0,2.2E1,1E1,7.6E1,1.1E2,8.35917E-2,4.374E3,2.2668604E-2,2.0602698E8,4.5454547E-1,-4.212899E-2,-2.345004E-2,-4.72892E-2,-1.7189372E-2,4.8749592E-2,-3.254301E-2,8.35917E-2,2.752343E-2,4.6995655E-2,-1.5258631E-2,-1.789435E-2,8.35917E-2,4.0710907E-2,-2.5073527E-3,4.3242678E-2,8.35917E-2,4.7074426E-3,8.35917E-2,-4.961444E-2,-2.8772213E-2,-3.8351327E-2,5.1101707E-2,-2.4281578E-2,7.68907E-3,5.1763363E-2,-1.2169633E-2,8.35917E-2,3.9753042E-2,4.400014E-2,-1.11385705E-2,8.35917E-2,2.4844602E-2,1.7376121E-2,8.35917E-2,8.35917E-2,1.0264558E-2,-2.2318164E-2,4.082302E-2,8.35917E-2,1.6644489E-2,8.35917E-2,6.608857E-2,3.560854E-2,8.35917E-2],"split_indices":[114,0,0,89,0,117,0,118,0,89,95,89,119,89,43,80,119,81,0,80,0,0,0,82,115,89,0,119,64,97,0,0,96,87,80,73,119,107,69,115,68,25,115,81,83,83,81,10,36,82,0,77,0,91,115,0,0,0,0,0,0,0,0,0,0,0,0,0,0,0,0,0,0,0,0,0,0,0,0,0,0,0,0,0,0,0,0,0,0,0,0,0,0,0,0,0,0,0,0],"split_type":[0,0,0,0,0,0,0,0,0,0,0,0,0,0,0,0,0,0,0,0,0,0,0,0,0,0,0,0,0,0,0,0,0,0,0,0,0,0,0,0,0,0,0,0,0,0,0,0,0,0,0,0,0,0,0,0,0,0,0,0,0,0,0,0,0,0,0,0,0,0,0,0,0,0,0,0,0,0,0,0,0,0,0,0,0,0,0,0,0,0,0,0,0,0,0,0,0,0,0],"sum_hessian":[8.150321E3,5.5324834E3,2.6178374E3,5.4712905E3,6.1193188E1,1.9650028E3,6.528345E2,5.04191E3,4.2938013E2,1.7957277E1,4.323591E1,1.3767603E3,5.882426E2,1.9385564E2,4.5897885E2,4.9996587E3,4.225178E1,2.855584E2,1.4382173E2,1.4389131E1,3.5681467E0,2.1533744E0,4.1082535E1,1.0517073E3,3.25053E2,4.0205695E2,1.8618568E2,1.3822472E2,5.563092E1,4.5678604E2,2.1928263E0,2.2540269E3,2.7456316E3,3.341959E1,8.8321905E0,3.708908E1,2.4846931E2,1.2763909E2,1.618264E1,8.526992E0,5.8621387E0,3.7529395E2,6.7641327E2,6.551059E1,2.5954242E2,2.9531085E2,1.06746086E2,3.8709793E1,1.4747589E2,1.23977585E2,1.4247124E1,5.1932957E1,3.6979609E0,4.1989725E2,3.6888767E1,1.9389181E3,3.151087E2,2.7367417E3,8.8899145E0,6.961571E0,2.645802E1,6.777551E0,2.0546393E0,2.9264412E1,7.824667E0,2.4559775E2,2.871567E0,8.386355E1,4.3775547E1,3.731166E0,1.2451473E1,3.6462936E0,4.8806987E0,3.839211E0,2.0229278E0,3.7092117E2,4.372792E0,1.9543542E2,4.8097784E2,9.2625885E0,5.6248E1,4.6218597E1,2.1332382E2,2.0282283E2,9.248804E1,7.2049545E1,3.469654E1,2.3637104E1,1.5072687E1,1.4496591E2,2.50997E0,4.5236755E1,7.874083E1,4.9078484E1,2.854474E0,4.1552704E2,4.3702283E0,2.1547026E1,1.534174E1],"tree_param":{"num_deleted":"0","num_feature":"120","num_nodes":"99","size_leaf_vector":"1"}},{"base_weights":[-2.9863977E-1,-8.909487E-1,9.0007335E-1,-9.3315053E-1,2E0,4.3307933E-1,2E0,-1.0240457E0,1.0516812E-1,9.473413E-1,2E0,1.2680969E-1,1.7148931E0,2E0,6.852138E-3,-1.0408642E0,-3.000154E-1,-2.3403923E-1,7.7307725E-1,3.5116735E-1,8.35917E-2,6.576526E-2,8.35917E-2,-1.7643024E-1,1.1174269E0,1.1627741E0,2E0,1.7656298E0,8.35917E-2,-9.4323707E-1,-1.121579E0,2.4286304E-1,-8.998049E-1,8.3840173E-1,-3.9446968E-1,5.792025E-1,2E0,1.2387823E0,-1.0128764E0,-8.035327E-1,1.6544883E-1,1.8589661E0,6.432409E-1,7.3076487E-1,2E0,9.8317075E-1,2E0,6.2726885E-1,2E0,-4.1994095E-2,-2.41246E-2,-4.6994362E-2,-1.1429648E-2,-4.9132463E-3,7.60226E-2,-7.1427356E-3,-4.0679917E-2,2.1136329E-2,8.35917E-2,-1.868592E-2,8.35917E-2,1.9082114E-2,8.247405E-2,3.622119E-2,8.35917E-2,7.77887E-2,-3.0508563E-2,-2.9099746E-2,-4.9136184E-2,2.7082695E-2,-3.54463E-2,-2.1109689E-2,1.6666694E-2,-1.1589373E-2,8.043099E-2,4.647428E-3,5.1475212E-2,1.4002495E-2,6.1575945E-2,8.35917E-2,-6.2727733E-3,8.35917E-2,-2.3098884E-2,8.35917E-2,2.1411581E-2,8.18236E-3,6.61139E-2,5.6536764E-2,8.35917E-2],"categories":[],"categories_nodes":[],"categories_segments":[],"categories_sizes":[],"default_left":[0,0,0,0,0,0,0,0,0,0,0,0,0,0,0,0,0,0,0,0,0,0,0,0,0,0,0,0,0,0,0,0,0,0,0,0,0,0,0,0,0,0,0,0,0,0,0,0,0,0,0,0,0,0,0,0,0,0,0,0,0,0,0,0,0,0,0,0,0,0,0,0,0,0,0,0,0,0,0,0,0,0,0,0,0,0,0,0,0],"id":6,"left_children":[1,3,5,7,9,11,13,15,17,19,21,23,25,27,-1,29,31,33,35,37,-1,-1,-1,39,41,43,45,47,-1,49,51,53,55,57,59,61,63,65,67,69,71,73,75,77,79,81,83,85,87,-1,-1,-1,-1,-1,-1,-1,-1,-1,-1,-1,-1,-1,-1,-1,-1,-1,-1,-1,-1,-1,-1,-1,-1,-1,-1,-1,-1,-1,-1,-1,-1,-1,-1,-1,-1,-1,-1,-1,-1],"loss_changes":[5.706703E3,7.9290186E2,2.121443E3,5.0191064E2,1.8827148E1,8.534598E2,6.7646484E0,5.9506836E1,9.7028984E1,1.8955978E1,2.3284912E-1,5.271854E2,1.3765784E2,4.090332E0,0E0,3.7535645E1,3.6227406E1,4.8910122E1,4.068634E1,1.7387947E1,0E0,0E0,0E0,2.88097E2,1.444898E2,1.1776962E2,6.2142334E0,8.370282E1,0E0,4.8642212E1,6.173584E0,3.322948E1,2.8108635E0,1.701181E1,4.345452E1,2.1773582E1,4.826851E0,1.0793771E1,1.9816208E-1,3.0722687E1,1.3608247E2,2.2473267E1,7.8572E1,5.291764E1,1.9533691E1,1.1045353E1,5.5979004E0,1.9356785E1,4.746704E-1,0E0,0E0,0E0,0E0,0E0,0E0,0E0,0E0,0E0,0E0,0E0,0E0,0E0,0E0,0E0,0E0,0E0,0E0,0E0,0E0,0E0,0E0,0E0,0E0,0E0,0E0,0E0,0E0,0E0,0E0,0E0,0E0,0E0,0E0,0E0,0E0,0E0,0E0,0E0,0E0],"parents":[2147483647,0,0,1,1,2,2,3,3,4,4,5,5,6,6,7,7,8,8,9,9,10,10,11,11,12,12,13,13,15,15,16,16,17,17,18,18,19,19,23,23,24,24,25,25,26,26,27,27,29,29,30,30,31,31,32,32,33,33,34,34,35,35,36,36,37,37,38,38,39,39,40,40,41,41,42,42,43,43,44,44,45,45,46,46,47,47,48,48],"right_children":[2,4,6,8,10,12,14,16,18,20,22,24,26,28,-1,30,32,34,36,38,-1,-1,-1,40,42,44,46,48,-1,50,52,54,56,58,60,62,64,66,68,70,72,74,76,78,80,82,84,86,88,-1,-1,-1,-1,-1,-1,-1,-1,-1,-1,-1,-1,-1,-1,-1,-1,-1,-1,-1,-1,-1,-1,-1,-1,-1,-1,-1,-1,-1,-1,-1,-1,-1,-1,-1,-1,-1,-1,-1,-1],"split_conditions":[1E0,1E1,8E0,6.25E-2,1.1E1,4E0,6E1,4E0,5E0,1.1111111E-1,5.183333E-2,6.25E-2,5E0,1.4285715E-1,6.852138E-3,2E0,2.4E1,8E0,8E0,1.1E1,8.35917E-2,6.576526E-2,8.35917E-2,1.11E2,6E0,1E0,4.13E-1,1E1,8.35917E-2,6E0,5.4545456E-1,3E0,6.88E-2,1.1111112E0,4E1,6.4433723E4,2.77E-1,2.38973E5,8.438442E4,0E0,1E0,5.5555556E-2,1.2E0,9E0,1.07E2,5.045254E4,1.6E2,2E0,8.0108E1,-4.1994095E-2,-2.41246E-2,-4.6994362E-2,-1.1429648E-2,-4.9132463E-3,7.60226E-2,-7.1427356E-3,-4.0679917E-2,2.1136329E-2,8.35917E-2,-1.868592E-2,8.35917E-2,1.9082114E-2,8.247405E-2,3.622119E-2,8.35917E-2,7.77887E-2,-3.0508563E-2,-2.9099746E-2,-4.9136184E-2,2.7082695E-2,-3.54463E-2,-2.1109689E-2,1.6666694E-2,-1.1589373E-2,8.043099E-2,4.647428E-3,5.1475212E-2,1.4002495E-2,6.1575945E-2,8.35917E-2,-6.2727733E-3,8.35917E-2,-2.3098884E-2,8.35917E-2,2.1411581E-2,8.18236E-3,6.61139E-2,5.6536764E-2,8.35917E-2],"split_indices":[114,0,0,89,0,119,43,119,0,89,95,89,0,113,0,80,80,81,0,80,0,0,0,82,81,45,67,0,0,0,96,42,74,89,119,93,69,75,94,77,116,85,89,38,58,94,55,119,70,0,0,0,0,0,0,0,0,0,0,0,0,0,0,0,0,0,0,0,0,0,0,0,0,0,0,0,0,0,0,0,0,0,0,0,0,0,0,0,0],"split_type":[0,0,0,0,0,0,0,0,0,0,0,0,0,0,0,0,0,0,0,0,0,0,0,0,0,0,0,0,0,0,0,0,0,0,0,0,0,0,0,0,0,0,0,0,0,0,0,0,0,0,0,0,0,0,0,0,0,0,0,0,0,0,0,0,0,0,0,0,0,0,0,0,0,0,0,0,0,0,0,0,0,0,0,0,0,0,0,0,0],"sum_hessian":[8.037264E3,5.3792812E3,2.6579832E3,5.3178135E3,6.146761E1,2.1739185E3,4.8406485E2,4.889763E3,4.2805023E2,1.7293207E1,4.41744E1,1.7547705E3,4.1914795E2,4.8203534E2,2.0295122E0,4.778706E3,1.1105715E2,2.8392657E2,1.4412364E2,1.4122715E1,3.1704922E0,3.6988544E0,4.0475548E1,1.343578E3,4.1119244E2,2.4555191E2,1.7359604E2,8.272603E1,3.993093E2,2.163437E3,2.6152693E3,5.83289E1,5.272825E1,3.6882328E1,2.4704427E2,1.2782832E2,1.6295319E1,8.562477E0,5.5602384E0,4.73992E2,8.69586E2,1.6025096E2,2.509415E2,1.8016911E2,6.538279E1,6.3426247E0,1.6725342E2,4.6964535E1,3.5761497E1,1.8520304E3,3.1140646E2,2.6066257E3,8.643364E0,4.755849E1,1.077041E1,4.8663173E0,4.786193E1,3.0066742E1,6.815586E0,2.438653E2,3.1789682E0,1.1763273E2,1.0195592E1,4.003042E0,1.2292277E1,6.511093E0,2.0513835E0,2.0964708E0,3.4637675E0,1.406709E1,4.5992493E2,2.2443939E2,6.451466E2,4.749363E0,1.5550159E2,1.318485E2,1.1909301E2,1.1763754E2,6.2531578E1,6.117409E1,4.208697E0,3.668763E0,2.6738617E0,1.6462958E2,2.623839E0,3.2440224E1,1.4524309E1,2.11938E0,3.3642117E1],"tree_param":{"num_deleted":"0","num_feature":"120","num_nodes":"89","size_leaf_vector":"1"}},{"base_weights":[-2.9154062E-1,-8.7864906E-1,8.527378E-1,-9.225497E-1,2E0,4.1891432E-1,2E0,-1.0151443E0,1.0856823E-1,1.0130119E0,2E0,5.629739E-3,1.3005993E0,1.6809138E0,2E0,-1.0256864E0,1.8484741E-1,-1.21607706E-1,1.0652002E0,3.775641E-1,8.35917E-2,4.0884964E-2,8.35917E-2,-2.8346655E-1,8.7016773E-1,7.6377577E-1,1.910715E0,2E0,9.743945E-1,2E0,3.574376E-2,-9.2173654E-1,-1.1117426E0,-3.4066057E-1,2E0,7.7212304E-1,-2.7177703E-1,8.0251086E-1,2E0,1.2270519E0,-4.8783023E-2,-8.639399E-1,3.843144E-2,1.4823697E0,5.3069174E-1,5.532999E-1,2E0,7.6168907E-1,2E0,1.2466486E0,8.35917E-2,4.8148888E-1,1.8922954E0,8.35917E-2,4.727082E-2,-4.1234206E-2,-2.2384204E-2,-4.712438E-2,-4.0041402E-2,4.4144947E-2,-2.9956758E-2,8.35917E-2,9.032769E-3,2.1390578E-2,8.3441705E-2,-1.33379605E-2,8.35917E-2,2.292283E-2,8.008883E-2,8.35917E-2,3.222121E-2,1.5941217E-3,8.35917E-2,1.4532113E-2,-3.7815142E-2,-2.2906449E-2,1.0595181E-2,6.674018E-2,-2.1167329E-2,1.553652E-2,8.35917E-2,1.4352467E-2,6.693877E-2,8.35917E-2,2.4568373E-2,2.7492438E-3,7.23819E-2,4.286016E-2,8.35917E-2,1.6456591E-2,8.35917E-2,-3.3533357E-2,4.1654307E-2,8.35917E-2,1.2084738E-2],"categories":[],"categories_nodes":[],"categories_segments":[],"categories_sizes":[],"default_left":[0,0,0,0,0,0,0,0,0,0,0,0,0,0,0,0,0,0,0,0,0,0,0,0,0,0,0,0,0,0,0,0,0,0,0,0,0,0,0,0,0,0,0,0,0,0,0,0,0,0,0,0,0,0,0,0,0,0,0,0,0,0,0,0,0,0,0,0,0,0,0,0,0,0,0,0,0,0,0,0,0,0,0,0,0,0,0,0,0,0,0,0,0,0,0],"id":7,"left_children":[1,3,5,7,9,11,13,15,17,19,21,23,25,27,29,31,33,35,37,39,-1,-1,-1,41,43,45,47,49,51,53,-1,55,57,59,61,63,65,67,69,71,-1,73,75,77,79,81,83,85,87,89,-1,91,93,-1,-1,-1,-1,-1,-1,-1,-1,-1,-1,-1,-1,-1,-1,-1,-1,-1,-1,-1,-1,-1,-1,-1,-1,-1,-1,-1,-1,-1,-1,-1,-1,-1,-1,-1,-1,-1,-1,-1,-1,-1,-1],"loss_changes":[5.332153E3,7.814597E2,1.9467118E3,4.946416E2,1.7174316E1,8.001926E2,1.2502441E1,6.0160156E1,9.4039986E1,1.8636505E1,1.8575745E0,3.737523E2,2.2937549E2,6.75538E1,3.1313477E0,4.203711E1,4.1307896E1,4.623219E1,2.2460678E1,1.8483074E1,0E0,0E0,0E0,2.094031E2,7.7791016E1,1.0843431E2,1.10036255E2,3.8945923E0,3.4727135E1,1.3989258E0,0E0,5.3385986E1,6.114746E0,1.7203602E1,6.396923E0,1.5678286E1,4.3788292E1,1.8684193E1,5.9683304E0,9.388508E0,0E0,1.9809326E1,9.0959404E1,3.050644E1,6.923675E1,7.1316956E1,1.0814499E1,4.978726E1,4.1163208E1,7.344063E0,0E0,3.3322838E1,1.52450485E1,0E0,0E0,0E0,0E0,0E0,0E0,0E0,0E0,0E0,0E0,0E0,0E0,0E0,0E0,0E0,0E0,0E0,0E0,0E0,0E0,0E0,0E0,0E0,0E0,0E0,0E0,0E0,0E0,0E0,0E0,0E0,0E0,0E0,0E0,0E0,0E0,0E0,0E0,0E0,0E0,0E0,0E0],"parents":[2147483647,0,0,1,1,2,2,3,3,4,4,5,5,6,6,7,7,8,8,9,9,10,10,11,11,12,12,13,13,14,14,15,15,16,16,17,17,18,18,19,19,23,23,24,24,25,25,26,26,27,27,28,28,29,29,31,31,32,32,33,33,34,34,35,35,36,36,37,37,38,38,39,39,41,41,42,42,43,43,44,44,45,45,46,46,47,47,48,48,49,49,51,51,52,52],"right_children":[2,4,6,8,10,12,14,16,18,20,22,24,26,28,30,32,34,36,38,40,-1,-1,-1,42,44,46,48,50,52,54,-1,56,58,60,62,64,66,68,70,72,-1,74,76,78,80,82,84,86,88,90,-1,92,94,-1,-1,-1,-1,-1,-1,-1,-1,-1,-1,-1,-1,-1,-1,-1,-1,-1,-1,-1,-1,-1,-1,-1,-1,-1,-1,-1,-1,-1,-1,-1,-1,-1,-1,-1,-1,-1,-1,-1,-1,-1,-1],"split_conditions":[1E0,1E1,8E0,6.25E-2,1.1E1,4E-2,9E0,2E0,6E0,6.25E-2,4.7694445E-2,6.25E-2,3.6842105E-1,1.2506666E0,2.2222222E-1,2E0,1.7E1,8E0,8E0,1E1,8.35917E-2,4.0884964E-2,8.35917E-2,1.14E2,9E0,1.2E1,3E0,1.4285715E-1,6.25E-2,7.95E-1,3.574376E-2,6E0,1.0909091E0,4E0,2.4E1,1.1111112E0,4E1,6.1E1,2.25E-1,3.3333334E-1,-4.8783023E-2,0E0,1E-1,2.7E1,1E2,6.1E1,5.3E1,8E0,2.857143E-1,6.25E-2,8.35917E-2,1.26E2,5.4E1,8.35917E-2,4.727082E-2,-4.1234206E-2,-2.2384204E-2,-4.712438E-2,-4.0041402E-2,4.4144947E-2,-2.9956758E-2,8.35917E-2,9.032769E-3,2.1390578E-2,8.3441705E-2,-1.33379605E-2,8.35917E-2,2.292283E-2,8.008883E-2,8.35917E-2,3.222121E-2,1.5941217E-3,8.35917E-2,1.4532113E-2,-3.7815142E-2,-2.2906449E-2,1.0595181E-2,6.674018E-2,-2.1167329E-2,1.553652E-2,8.35917E-2,1.4352467E-2,6.693877E-2,8.35917E-2,2.4568373E-2,2.7492438E-3,7.23819E-2,4.286016E-2,8.35917E-2,1.6456591E-2,8.35917E-2,-3.3533357E-2,4.1654307E-2,8.35917E-2,1.2084738E-2],"split_indices":[114,0,0,89,0,117,0,118,0,89,95,89,113,109,97,80,119,81,0,80,0,0,0,82,81,119,0,113,89,73,0,0,85,87,80,89,119,82,103,115,0,77,115,21,53,22,19,22,115,89,0,82,64,0,0,0,0,0,0,0,0,0,0,0,0,0,0,0,0,0,0,0,0,0,0,0,0,0,0,0,0,0,0,0,0,0,0,0,0,0,0,0,0,0,0],"split_type":[0,0,0,0,0,0,0,0,0,0,0,0,0,0,0,0,0,0,0,0,0,0,0,0,0,0,0,0,0,0,0,0,0,0,0,0,0,0,0,0,0,0,0,0,0,0,0,0,0,0,0,0,0,0,0,0,0,0,0,0,0,0,0,0,0,0,0,0,0,0,0,0,0,0,0,0,0,0,0,0,0,0,0,0,0,0,0,0,0,0,0,0,0,0,0],"sum_hessian":[7.9366807E3,5.245393E3,2.6912878E3,5.1805327E3,6.485997E1,2.195883E3,4.9540485E2,4.7536562E3,4.268766E2,1.7989983E1,4.6869987E1,1.4951553E3,7.007278E2,1.27203865E2,3.6820096E2,4.7122764E3,4.1379955E1,3.4416556E2,8.271104E1,1.3840488E1,4.1494946E0,2.1072989E0,4.4762688E1,1.1205319E3,3.746234E2,3.728918E2,3.27836E2,5.0333153E1,7.687071E1,3.6557327E2,2.6277015E0,2.134868E3,2.5774084E3,3.2460854E1,8.919104E0,4.9439835E1,2.947257E2,6.6342514E1,1.6368519E1,8.945615E0,4.894874E0,3.996537E2,7.208782E2,1.334936E2,2.411298E2,3.2428137E2,4.8610462E1,7.3650955E1,2.5418503E2,7.561135E0,4.277202E1,5.012872E1,2.6741999E1,3.6322397E2,2.349307E0,1.827852E3,3.0701575E2,2.337248E3,2.4016055E2,6.8407717E0,2.562008E1,6.8778276E0,2.0412757E0,4.0905663E1,8.534173E0,2.910374E2,3.6883104E0,5.4159843E1,1.21826725E1,1.2226001E1,4.1425176E0,3.8510745E0,5.09454E0,1.2995776E1,3.866579E2,1.9337115E2,5.27507E2,1.2625195E2,7.2416525E0,2.2261203E2,1.8517773E1,2.703085E2,5.3972862E1,4.3070103E1,5.5403566E0,4.295857E1,3.0692385E1,4.371468E1,2.1047035E2,4.599118E0,2.962017E0,1.43352995E1,3.579342E1,2.1383593E1,5.358405E0],"tree_param":{"num_deleted":"0","num_feature":"120","num_nodes":"95","size_leaf_vector":"1"}},{"base_weights":[-2.800485E-1,-8.6288816E-1,8.138323E-1,-9.083658E-1,2E0,3.934096E-1,2E0,-1.0034175E0,1.1310314E-1,1.0329382E0,2E0,-2.5216083E-3,1.2208406E0,1.6255665E0,2E0,-1.0210114E0,-2.690663E-1,-1.0373352E-1,9.898102E-1,5.0501627E-1,8.35917E-2,3.1712014E-2,2E0,-2.7779692E-1,7.985856E-1,7.9925245E-1,1.8890408E0,2E0,1.013802E0,2E0,3.0435694E-2,-1.0580275E0,-7.821294E-1,-4.424428E-1,1.4302928E0,7.900078E-1,-2.6349837E-1,1.9519342E-1,1.3326555E0,1.4151149E0,-5.2149326E-1,6.2532395E-2,8.35917E-2,6.2191546E-2,-7.0861685E-1,6.817745E-1,2E0,5.008699E-1,1.672746E0,1.388189E0,2E0,1.1069418E0,8.35917E-2,5.729639E-1,1.8394036E0,8.35917E-2,3.374833E-2,-4.1199964E-2,-4.6439856E-2,-3.7176423E-2,-9.012143E-3,-2.3082724E-2,5.029389E-2,8.35917E-2,-2.932913E-2,1.586936E-2,6.1846938E-2,-1.5113343E-2,5.2778304E-2,-4.1788486E-3,5.823426E-2,7.052706E-3,6.482134E-2,3.3810553E-3,8.35917E-2,4.2009085E-2,-4.922178E-2,-2.2161797E-2,1.1353153E-2,-3.1236092E-2,7.333522E-2,5.8411893E-2,1.583424E-2,1.6335938E-2,8.35917E-2,1.4227628E-2,8.176739E-2,8.35917E-2,2.7767213E-2,3.60693E-2,8.35917E-2,8.35917E-2,5.135866E-2,8.35917E-2,1.2391725E-2,8.35917E-2,8.489854E-3,8.35917E-2,2.128791E-2],"categories":[],"categories_nodes":[],"categories_segments":[],"categories_sizes":[],"default_left":[0,0,0,0,0,0,0,0,0,0,0,0,0,0,0,0,0,0,0,0,0,0,0,0,0,0,0,0,0,0,0,0,0,0,0,0,0,0,0,0,0,0,0,0,0,0,0,0,0,0,0,0,0,0,0,0,0,0,0,0,0,0,0,0,0,0,0,0,0,0,0,0,0,0,0,0,0,0,0,0,0,0,0,0,0,0,0,0,0,0,0,0,0,0,0,0,0,0,0],"id":8,"left_children":[1,3,5,7,9,11,13,15,17,19,21,23,25,27,29,31,33,35,37,39,-1,-1,41,43,45,47,49,51,53,55,-1,57,59,61,63,65,67,69,71,73,75,-1,-1,77,79,81,83,85,87,89,91,93,-1,95,97,-1,-1,-1,-1,-1,-1,-1,-1,-1,-1,-1,-1,-1,-1,-1,-1,-1,-1,-1,-1,-1,-1,-1,-1,-1,-1,-1,-1,-1,-1,-1,-1,-1,-1,-1,-1,-1,-1,-1,-1,-1,-1,-1,-1],"loss_changes":[4.989068E3,7.6666675E2,1.869867E3,4.8910938E2,1.7009277E1,7.231549E2,1.7730957E1,5.9510742E1,8.155963E1,1.5761354E1,3.3052979E0,3.2929227E2,2.0107776E2,6.0521942E1,3.5351562E0,3.970166E1,3.189246E1,4.9144363E1,2.3144432E1,1.4174274E1,0E0,0E0,1.6278076E-1,1.6278873E2,6.8785E1,1.1412372E2,5.063208E1,5.328491E0,2.9507996E1,3.5009766E0,0E0,1.4825684E1,3.6725708E1,1.7807533E1,1.2530352E1,1.4707417E1,4.3762787E1,9.137205E0,1.5059082E1,1.0903477E1,7.321302E0,0E0,0E0,7.710293E1,4.6922333E1,7.735692E1,1.0172791E1,7.6253136E1,3.7675537E1,4.7101685E1,6.2385864E0,6.1288977E0,0E0,2.8360569E1,1.39954605E1,0E0,0E0,0E0,0E0,0E0,0E0,0E0,0E0,0E0,0E0,0E0,0E0,0E0,0E0,0E0,0E0,0E0,0E0,0E0,0E0,0E0,0E0,0E0,0E0,0E0,0E0,0E0,0E0,0E0,0E0,0E0,0E0,0E0,0E0,0E0,0E0,0E0,0E0,0E0,0E0,0E0,0E0,0E0,0E0],"parents":[2147483647,0,0,1,1,2,2,3,3,4,4,5,5,6,6,7,7,8,8,9,9,10,10,11,11,12,12,13,13,14,14,15,15,16,16,17,17,18,18,19,19,22,22,23,23,24,24,25,25,26,26,27,27,28,28,29,29,31,31,32,32,33,33,34,34,35,35,36,36,37,37,38,38,39,39,40,40,43,43,44,44,45,45,46,46,47,47,48,48,49,49,50,50,51,51,53,53,54,54],"right_children":[2,4,6,8,10,12,14,16,18,20,22,24,26,28,30,32,34,36,38,40,-1,-1,42,44,46,48,50,52,54,56,-1,58,60,62,64,66,68,70,72,74,76,-1,-1,78,80,82,84,86,88,90,92,94,-1,96,98,-1,-1,-1,-1,-1,-1,-1,-1,-1,-1,-1,-1,-1,-1,-1,-1,-1,-1,-1,-1,-1,-1,-1,-1,-1,-1,-1,-1,-1,-1,-1,-1,-1,-1,-1,-1,-1,-1,-1,-1,-1,-1,-1,-1],"split_conditions":[1E0,1E1,8E0,6.25E-2,1.1E1,4E-2,9E0,4E0,6E0,1.1111111E-1,4.7694445E-2,6.25E-2,5E0,1.224E0,8.28E-1,6E0,3E0,8E0,2.857143E-1,1E0,8.35917E-2,3.1712014E-2,5.183333E-2,5E-2,1E2,2.857143E-1,5E0,1.4285715E-1,6.25E-2,2.2222222E-1,3.0435694E-2,1E0,5.555556E-1,6E0,8E0,5.714286E-1,2E0,3.749224E4,2E-1,3.3333334E-1,1.76386E5,6.2532395E-2,8.35917E-2,1E-1,1E0,6E0,3.3333335E-2,6E-1,2.1E1,1E0,9E1,9.166667E-2,8.35917E-2,2E0,1.16E-1,8.35917E-2,3.374833E-2,-4.1199964E-2,-4.6439856E-2,-3.7176423E-2,-9.012143E-3,-2.3082724E-2,5.029389E-2,8.35917E-2,-2.932913E-2,1.586936E-2,6.1846938E-2,-1.5113343E-2,5.2778304E-2,-4.1788486E-3,5.823426E-2,7.052706E-3,6.482134E-2,3.3810553E-3,8.35917E-2,4.2009085E-2,-4.922178E-2,-2.2161797E-2,1.1353153E-2,-3.1236092E-2,7.333522E-2,5.8411893E-2,1.583424E-2,1.6335938E-2,8.35917E-2,1.4227628E-2,8.176739E-2,8.35917E-2,2.7767213E-2,3.60693E-2,8.35917E-2,8.35917E-2,5.135866E-2,8.35917E-2,1.2391725E-2,8.35917E-2,8.489854E-3,8.35917E-2,2.128791E-2],"split_indices":[114,0,0,89,0,117,0,119,0,89,95,89,119,109,73,0,118,81,115,81,0,0,95,85,53,89,0,113,89,97,0,81,115,0,81,89,118,93,89,115,75,0,0,115,6,81,99,113,81,14,28,96,0,87,72,0,0,0,0,0,0,0,0,0,0,0,0,0,0,0,0,0,0,0,0,0,0,0,0,0,0,0,0,0,0,0,0,0,0,0,0,0,0,0,0,0,0,0,0],"split_type":[0,0,0,0,0,0,0,0,0,0,0,0,0,0,0,0,0,0,0,0,0,0,0,0,0,0,0,0,0,0,0,0,0,0,0,0,0,0,0,0,0,0,0,0,0,0,0,0,0,0,0,0,0,0,0,0,0,0,0,0,0,0,0,0,0,0,0,0,0,0,0,0,0,0,0,0,0,0,0,0,0,0,0,0,0,0,0,0,0,0,0,0,0,0,0,0,0,0,0],"sum_hessian":[7.82504E3,5.1050186E3,2.7200215E3,5.0373027E3,6.771619E1,2.207266E3,5.1275555E2,4.6084697E3,4.2883273E2,1.8567196E1,4.9148987E1,1.4929786E3,7.1428735E2,1.2964204E2,3.8311353E2,4.5005957E3,1.0787401E2,3.438803E2,8.4952415E1,1.4960955E1,3.6062417E0,2.3309824E0,4.6818005E1,1.1112197E3,3.8175894E2,4.3811905E2,2.7616827E2,4.8349995E1,8.129204E1,3.8075653E2,2.3569791E0,3.8964238E3,6.04172E2,9.7965E1,9.909015E0,5.2079586E1,2.9180075E2,2.5661299E1,5.929112E1,7.90778E0,7.053175E0,2.3424478E0,4.4475555E1,6.211357E2,4.9008408E2,3.5692825E2,2.4830692E1,3.2670135E2,1.114177E2,1.4547102E2,1.3069725E2,7.1456985E0,4.1204296E1,5.3122917E1,2.8169123E1,3.7808398E2,2.6725504E0,1.6508042E3,2.2456196E3,5.0786832E2,9.630366E1,9.190867E1,6.056325E0,7.799836E0,2.109179E0,3.2766834E1,1.9312752E1,2.7426117E2,1.7539564E1,2.0672466E1,4.988833E0,9.395457E0,4.989566E1,3.7165952E0,4.191185E0,2.1012979E0,4.951877E0,1.6218738E2,4.589483E2,4.8257654E2,7.507524E0,1.060131E2,2.5091515E2,3.9930222E0,2.0837671E1,2.943887E2,3.2312653E1,8.34586E1,2.7959099E1,7.882829E1,6.664274E1,1.19546E2,1.1151256E1,2.9940112E0,4.1516876E0,1.0733334E1,4.2389584E1,2.1448904E1,6.7202187E0],"tree_param":{"num_deleted":"0","num_feature":"120","num_nodes":"99","size_leaf_vector":"1"}},{"base_weights":[-2.6807016E-1,-8.534794E-1,7.8754276E-1,-9.7179437E-1,2.9369462E-1,3.857772E-1,2E0,-9.8698866E-1,2E0,8.49354E-3,2E0,3.600212E-2,1.2195632E0,1.5414573E0,2E0,-8.6765456E-1,-1.0874754E0,2E0,-5.4533422E-2,5.964899E-1,-2.4227682E-1,2E0,1.177974E0,-2.4122296E-1,8.1342226E-1,7.1659034E-1,1.726625E0,2E0,9.656531E-1,2E0,3.190659E-2,-9.444751E-1,-4.319764E-1,-1.1097008E0,-8.7685597E-1,5.2001353E-2,8.35917E-2,2.4496056E-1,1.1733625E0,-5.262734E-1,2.6460496E-1,1.6415052E0,8.35917E-2,-1.9729849E-2,8.35917E-2,-8.226908E-1,6.0018897E-2,1.508284E0,5.3054273E-1,5.5153567E-1,1.8641044E0,5.02227E-1,2E0,1.0596979E0,2E0,5.4294467E-1,1.7426981E0,2E0,3.723067E-2,-3.9823744E-2,8.241822E-2,-2.7382618E-2,2.275214E-2,-4.6521414E-2,-7.752755E-3,-4.010579E-2,-1.3914375E-2,3.8945973E-2,-8.828187E-3,7.736519E-2,2.764351E-2,4.928522E-3,-2.983058E-2,-9.881389E-3,3.5057947E-2,8.35917E-2,1.9293783E-2,-3.6125533E-2,4.1479483E-2,-5.014915E-3,3.0167753E-2,5.451947E-2,8.35917E-2,1.6400686E-2,8.35917E-2,8.35917E-2,1.8745268E-2,4.5868717E-2,8.35917E-2,9.879507E-3,6.917656E-2,8.35917E-2,4.766714E-2,8.35917E-2,-3.8448293E-3,8.35917E-2,5.8833934E-2,-3.4443684E-2,4.5363393E-2,8.35917E-2,2.690158E-2,8.35917E-2,6.9756106E-2],"categories":[],"categories_nodes":[],"categories_segments":[],"categories_sizes":[],"default_left":[0,0,0,0,0,0,0,0,0,0,0,0,0,0,0,0,0,0,0,0,0,0,0,0,0,0,0,0,0,0,0,0,0,0,0,0,0,0,0,0,0,0,0,0,0,0,0,0,0,0,0,0,0,0,0,0,0,0,0,0,0,0,0,0,0,0,0,0,0,0,0,0,0,0,0,0,0,0,0,0,0,0,0,0,0,0,0,0,0,0,0,0,0,0,0,0,0,0,0,0,0,0,0],"id":9,"left_children":[1,3,5,7,9,11,13,15,17,19,21,23,25,27,29,31,33,35,-1,37,39,41,43,45,47,49,51,53,55,57,-1,59,61,63,65,-1,-1,67,69,71,73,75,-1,-1,-1,77,79,81,83,85,87,89,91,93,95,97,99,101,-1,-1,-1,-1,-1,-1,-1,-1,-1,-1,-1,-1,-1,-1,-1,-1,-1,-1,-1,-1,-1,-1,-1,-1,-1,-1,-1,-1,-1,-1,-1,-1,-1,-1,-1,-1,-1,-1,-1,-1,-1,-1,-1,-1,-1],"loss_changes":[4.768385E3,6.7373047E2,1.7475399E3,2.296919E2,2.9047397E2,6.485372E2,2.7324707E1,5.3609375E1,2.640393E1,6.1076824E1,3.7309265E0,3.3768613E2,1.6746576E2,5.9626892E1,3.8635254E0,6.8509766E1,1.1269287E1,1.0689697E0,0E0,2.5079563E1,4.181639E1,5.4745483E-1,9.995651E0,2.0231723E2,8.0864075E1,6.2409027E1,2.2004987E2,5.698059E0,2.6869926E1,2.8769531E0,0E0,4.2575073E1,6.699216E1,6.8078613E0,1.0428574E1,0E0,0E0,2.418175E1,1.611625E1,2.248777E1,3.0042852E1,7.6032333E0,0E0,0E0,0E0,2.9894653E1,9.065555E1,1.5888275E1,6.2721428E1,5.5671402E1,1.1720291E1,3.3424614E1,1.3511597E1,7.7252E0,5.284729E-1,3.9676365E1,9.389755E0,3.100586E-2,0E0,0E0,0E0,0E0,0E0,0E0,0E0,0E0,0E0,0E0,0E0,0E0,0E0,0E0,0E0,0E0,0E0,0E0,0E0,0E0,0E0,0E0,0E0,0E0,0E0,0E0,0E0,0E0,0E0,0E0,0E0,0E0,0E0,0E0,0E0,0E0,0E0,0E0,0E0,0E0,0E0,0E0,0E0,0E0,0E0],"parents":[2147483647,0,0,1,1,2,2,3,3,4,4,5,5,6,6,7,7,8,8,9,9,10,10,11,11,12,12,13,13,14,14,15,15,16,16,17,17,19,19,20,20,21,21,22,22,23,23,24,24,25,25,26,26,27,27,28,28,29,29,31,31,32,32,33,33,34,34,37,37,38,38,39,39,40,40,41,41,45,45,46,46,47,47,48,48,49,49,50,50,51,51,52,52,53,53,54,54,55,55,56,56,57,57],"right_children":[2,4,6,8,10,12,14,16,18,20,22,24,26,28,30,32,34,36,-1,38,40,42,44,46,48,50,52,54,56,58,-1,60,62,64,66,-1,-1,68,70,72,74,76,-1,-1,-1,78,80,82,84,86,88,90,92,94,96,98,100,102,-1,-1,-1,-1,-1,-1,-1,-1,-1,-1,-1,-1,-1,-1,-1,-1,-1,-1,-1,-1,-1,-1,-1,-1,-1,-1,-1,-1,-1,-1,-1,-1,-1,-1,-1,-1,-1,-1,-1,-1,-1,-1,-1,-1,-1],"split_conditions":[1E0,6.25E-2,8E0,1.1E1,8E0,5.555556E-1,9E0,2E0,3E0,1.6E1,9.52381E-2,6.25E-2,3.6842105E-1,1.224E0,2.2222222E-1,6E0,1.0909091E0,3.75E-1,-5.4533422E-2,6E-1,2.3333333E0,9E0,4E-1,1.14E2,6E0,5.263158E-1,3E0,1.4285715E-1,6.25E-2,8.28E-1,3.190659E-2,1.6666666E0,5.555556E-1,5.4545456E-1,2.2222222E-1,5.2001353E-2,8.35917E-2,3E0,1.5936667E0,4E0,4E0,1.08E-5,8.35917E-2,-1.9729849E-2,8.35917E-2,2E0,4E-2,1.1666666E0,8E0,4.5166668E-2,4E0,1E0,1.31E2,2.15731E5,2.27E-3,1.26E2,5.555556E-1,1.039886E-1,3.723067E-2,-3.9823744E-2,8.241822E-2,-2.7382618E-2,2.275214E-2,-4.6521414E-2,-7.752755E-3,-4.010579E-2,-1.3914375E-2,3.8945973E-2,-8.828187E-3,7.736519E-2,2.764351E-2,4.928522E-3,-2.983058E-2,-9.881389E-3,3.5057947E-2,8.35917E-2,1.9293783E-2,-3.6125533E-2,4.1479483E-2,-5.014915E-3,3.0167753E-2,5.451947E-2,8.35917E-2,1.6400686E-2,8.35917E-2,8.35917E-2,1.8745268E-2,4.5868717E-2,8.35917E-2,9.879507E-3,6.917656E-2,8.35917E-2,4.766714E-2,8.35917E-2,-3.8448293E-3,8.35917E-2,5.8833934E-2,-3.4443684E-2,4.5363393E-2,8.35917E-2,2.690158E-2,8.35917E-2,6.9756106E-2],"split_indices":[114,89,0,0,0,115,0,80,83,81,97,89,113,109,97,0,85,115,0,89,89,0,89,82,81,117,0,113,89,73,0,117,115,96,117,0,0,83,109,83,0,73,0,0,0,33,117,89,53,96,0,25,58,75,73,82,111,95,0,0,0,0,0,0,0,0,0,0,0,0,0,0,0,0,0,0,0,0,0,0,0,0,0,0,0,0,0,0,0,0,0,0,0,0,0,0,0,0,0,0,0,0,0],"split_type":[0,0,0,0,0,0,0,0,0,0,0,0,0,0,0,0,0,0,0,0,0,0,0,0,0,0,0,0,0,0,0,0,0,0,0,0,0,0,0,0,0,0,0,0,0,0,0,0,0,0,0,0,0,0,0,0,0,0,0,0,0,0,0,0,0,0,0,0,0,0,0,0,0,0,0,0,0,0,0,0,0,0,0,0,0,0,0,0,0,0,0,0,0,0,0,0,0,0,0,0,0,0,0],"sum_hessian":[7.716016E3,4.963462E3,2.7525542E3,4.4994272E3,4.6403433E2,2.2236772E3,5.28877E2,4.479563E3,1.9864618E1,4.1396835E2,5.006596E1,1.5666046E3,6.570725E2,1.3203154E2,3.9684546E2,2.0482556E3,2.4313074E3,1.7520668E1,2.3439498E0,1.2372049E2,2.9024786E2,4.3975872E1,6.0900874E0,1.1548625E3,4.117421E2,3.3000687E2,3.2706567E2,5.001194E1,8.20196E1,3.9413107E2,2.7143762E0,1.7411172E3,3.071383E2,2.1987856E3,2.3252153E2,2.5647583E0,1.495591E1,7.69783E1,4.6742195E1,1.8602165E2,1.0422621E2,7.7304373E0,3.6245434E1,2.2805984E0,3.809489E0,3.9405295E2,7.608096E2,1.1897952E2,2.9276257E2,2.8865857E2,4.1348305E1,1.0908216E2,2.179835E2,6.852547E0,4.3159393E1,5.3249287E1,2.877031E1,3.9153137E2,2.599716E0,1.7362296E3,4.8876324E0,2.5002577E2,5.711254E1,2.1907908E3,7.9949303E0,2.0175398E2,3.0767557E1,3.0675179E1,4.630312E1,1.9985386E1,2.6756807E1,4.193634E1,1.4408531E2,5.5693832E1,4.853238E1,4.0109873E0,3.7194498E0,3.8527502E2,8.777947E0,5.9819055E2,1.6261906E2,9.319071E1,2.5788809E1,2.6903815E2,2.3724434E1,1.37643585E1,2.748942E2,1.5779808E1,2.5568499E1,8.875511E1,2.0327051E1,1.9918385E2,1.8799648E1,3.6915152E0,3.1610322E0,4.045318E1,2.7062135E0,1.5108689E1,3.81406E1,2.2490274E1,6.2800355E0,3.8715933E2,4.3720427E0],"tree_param":{"num_deleted":"0","num_feature":"120","num_nodes":"103","size_leaf_vector":"1"}},{"base_weights":[-2.620345E-1,-8.3961475E-1,7.463758E-1,-9.638091E-1,3.2040983E-1,3.5874063E-1,2E0,-9.8025006E-1,2E0,2.389183E-2,2E0,9.564896E-2,1.3857226E0,1.483418E0,2E0,-9.922701E-1,2.686153E-1,2E0,-5.369057E-2,-4.1694513E-1,2.7388182E-1,2E0,1.1041322E0,-1.699839E-1,8.7711567E-1,9.314612E-1,1.997115E0,2E0,8.910464E-1,2E0,3.0201452E-2,-8.822603E-1,-1.0860873E0,-2.7135485E-1,1.9466475E0,8.35917E-2,3.7077505E-2,1.0386841E0,-4.858616E-1,1.2983574E-1,1.7052113E0,1.5715632E0,8.35917E-2,-4.017745E-3,8.257683E-2,-7.7843356E-1,1.1201773E-1,1.3437686E0,4.3975753E-1,5.652429E-1,1.8548013E0,1.2718126E0,2E0,1.0563784E0,2E0,4.6900544E-1,1.6372372E0,2E0,3.4828108E-2,-3.989012E-2,-1.9921407E-2,-4.6153784E-2,-3.8089566E-2,-2.2836301E-2,8.35917E-2,8.35917E-2,1.7259954E-2,-2.150264E-2,8.35917E-2,-2.4629954E-2,1.5482242E-2,4.555744E-2,-5.8997795E-4,-1.1025156E-2,8.35917E-2,8.35917E-2,1.8352346E-2,-3.688098E-2,-1.4100115E-2,-2.0847058E-2,1.2886903E-2,4.5167282E-2,8.35917E-2,-5.765967E-4,4.1225165E-2,9.04128E-3,5.5970777E-2,8.35917E-2,-2.3368094E-2,3.947001E-2,8.35917E-2,8.35917E-2,2.590073E-2,7.305755E-2,4.8975516E-3,8.35917E-2,7.017979E-2,-3.0513672E-2,3.912363E-2,8.2146876E-2,-4.7544707E-3,7.6481335E-2,8.35917E-2],"categories":[],"categories_nodes":[],"categories_segments":[],"categories_sizes":[],"default_left":[0,0,0,0,0,0,0,0,0,0,0,0,0,0,0,0,0,0,0,0,0,0,0,0,0,0,0,0,0,0,0,0,0,0,0,0,0,0,0,0,0,0,0,0,0,0,0,0,0,0,0,0,0,0,0,0,0,0,0,0,0,0,0,0,0,0,0,0,0,0,0,0,0,0,0,0,0,0,0,0,0,0,0,0,0,0,0,0,0,0,0,0,0,0,0,0,0,0,0,0,0,0,0],"id":10,"left_children":[1,3,5,7,9,11,13,15,17,19,21,23,25,27,29,31,33,35,-1,37,39,41,43,45,47,49,51,53,55,57,-1,59,61,63,65,-1,-1,67,69,71,73,75,-1,-1,-1,77,79,81,83,85,87,89,91,93,95,97,99,101,-1,-1,-1,-1,-1,-1,-1,-1,-1,-1,-1,-1,-1,-1,-1,-1,-1,-1,-1,-1,-1,-1,-1,-1,-1,-1,-1,-1,-1,-1,-1,-1,-1,-1,-1,-1,-1,-1,-1,-1,-1,-1,-1,-1,-1],"loss_changes":[4.426294E3,6.961731E2,1.6501108E3,2.327273E2,2.923953E2,6.018129E2,3.5522217E1,6.522656E1,2.543367E1,4.548898E1,3.9943542E0,3.681268E2,1.2594336E2,6.324408E1,4.216797E0,4.4284668E1,3.7662678E1,2.250229E0,0E0,1.5043972E1,5.4280342E1,1.1234131E0,5.8360953E0,2.2710953E2,9.174948E1,8.807686E1,2.317517E1,6.4154053E0,2.5440483E1,2.6308594E0,0E0,5.7904053E1,7.258789E0,1.9992262E1,5.2881126E0,0E0,0E0,1.0446018E1,1.2664253E1,3.3098854E1,1.8555153E1,7.3742504E0,0E0,0E0,0E0,1.9188812E1,1.0847263E2,4.3422882E1,5.7618008E1,5.0442013E1,3.139856E1,1.5314407E1,1.4200012E1,4.9932337E0,2.3620605E-2,2.9170128E1,1.683126E1,1.6235352E0,0E0,0E0,0E0,0E0,0E0,0E0,0E0,0E0,0E0,0E0,0E0,0E0,0E0,0E0,0E0,0E0,0E0,0E0,0E0,0E0,0E0,0E0,0E0,0E0,0E0,0E0,0E0,0E0,0E0,0E0,0E0,0E0,0E0,0E0,0E0,0E0,0E0,0E0,0E0,0E0,0E0,0E0,0E0,0E0,0E0],"parents":[2147483647,0,0,1,1,2,2,3,3,4,4,5,5,6,6,7,7,8,8,9,9,10,10,11,11,12,12,13,13,14,14,15,15,16,16,17,17,19,19,20,20,21,21,22,22,23,23,24,24,25,25,26,26,27,27,28,28,29,29,31,31,32,32,33,33,34,34,37,37,38,38,39,39,40,40,41,41,45,45,46,46,47,47,48,48,49,49,50,50,51,51,52,52,53,53,54,54,55,55,56,56,57,57],"right_children":[2,4,6,8,10,12,14,16,18,20,22,24,26,28,30,32,34,36,-1,38,40,42,44,46,48,50,52,54,56,58,-1,60,62,64,66,-1,-1,68,70,72,74,76,-1,-1,-1,78,80,82,84,86,88,90,92,94,96,98,100,102,-1,-1,-1,-1,-1,-1,-1,-1,-1,-1,-1,-1,-1,-1,-1,-1,-1,-1,-1,-1,-1,-1,-1,-1,-1,-1,-1,-1,-1,-1,-1,-1,-1,-1,-1,-1,-1,-1,-1,-1,-1,-1,-1,-1,-1],"split_conditions":[1E0,1E0,8E0,1.1E1,8E0,4E0,9E0,2E0,3E0,2.857143E-1,1.0526316E-1,6.25E-2,5E0,1.224E0,2.2222222E-1,2E0,1.7E1,2.41658E5,-5.369057E-2,3E0,1E0,9E0,4E-1,1.01E2,9E0,1E0,4.2857143E-1,1.4285715E-1,6.25E-2,8E0,3.0201452E-2,6E0,1.0909091E0,7E0,2.6E1,8.35917E-2,3.7077505E-2,6.81E-1,1.5384616E-1,6E0,3.813814E-2,1.08E-5,8.35917E-2,-4.017745E-3,8.257683E-2,1.6E-1,1E-1,1.25E0,4E0,1.1E1,1.07E2,1.75E0,1.03E2,1.0033333E-1,4.451969E4,1.19E2,5.4E1,1E1,3.4828108E-2,-3.989012E-2,-1.9921407E-2,-4.6153784E-2,-3.8089566E-2,-2.2836301E-2,8.35917E-2,8.35917E-2,1.7259954E-2,-2.150264E-2,8.35917E-2,-2.4629954E-2,1.5482242E-2,4.555744E-2,-5.8997795E-4,-1.1025156E-2,8.35917E-2,8.35917E-2,1.8352346E-2,-3.688098E-2,-1.4100115E-2,-2.0847058E-2,1.2886903E-2,4.5167282E-2,8.35917E-2,-5.765967E-4,4.1225165E-2,9.04128E-3,5.5970777E-2,8.35917E-2,-2.3368094E-2,3.947001E-2,8.35917E-2,8.35917E-2,2.590073E-2,7.305755E-2,4.8975516E-3,8.35917E-2,7.017979E-2,-3.0513672E-2,3.912363E-2,8.2146876E-2,-4.7544707E-3,7.6481335E-2,8.35917E-2],"split_indices":[114,90,0,0,0,119,0,118,83,115,97,89,0,109,97,80,119,75,0,81,60,0,89,82,81,24,115,113,89,43,0,0,85,0,36,0,0,67,105,81,95,73,0,0,0,117,115,89,90,53,58,89,28,96,93,82,64,0,0,0,0,0,0,0,0,0,0,0,0,0,0,0,0,0,0,0,0,0,0,0,0,0,0,0,0,0,0,0,0,0,0,0,0,0,0,0,0,0,0,0,0,0,0],"split_type":[0,0,0,0,0,0,0,0,0,0,0,0,0,0,0,0,0,0,0,0,0,0,0,0,0,0,0,0,0,0,0,0,0,0,0,0,0,0,0,0,0,0,0,0,0,0,0,0,0,0,0,0,0,0,0,0,0,0,0,0,0,0,0,0,0,0,0,0,0,0,0,0,0,0,0,0,0,0,0,0,0,0,0,0,0,0,0,0,0,0,0,0,0,0,0,0,0,0,0,0,0,0,0],"sum_hessian":[7.599354E3,4.8318623E3,2.767492E3,4.3646006E3,4.672615E2,2.2273037E3,5.401882E2,4.3428306E3,2.1770052E1,4.1251865E2,5.474285E1,1.7731788E3,4.5412497E2,1.3472418E2,4.0546396E2,4.3014546E3,4.137586E1,1.9485746E1,2.284307E0,1.4924863E2,2.6327002E2,4.9304935E1,5.4379177E0,1.3234167E3,4.4976202E2,2.6071063E2,1.9341432E2,5.377711E1,8.094707E1,4.0271057E2,2.7533982E0,1.9804248E3,2.32103E3,3.137523E1,1.00006275E1,1.7410133E1,2.075611E0,6.6727047E0,1.4257591E2,2.3931245E2,2.3957584E1,8.516499E0,4.0788437E1,2.3299859E0,3.107932E0,4.1905716E2,9.043596E2,2.1747691E2,2.3228513E2,1.8680586E2,7.390478E1,4.4464558E1,1.4894977E2,7.6092215E0,4.6167892E1,5.1824486E1,2.9122583E1,4.005526E2,2.157945E0,1.6812432E3,2.991817E2,2.1017725E3,2.1925755E2,2.8094448E1,3.2807808E0,7.820379E0,2.180249E0,2.6005561E0,4.072149E0,1.2724369E2,1.5332229E1,3.1103657E1,2.0820879E2,4.002306E0,1.9955278E1,4.7645006E0,3.7519977E0,3.3902206E2,8.00351E1,2.1992036E2,6.844393E2,1.6267561E2,5.4801296E1,1.2700625E2,1.0527888E2,1.2885779E2,5.7948067E1,6.891796E1,4.9868145E0,3.525293E1,9.211628E0,1.4136823E2,7.5815372E0,4.3244514E0,3.2847698E0,4.1579834E1,4.588057E0,1.4508782E1,3.7315704E1,2.4514465E1,4.608117E0,7.1879776E1,3.2867285E2],"tree_param":{"num_deleted":"0","num_feature":"120","num_nodes":"103","size_leaf_vector":"1"}},{"base_weights":[-2.5082892E-1,-8.160848E-1,7.088909E-1,-8.696713E-1,2E0,3.4921703E-1,2E0,-9.679368E-1,9.1003954E-2,8.356568E-1,2E0,9.189723E-2,1.3315125E0,1.0621612E0,2E0,-9.863353E-1,-2.2516227E-1,-2.0202474E-1,6.2105894E-1,3.4903836E-1,8.35917E-2,2E0,1.0563555E0,-1.5610775E-1,8.146072E-1,8.942315E-1,1.9100219E0,5.4489666E-1,2E0,2E0,2.2090742E-2,-1.0264542E0,-7.341112E-1,3.204109E-1,-8.584514E-1,6.47092E-1,-3.5009578E-1,9.331925E-1,-5.2078757E-2,1.0524677E0,-4.779534E-2,8.35917E-2,6.7270674E-2,-1.9440365E-3,8.35917E-2,-7.3857903E-1,1.4335106E-1,1.340079E0,4.5749295E-1,5.432E-1,1.8072864E0,1.2437537E0,2E0,3.0203828E-1,2E0,8.35917E-2,6.27171E-2,1.7455434E0,2E0,-3.960532E-2,-4.564107E-2,-4.2092275E-2,-2.00416E-2,1.6893729E-3,7.7824205E-2,-3.963899E-2,1.4110362E-2,1.30626615E-2,6.0601328E-2,-1.9031499E-2,4.7730315E-2,2.4294795E-2,5.989793E-2,-6.08072E-3,7.8138135E-2,3.6847515E-3,8.35917E-2,3.0846374E-2,-3.2933854E-2,-1.9758705E-2,1.398957E-2,8.35917E-2,4.8416406E-2,-8.552127E-4,3.9624106E-2,9.763051E-3,5.2680578E-2,2.4940917E-2,8.35917E-2,8.080157E-2,2.3981595E-2,8.35917E-2,-1.5041427E-2,-1.6328223E-3,5.737513E-2,4.7832485E-2,8.35917E-2,8.35917E-2,4.7093056E-2,8.35917E-2,6.7382075E-2],"categories":[],"categories_nodes":[],"categories_segments":[],"categories_sizes":[],"default_left":[0,0,0,0,0,0,0,0,0,0,0,0,0,0,0,0,0,0,0,0,0,0,0,0,0,0,0,0,0,0,0,0,0,0,0,0,0,0,0,0,0,0,0,0,0,0,0,0,0,0,0,0,0,0,0,0,0,0,0,0,0,0,0,0,0,0,0,0,0,0,0,0,0,0,0,0,0,0,0,0,0,0,0,0,0,0,0,0,0,0,0,0,0,0,0,0,0,0,0,0,0],"id":11,"left_children":[1,3,5,7,9,11,13,15,17,19,21,23,25,27,29,31,33,35,37,39,-1,41,43,45,47,49,51,53,55,57,-1,59,61,63,65,67,69,71,73,75,-1,-1,-1,-1,-1,77,79,81,83,85,87,89,91,93,95,-1,-1,97,99,-1,-1,-1,-1,-1,-1,-1,-1,-1,-1,-1,-1,-1,-1,-1,-1,-1,-1,-1,-1,-1,-1,-1,-1,-1,-1,-1,-1,-1,-1,-1,-1,-1,-1,-1,-1,-1,-1,-1,-1,-1,-1],"loss_changes":[4.0609836E3,7.623789E2,1.4563909E3,4.3703418E2,2.3737091E1,5.64146E2,7.5187744E1,5.7368652E1,6.675788E1,1.371809E1,3.4664001E0,3.1704507E2,1.1700574E2,6.0348732E1,8.318848E0,4.138257E1,3.5161076E1,3.483017E1,3.215596E1,1.4926918E1,0E0,3.6132812E-2,5.2513223E0,2.2972888E2,8.4733826E1,8.452698E1,3.0812683E1,2.4660372E1,1.2123108E-1,5.838379E0,0E0,1.815747E1,3.906134E1,2.3602484E1,5.103897E0,1.0998947E1,3.708854E1,1.8296509E1,8.754009E0,9.789705E0,0E0,0E0,0E0,0E0,0E0,3.268318E1,1.02576416E2,3.4078613E1,6.3130146E1,4.2359985E1,2.0121277E1,2.6436844E1,1.4876282E1,2.0479948E1,2.1150322E0,0E0,0E0,3.4637756E1,1.6015625E-1,0E0,0E0,0E0,0E0,0E0,0E0,0E0,0E0,0E0,0E0,0E0,0E0,0E0,0E0,0E0,0E0,0E0,0E0,0E0,0E0,0E0,0E0,0E0,0E0,0E0,0E0,0E0,0E0,0E0,0E0,0E0,0E0,0E0,0E0,0E0,0E0,0E0,0E0,0E0,0E0,0E0,0E0],"parents":[2147483647,0,0,1,1,2,2,3,3,4,4,5,5,6,6,7,7,8,8,9,9,10,10,11,11,12,12,13,13,14,14,15,15,16,16,17,17,18,18,19,19,21,21,22,22,23,23,24,24,25,25,26,26,27,27,28,28,29,29,31,31,32,32,33,33,34,34,35,35,36,36,37,37,38,38,39,39,45,45,46,46,47,47,48,48,49,49,50,50,51,51,52,52,53,53,54,54,57,57,58,58],"right_children":[2,4,6,8,10,12,14,16,18,20,22,24,26,28,30,32,34,36,38,40,-1,42,44,46,48,50,52,54,56,58,-1,60,62,64,66,68,70,72,74,76,-1,-1,-1,-1,-1,78,80,82,84,86,88,90,92,94,96,-1,-1,98,100,-1,-1,-1,-1,-1,-1,-1,-1,-1,-1,-1,-1,-1,-1,-1,-1,-1,-1,-1,-1,-1,-1,-1,-1,-1,-1,-1,-1,-1,-1,-1,-1,-1,-1,-1,-1,-1,-1,-1,-1,-1,-1],"split_conditions":[5.5555556E-2,1E1,8E0,6.25E-2,1.1E1,4E0,1.4285715E-1,4E0,5E0,1.1111111E-1,8.3333336E-2,6.25E-2,5E0,1.1E1,5.26E-1,6E0,2.4E1,8E0,1.6981132E-1,1.1E1,8.35917E-2,2.3529412E-1,1.16E-1,1.19E2,6E0,1E0,2.1875E-1,6.923077E-1,5.7142857E-2,9E0,2.2090742E-2,2E0,1.4E2,3E0,1.1275964E-1,6.761111E-2,2E0,2E0,9.1E1,4E-2,-4.779534E-2,8.35917E-2,6.7270674E-2,-1.9440365E-3,8.35917E-2,0E0,1E-1,0E0,1.2E0,1.4E1,2E0,3E0,1.75E2,1.25E-1,2E0,8.35917E-2,6.27171E-2,1.1800001E0,1.13E2,-3.960532E-2,-4.564107E-2,-4.2092275E-2,-2.00416E-2,1.6893729E-3,7.7824205E-2,-3.963899E-2,1.4110362E-2,1.30626615E-2,6.0601328E-2,-1.9031499E-2,4.7730315E-2,2.4294795E-2,5.989793E-2,-6.08072E-3,7.8138135E-2,3.6847515E-3,8.35917E-2,3.0846374E-2,-3.2933854E-2,-1.9758705E-2,1.398957E-2,8.35917E-2,4.8416406E-2,-8.552127E-4,3.9624106E-2,9.763051E-3,5.2680578E-2,2.4940917E-2,8.35917E-2,8.080157E-2,2.3981595E-2,8.35917E-2,-1.5041427E-2,-1.6328223E-3,5.737513E-2,4.7832485E-2,8.35917E-2,8.35917E-2,4.7093056E-2,8.35917E-2,6.7382075E-2],"split_indices":[113,0,0,89,0,119,113,119,0,89,97,89,0,0,73,0,80,81,107,80,0,107,74,82,81,45,113,115,97,0,0,80,82,118,96,95,118,77,50,117,0,0,0,0,0,77,115,77,89,53,0,83,27,89,119,0,0,109,29,0,0,0,0,0,0,0,0,0,0,0,0,0,0,0,0,0,0,0,0,0,0,0,0,0,0,0,0,0,0,0,0,0,0,0,0,0,0,0,0,0,0],"split_type":[0,0,0,0,0,0,0,0,0,0,0,0,0,0,0,0,0,0,0,0,0,0,0,0,0,0,0,0,0,0,0,0,0,0,0,0,0,0,0,0,0,0,0,0,0,0,0,0,0,0,0,0,0,0,0,0,0,0,0,0,0,0,0,0,0,0,0,0,0,0,0,0,0,0,0,0,0,0,0,0,0,0,0,0,0,0,0,0,0,0,0,0,0,0,0,0,0,0,0,0,0],"sum_hessian":[7.4856147E3,4.7109673E3,2.7746472E3,4.6293E3,8.1667336E1,2.231844E3,5.428033E2,4.1997197E3,4.295805E2,1.77357E1,6.3931633E1,1.7686577E3,4.6318637E2,8.589632E1,4.5690698E2,4.0981685E3,1.0155084E2,2.766883E2,1.5289221E2,1.3965695E1,3.7700052E0,5.963451E1,4.297126E0,1.3168544E3,4.5180325E2,2.6396033E2,1.9922603E2,6.4334465E1,2.156185E1,4.5296548E2,3.9415135E0,3.5354585E3,5.627103E2,5.4582825E1,4.6968018E1,4.102616E1,2.3566212E2,1.0442707E2,4.8465137E1,9.515846E0,4.4498496E0,5.649029E1,3.1442156E0,2.184762E0,2.1123638E0,4.4708145E2,8.6977295E2,1.8268022E2,2.6912302E2,1.9079315E2,7.316717E1,5.739098E1,1.4183505E2,5.592982E1,8.404644E0,1.93421E1,2.2197506E0,9.716139E1,3.5580408E2,1.605512E3,1.9299464E3,2.7138583E2,2.9132446E2,4.6293633E1,8.289192E0,4.3706234E1,3.2617838E0,2.9072592E1,1.1953571E1,2.2020978E2,1.5452352E1,6.1432465E1,4.299461E1,4.6320488E1,2.1446483E0,5.0555487E0,4.460297E0,1.4417505E1,4.3266394E2,2.0608797E2,6.63685E2,2.163811E1,1.6104211E2,1.3636536E2,1.3275768E2,1.3337314E2,5.7420013E1,1.1720546E1,6.144662E1,2.8175728E1,2.9215254E1,1.3919733E2,2.6377263E0,4.249977E1,1.3430053E1,3.4057813E0,4.9988627E0,4.299021E1,5.417118E1,3.5179053E2,4.01357E0],"tree_param":{"num_deleted":"0","num_feature":"120","num_nodes":"101","size_leaf_vector":"1"}},{"base_weights":[-2.4432226E-1,-8.156216E-1,6.8639654E-1,-9.386439E-1,2.7352926E-1,3.3004433E-1,2E0,-9.5962286E-1,1.4564607E0,1.0357091E-2,2E0,-1.3452504E-2,9.982436E-1,1.3736923E0,8.35917E-2,-9.794162E-1,-1.7918861E-1,-4.7630543E-1,2E0,-5.6479245E-1,1.9682738E-1,2E0,9.281722E-1,-2.640655E-1,6.6563076E-1,5.8018637E-1,1.4703922E0,2E0,7.003912E-1,-8.6629575E-1,-1.0764408E0,2.549208E-1,-8.8678885E-1,3.076976E-2,-5.0748065E-2,2E0,-8.900111E-3,-6.702549E-1,1.374251E0,-1.8042207E-3,7.0089453E-1,1.2481502E0,8.35917E-2,8.050325E-2,2.659817E-1,-8.1828225E-1,-7.6799397E-3,5.702177E-1,1.9578495E0,3.4570557E-1,1.4667732E0,5.2250504E-1,1.7445209E0,1.0852427E0,2E0,3.4479356E-1,1.6918199E0,-3.9207716E-2,-1.9617382E-2,-4.5133933E-2,-4.301005E-3,1.2660966E-3,7.068807E-2,-4.077827E-2,1.3431859E-2,8.35917E-2,4.4902366E-2,1.3831805E-2,-3.4013923E-2,-1.3548792E-2,8.35917E-2,-7.018377E-3,3.1873498E-2,6.8759784E-2,1.8030668E-2,8.35917E-2,9.11657E-3,2.004104E-2,1.527565E-3,1.5126797E-2,-3.6052275E-2,-2.3216875E-3,7.9525776E-2,4.6709955E-2,1.3994753E-2,7.5196377E-3,8.35917E-2,5.2218395E-3,4.8499957E-2,4.627549E-2,8.35917E-2,-2.5026768E-3,5.3018175E-2,6.456887E-2,8.35917E-2,-1.3774784E-2,7.5658426E-2,8.35917E-2,4.9254093E-2,-8.141756E-4,4.7255978E-2,8.35917E-2,3.3563945E-2],"categories":[],"categories_nodes":[],"categories_segments":[],"categories_sizes":[],"default_left":[0,0,0,0,0,0,0,0,0,0,0,0,0,0,0,0,0,0,0,0,0,0,0,0,0,0,0,0,0,0,0,0,0,0,0,0,0,0,0,0,0,0,0,0,0,0,0,0,0,0,0,0,0,0,0,0,0,0,0,0,0,0,0,0,0,0,0,0,0,0,0,0,0,0,0,0,0,0,0,0,0,0,0,0,0,0,0,0,0,0,0,0,0,0,0,0,0,0,0,0,0,0,0],"id":12,"left_children":[1,3,5,7,9,11,13,15,17,19,21,23,25,27,-1,29,31,33,35,37,39,41,43,45,47,49,51,53,55,57,59,61,63,-1,-1,65,-1,67,69,71,73,75,-1,-1,77,79,81,83,85,87,89,91,93,95,97,99,101,-1,-1,-1,-1,-1,-1,-1,-1,-1,-1,-1,-1,-1,-1,-1,-1,-1,-1,-1,-1,-1,-1,-1,-1,-1,-1,-1,-1,-1,-1,-1,-1,-1,-1,-1,-1,-1,-1,-1,-1,-1,-1,-1,-1,-1,-1],"loss_changes":[3.920023E3,6.1212695E2,1.3971718E3,2.0640845E2,2.3755193E2,5.132744E2,8.600952E1,6.2834473E1,4.306478E1,4.390871E1,7.2498474E0,2.5140312E2,1.4976886E2,1.2233743E2,0E0,4.3447754E1,3.0989414E1,7.994766E0,1.687909E1,2.0606255E1,3.0956726E1,4.1063232E0,4.378024E0,1.533182E2,4.896933E1,8.369835E1,9.2525024E1,9.053406E0,4.3615818E1,5.21698E1,7.1083984E0,2.0178581E1,4.1553726E0,0E0,0E0,3.028778E0,0E0,1.3707226E1,9.795897E0,2.8191065E1,2.2157993E1,6.850198E0,0E0,0E0,2.0223445E-1,1.787973E1,6.748876E1,4.7754128E1,1.2300987E1,5.7318527E1,2.5338394E1,3.482743E1,2.5171997E1,1.1737193E1,1.0199585E0,2.6153376E1,1.39004135E1,0E0,0E0,0E0,0E0,0E0,0E0,0E0,0E0,0E0,0E0,0E0,0E0,0E0,0E0,0E0,0E0,0E0,0E0,0E0,0E0,0E0,0E0,0E0,0E0,0E0,0E0,0E0,0E0,0E0,0E0,0E0,0E0,0E0,0E0,0E0,0E0,0E0,0E0,0E0,0E0,0E0,0E0,0E0,0E0,0E0,0E0],"parents":[2147483647,0,0,1,1,2,2,3,3,4,4,5,5,6,6,7,7,8,8,9,9,10,10,11,11,12,12,13,13,15,15,16,16,17,17,18,18,19,19,20,20,21,21,22,22,23,23,24,24,25,25,26,26,27,27,28,28,29,29,30,30,31,31,32,32,35,35,37,37,38,38,39,39,40,40,41,41,44,44,45,45,46,46,47,47,48,48,49,49,50,50,51,51,52,52,53,53,54,54,55,55,56,56],"right_children":[2,4,6,8,10,12,14,16,18,20,22,24,26,28,-1,30,32,34,36,38,40,42,44,46,48,50,52,54,56,58,60,62,64,-1,-1,66,-1,68,70,72,74,76,-1,-1,78,80,82,84,86,88,90,92,94,96,98,100,102,-1,-1,-1,-1,-1,-1,-1,-1,-1,-1,-1,-1,-1,-1,-1,-1,-1,-1,-1,-1,-1,-1,-1,-1,-1,-1,-1,-1,-1,-1,-1,-1,-1,-1,-1,-1,-1,-1,-1,-1,-1,-1,-1,-1,-1,-1],"split_conditions":[1E0,1E0,8E0,1E1,8E0,4E-2,1E1,4E0,1.84E2,6.3666664E-2,9.52381E-2,1E0,3.6842105E-1,1.224E0,8.35917E-2,2E0,1.3E2,2.018E3,2.42393E5,1.07E2,5E0,9E0,1.02564104E-1,1.04E2,1E2,1.7E1,3E0,1.4285715E-1,3.6842105E-1,6E0,5.4545456E-1,3E0,2.6E1,3.076976E-2,-5.0748065E-2,1.18E-1,-8.900111E-3,8E0,4.117647E-1,6.1E1,3E1,1.08E-5,8.35917E-2,8.050325E-2,1.09944E2,0E0,1E0,6E0,3.3333335E-2,6E0,5E0,8E0,1E0,2E0,1.66E2,1E0,2.25E-1,-3.9207716E-2,-1.9617382E-2,-4.5133933E-2,-4.301005E-3,1.2660966E-3,7.068807E-2,-4.077827E-2,1.3431859E-2,8.35917E-2,4.4902366E-2,1.3831805E-2,-3.4013923E-2,-1.3548792E-2,8.35917E-2,-7.018377E-3,3.1873498E-2,6.8759784E-2,1.8030668E-2,8.35917E-2,9.11657E-3,2.004104E-2,1.527565E-3,1.5126797E-2,-3.6052275E-2,-2.3216875E-3,7.9525776E-2,4.6709955E-2,1.3994753E-2,7.5196377E-3,8.35917E-2,5.2218395E-3,4.8499957E-2,4.627549E-2,8.35917E-2,-2.5026768E-3,5.3018175E-2,6.456887E-2,8.35917E-2,-1.3774784E-2,7.5658426E-2,8.35917E-2,4.9254093E-2,-8.141756E-4,4.7255978E-2,8.35917E-2,3.3563945E-2],"split_indices":[114,90,0,0,0,117,0,119,82,96,97,90,113,109,0,80,80,88,75,60,90,0,103,82,53,22,0,113,113,0,96,118,119,0,0,72,0,81,99,82,81,73,0,0,70,77,6,81,99,119,77,22,21,119,53,90,103,0,0,0,0,0,0,0,0,0,0,0,0,0,0,0,0,0,0,0,0,0,0,0,0,0,0,0,0,0,0,0,0,0,0,0,0,0,0,0,0,0,0,0,0,0,0],"split_type":[0,0,0,0,0,0,0,0,0,0,0,0,0,0,0,0,0,0,0,0,0,0,0,0,0,0,0,0,0,0,0,0,0,0,0,0,0,0,0,0,0,0,0,0,0,0,0,0,0,0,0,0,0,0,0,0,0,0,0,0,0,0,0,0,0,0,0,0,0,0,0,0,0,0,0,0,0,0,0,0,0,0,0,0,0,0,0,0,0,0,0,0,0,0,0,0,0,0,0,0,0,0,0],"sum_hessian":[7.3721143E3,4.5681074E3,2.804007E3,4.10451E3,4.6359732E2,2.2361174E3,5.6788983E2,4.068939E3,3.5570827E1,4.0916306E2,5.4434288E1,1.4769711E3,7.591463E2,2.2032767E2,3.4756216E2,3.9682651E3,1.0067392E2,8.700825E0,2.6870005E1,1.0011805E2,3.0904498E2,4.7835705E1,6.5985827E0,1.078885E3,3.98086E2,4.0277457E2,3.5637177E2,9.653951E1,1.23788155E2,1.832693E3,2.135572E3,6.2439293E1,3.8234627E1,3.2911594E0,5.409665E0,2.3445562E1,3.4244428E0,9.5025635E1,5.0924187E0,2.2176755E2,8.7277435E1,7.966288E0,3.986942E1,2.5437028E0,4.05488E0,3.411594E2,7.3772565E2,3.7086902E2,2.7216974E1,3.1865842E2,8.411615E1,8.0019135E1,2.7635263E2,1.1256863E1,8.528265E1,9.122472E1,3.256344E1,1.5518907E3,2.8080234E2,2.12807E3,7.5020733E0,5.4097412E1,8.341883E0,3.5636665E1,2.5979586E0,1.9486277E1,3.9592855E0,1.1896589E1,8.312904E1,2.1596086E0,2.9328103E0,1.8225282E2,3.951473E1,1.924754E1,6.80299E1,4.3393073E0,3.6269805E0,2.0322957E0,2.0225842E0,1.2310981E1,3.2884842E2,7.198021E2,1.7923557E1,1.1139491E2,2.5947412E2,3.753245E0,2.3463728E1,2.5082368E2,6.7834724E1,6.229483E1,2.1821318E1,4.499581E1,3.5023323E1,2.107339E2,6.561871E1,3.8343964E0,7.4224663E0,8.3202E1,2.0806448E0,6.240678E1,2.8817934E1,2.0487251E1,1.2076185E1],"tree_param":{"num_deleted":"0","num_feature":"120","num_nodes":"103","size_leaf_vector":"1"}},{"base_weights":[-2.4026302E-1,-8.0518407E-1,6.492504E-1,-9.3222046E-1,2.8347918E-1,3.069492E-1,1.9767448E0,-9.526467E-1,1.3451713E0,1.1847052E-2,2E0,-2.4065992E-2,9.483935E-1,1.2943082E0,2E0,-9.7382075E-1,-1.4844124E-1,-6.4888877E-1,1.9528335E0,-2.2299118E-1,4.8520458E-1,1.3674775E0,2E0,-2.564782E-1,5.87484E-1,5.580724E-1,1.3818128E0,2E0,6.5780085E-1,8.35917E-2,6.0176753E-2,-1.0693115E0,-8.6540985E-1,-7.9058015E-1,3.4959024E-1,2.0229181E-2,-5.0025355E-2,5.1226646E-1,2E0,-3.0114844E-1,1.239867E0,7.5435024E-1,-8.28848E-2,1.7686974E0,6.8310084E-4,5.262691E-2,2E0,-7.853884E-1,1.9762588E-3,1.3874964E0,4.0349525E-1,4.0631315E-1,1.5909593E0,5.402249E-1,1.6219192E0,1.248955E0,2E0,3.1624427E-1,1.5967523E0,-4.4841904E-2,-3.2944493E-3,-3.9113585E-2,-2.006221E-2,-3.9092097E-2,2.063253E-3,5.1712487E-3,8.35917E-2,-3.448526E-2,4.601264E-2,8.35917E-2,5.2134182E-2,2.0504018E-2,-1.8549427E-2,1.0044032E-2,8.35917E-2,6.970218E-3,4.280108E-2,-7.899513E-3,7.8996584E-2,8.35917E-2,2.5963508E-2,8.35917E-2,6.293347E-2,1.6813664E-2,-3.467136E-2,-1.5954282E-3,8.35917E-2,4.7014985E-2,8.35917E-2,-7.6424587E-3,3.4978725E-2,7.5768255E-2,1.26390215E-2,2.9708637E-2,7.591916E-2,9.636109E-3,6.2402107E-2,3.797252E-2,8.097529E-2,7.858483E-2,3.8475133E-3,8.35917E-2,2.6114596E-2,-2.3543742E-3,4.7847774E-2,8.35917E-2,4.482735E-2],"categories":[],"categories_nodes":[],"categories_segments":[],"categories_sizes":[],"default_left":[0,0,0,0,0,0,0,0,0,0,0,0,0,0,0,0,0,0,0,0,0,0,0,0,0,0,0,0,0,0,0,0,0,0,0,0,0,0,0,0,0,0,0,0,0,0,0,0,0,0,0,0,0,0,0,0,0,0,0,0,0,0,0,0,0,0,0,0,0,0,0,0,0,0,0,0,0,0,0,0,0,0,0,0,0,0,0,0,0,0,0,0,0,0,0,0,0,0,0,0,0,0,0,0,0,0,0],"id":13,"left_children":[1,3,5,7,9,11,13,15,17,19,21,23,25,27,29,31,33,35,37,39,41,43,45,47,49,51,53,55,57,-1,-1,59,61,63,65,-1,-1,67,69,71,73,75,77,79,-1,-1,81,83,85,87,89,91,93,95,97,99,101,103,105,-1,-1,-1,-1,-1,-1,-1,-1,-1,-1,-1,-1,-1,-1,-1,-1,-1,-1,-1,-1,-1,-1,-1,-1,-1,-1,-1,-1,-1,-1,-1,-1,-1,-1,-1,-1,-1,-1,-1,-1,-1,-1,-1,-1,-1,-1,-1,-1],"loss_changes":[3.6498567E3,6.1437866E2,1.2818856E3,1.8519995E2,2.3838098E2,4.762547E2,1.1036719E2,6.711987E1,4.3056305E1,4.5202435E1,4.269989E0,2.103185E2,1.2907397E2,1.1364502E2,4.8242188E-1,3.9661377E1,3.2425564E1,5.2580166E0,1.5836136E1,3.111893E1,2.0625092E1,6.406477E0,7.5372314E-1,1.4657617E2,5.9916504E1,6.292708E1,7.298633E1,9.201721E0,4.0041748E1,0E0,0E0,7.2055664E0,4.878723E1,5.389591E0,2.5680258E1,0E0,0E0,5.927376E0,8.0332184E-1,2.917781E1,1.4690386E1,1.4480434E1,9.140462E0,4.7033844E0,0E0,0E0,1.762085E-1,1.8496597E1,6.65824E1,1.5320618E1,8.425221E1,5.1178528E1,1.0060165E1,2.3701454E1,6.311847E1,1.2490755E1,3.9389954E0,2.835822E1,8.52359E0,0E0,0E0,0E0,0E0,0E0,0E0,0E0,0E0,0E0,0E0,0E0,0E0,0E0,0E0,0E0,0E0,0E0,0E0,0E0,0E0,0E0,0E0,0E0,0E0,0E0,0E0,0E0,0E0,0E0,0E0,0E0,0E0,0E0,0E0,0E0,0E0,0E0,0E0,0E0,0E0,0E0,0E0,0E0,0E0,0E0,0E0,0E0,0E0],"parents":[2147483647,0,0,1,1,2,2,3,3,4,4,5,5,6,6,7,7,8,8,9,9,10,10,11,11,12,12,13,13,14,14,15,15,16,16,17,17,18,18,19,19,20,20,21,21,22,22,23,23,24,24,25,25,26,26,27,27,28,28,31,31,32,32,33,33,34,34,37,37,38,38,39,39,40,40,41,41,42,42,43,43,46,46,47,47,48,48,49,49,50,50,51,51,52,52,53,53,54,54,55,55,56,56,57,57,58,58],"right_children":[2,4,6,8,10,12,14,16,18,20,22,24,26,28,30,32,34,36,38,40,42,44,46,48,50,52,54,56,58,-1,-1,60,62,64,66,-1,-1,68,70,72,74,76,78,80,-1,-1,82,84,86,88,90,92,94,96,98,100,102,104,106,-1,-1,-1,-1,-1,-1,-1,-1,-1,-1,-1,-1,-1,-1,-1,-1,-1,-1,-1,-1,-1,-1,-1,-1,-1,-1,-1,-1,-1,-1,-1,-1,-1,-1,-1,-1,-1,-1,-1,-1,-1,-1,-1,-1,-1,-1,-1,-1],"split_conditions":[1E0,1E0,8E0,1E1,8E0,4E-2,1E1,4E0,1.84E2,5E0,9E0,6.25E-2,3.6842105E-1,1.224E0,9.64E-1,1.56E2,8.1E1,2E-2,3.75E-1,6E0,1.6981132E-1,2.59E-1,4.74E-2,1.14E2,3E0,1.3E1,3E0,2E0,3.6842105E-1,8.35917E-2,6.0176753E-2,5.4545456E-1,6E0,1.04166664E-1,6E0,2.0229181E-2,-5.0025355E-2,2.892E0,1.2015165E8,8E0,8.89371E-2,3.3333334E-1,9.1E1,1.08E-5,6.8310084E-4,5.262691E-2,2.13E-1,0E0,4E0,5.555556E-1,3E0,0E0,5.0882884E7,1E0,4.2857143E-1,4.6E-1,3.71E-1,1.25E-1,1.2893275E8,-4.4841904E-2,-3.2944493E-3,-3.9113585E-2,-2.006221E-2,-3.9092097E-2,2.063253E-3,5.1712487E-3,8.35917E-2,-3.448526E-2,4.601264E-2,8.35917E-2,5.2134182E-2,2.0504018E-2,-1.8549427E-2,1.0044032E-2,8.35917E-2,6.970218E-3,4.280108E-2,-7.899513E-3,7.8996584E-2,8.35917E-2,2.5963508E-2,8.35917E-2,6.293347E-2,1.6813664E-2,-3.467136E-2,-1.5954282E-3,8.35917E-2,4.7014985E-2,8.35917E-2,-7.6424587E-3,3.4978725E-2,7.5768255E-2,1.26390215E-2,2.9708637E-2,7.591916E-2,9.636109E-3,6.2402107E-2,3.797252E-2,8.097529E-2,7.858483E-2,3.8475133E-3,8.35917E-2,2.6114596E-2,-2.3543742E-3,4.7847774E-2,8.35917E-2,4.482735E-2],"split_indices":[114,90,0,0,0,117,0,119,82,0,0,89,113,109,71,82,82,107,115,30,107,74,95,82,83,119,0,119,113,0,0,96,0,96,0,0,0,110,91,81,96,115,50,73,0,0,72,77,7,115,90,77,92,16,115,71,72,89,92,0,0,0,0,0,0,0,0,0,0,0,0,0,0,0,0,0,0,0,0,0,0,0,0,0,0,0,0,0,0,0,0,0,0,0,0,0,0,0,0,0,0,0,0,0,0,0,0],"split_type":[0,0,0,0,0,0,0,0,0,0,0,0,0,0,0,0,0,0,0,0,0,0,0,0,0,0,0,0,0,0,0,0,0,0,0,0,0,0,0,0,0,0,0,0,0,0,0,0,0,0,0,0,0,0,0,0,0,0,0,0,0,0,0,0,0,0,0,0,0,0,0,0,0,0,0,0,0,0,0,0,0,0,0,0,0,0,0,0,0,0,0,0,0,0,0,0,0,0,0,0,0,0,0,0,0,0,0],"sum_hessian":[7.2630854E3,4.4420176E3,2.821068E3,3.9778577E3,4.6415964E2,2.2428743E3,5.78194E2,3.942564E3,3.529387E1,4.0638672E2,5.77729E1,1.4794945E3,7.633797E2,2.2306046E2,3.5513354E2,3.841397E3,1.01166824E2,8.24094E0,2.7052929E1,2.716673E2,1.3471944E2,1.1711449E1,4.606145E1,1.072118E3,4.0737653E2,4.017999E2,3.6157977E2,9.814165E1,1.249188E2,3.5224142E2,2.8921103E0,2.041855E3,1.799542E3,4.416183E1,5.7004993E1,2.6902828E0,5.5506573E0,7.276709E0,1.977622E1,2.579764E2,1.36908865E1,9.13873E1,4.333214E1,9.001814E0,2.7096345E0,2.099656E0,4.3961796E1,3.5185025E2,7.202677E2,7.6029366E1,3.3134717E2,3.5046808E2,5.133181E1,8.0344955E1,2.8123483E2,1.7016998E1,8.112465E1,9.17123E1,3.3206497E1,2.0345154E3,7.339593E0,1.5214081E3,2.781339E2,3.7661068E1,6.5007644E0,5.150612E1,5.498875E0,2.2091043E0,5.0676045E0,1.765778E1,2.118441E0,3.9343517E1,2.1863289E2,7.3547583E0,6.3361287E0,2.8810522E1,6.2576775E1,4.121971E1,2.1124308E0,6.1426406E0,2.8591735E0,4.1467976E1,2.4938185E0,1.2576879E1,3.3927338E2,7.083028E2,1.1964927E1,5.779134E1,1.8238028E1,1.4085173E2,1.9049542E2,2.3980644E1,3.2648746E2,1.0566623E1,4.0765186E1,6.074585E1,1.9599102E1,8.637219E1,1.9486264E2,1.096241E1,6.054588E0,7.891159E1,2.2130618E0,6.333706E1,2.8375246E1,1.6577446E1,1.6629053E1],"tree_param":{"num_deleted":"0","num_feature":"120","num_nodes":"107","size_leaf_vector":"1"}},{"base_weights":[-2.2314951E-1,-7.8745896E-1,6.372781E-1,-9.168052E-1,2.7353606E-1,1.6561374E-1,1.31117E0,-7.671778E-1,-1.0491757E0,-1.5678631E-1,7.663251E-1,-1.00266926E-1,8.0584097E-1,8.639052E-1,1.6723893E0,-8.519209E-1,-8.00315E-2,-1.0583864E0,-5.651496E-1,4.876549E-1,-3.483701E-1,5.3416413E-1,1.8555197E0,-7.583794E-1,1.8894088E-1,-1.362278E-1,9.884306E-1,6.880231E-1,1.7363261E0,1.1944479E0,1.897619E0,-9.1950893E-1,-5.642949E-1,-4.2579052E-1,7.9455215E-1,-1.0614555E0,-2.4885745E-1,2.2156824E-1,-8.8603187E-1,2.0998527E-1,1.279205E0,-5.353462E-1,6.6564554E-1,8.1944E-1,-2.2696596E-1,-1.6219798E-2,1.9951276E0,4.5784113E-1,-8.08315E-1,-4.801702E-1,3.929378E-1,1.2293438E0,-2.8999802E-1,6.978095E-1,1.3732891E0,3.3292776E-1,1.265505E0,2E0,1.1506276E0,1.3340267E0,2.6376814E-1,1.1276164E0,2E0,-3.912263E-2,6.6036796E-3,-2.9738639E-2,3.0942459E-2,-2.213506E-2,8.12545E-2,5.733546E-2,-1.01924585E-2,-4.4457577E-2,-7.248021E-3,-3.7496265E-2,2.3841888E-2,5.1989593E-2,-1.4446051E-2,-4.24126E-2,1.4477534E-2,-2.553793E-3,4.2964406E-2,8.137377E-4,7.763374E-2,-1.0929806E-2,-3.3243243E-2,4.3771632E-2,-3.6101915E-2,2.8295123E-3,4.8443235E-2,-1.4254233E-2,8.35917E-2,8.35917E-2,2.1526556E-2,-1.3624765E-2,8.35917E-2,-3.440148E-2,6.004714E-2,-2.4586288E-2,8.35917E-2,1.223729E-2,8.0557436E-2,8.35917E-2,7.5385533E-3,-2.2770021E-2,1.13047715E-2,2.215688E-2,6.095133E-2,4.388542E-2,7.887714E-2,-1.8500369E-2,3.014076E-2,3.469607E-2,7.37188E-2,8.35917E-2,2.2548884E-2,6.452291E-2,1.2366774E-2,3.680923E-2,7.0639566E-2,-2.2174483E-3,8.35917E-2,5.315515E-2,-5.2190416E-2,5.2115377E-2,8.35917E-2],"categories":[],"categories_nodes":[],"categories_segments":[],"categories_sizes":[],"default_left":[0,0,0,0,0,0,0,0,0,0,0,0,0,0,0,0,0,0,0,0,0,0,0,0,0,0,0,0,0,0,0,0,0,0,0,0,0,0,0,0,0,0,0,0,0,0,0,0,0,0,0,0,0,0,0,0,0,0,0,0,0,0,0,0,0,0,0,0,0,0,0,0,0,0,0,0,0,0,0,0,0,0,0,0,0,0,0,0,0,0,0,0,0,0,0,0,0,0,0,0,0,0,0,0,0,0,0,0,0,0,0,0,0,0,0,0,0,0,0,0,0,0,0,0,0],"id":14,"left_children":[1,3,5,7,9,11,13,15,17,19,21,23,25,27,29,31,33,35,37,39,41,43,45,47,49,51,53,55,57,59,61,63,65,67,69,71,73,75,77,79,81,83,85,87,89,-1,91,93,95,97,99,101,103,105,107,109,111,113,115,117,119,121,123,-1,-1,-1,-1,-1,-1,-1,-1,-1,-1,-1,-1,-1,-1,-1,-1,-1,-1,-1,-1,-1,-1,-1,-1,-1,-1,-1,-1,-1,-1,-1,-1,-1,-1,-1,-1,-1,-1,-1,-1,-1,-1,-1,-1,-1,-1,-1,-1,-1,-1,-1,-1,-1,-1,-1,-1,-1,-1,-1,-1,-1,-1],"loss_changes":[3.484075E3,5.947344E2,9.033407E2,7.6410645E1,9.989012E1,2.84635E2,1.8888806E2,1.05595215E2,9.065918E0,3.1074474E1,5.541014E1,2.2489922E2,8.441455E1,8.012311E1,6.941174E1,3.132483E1,6.028797E1,4.9645996E0,9.747988E0,1.2648102E1,3.6814846E1,3.9358395E1,1.2161514E1,2.1952484E1,1.1207374E2,1.6791155E1,4.5859894E1,8.9254196E1,1.3586487E1,2.6929565E1,3.793274E1,2.3301758E1,5.9122826E1,3.5267292E1,3.390171E1,3.9416504E0,4.1768064E0,6.577338E0,4.3864975E0,9.510924E0,1.0889578E1,1.1640823E1,1.7760418E1,3.3636887E1,1.2725863E1,0E0,5.5517883E0,2.8043156E1,1.1628998E1,6.283302E1,9.662604E1,9.205893E0,1.0269109E1,2.9805244E1,2.9132172E1,8.128049E1,3.5795197E1,6.0079346E0,9.329468E0,2.896875E1,1.5223385E1,1.9544006E1,1.4893799E1,0E0,0E0,0E0,0E0,0E0,0E0,0E0,0E0,0E0,0E0,0E0,0E0,0E0,0E0,0E0,0E0,0E0,0E0,0E0,0E0,0E0,0E0,0E0,0E0,0E0,0E0,0E0,0E0,0E0,0E0,0E0,0E0,0E0,0E0,0E0,0E0,0E0,0E0,0E0,0E0,0E0,0E0,0E0,0E0,0E0,0E0,0E0,0E0,0E0,0E0,0E0,0E0,0E0,0E0,0E0,0E0,0E0,0E0,0E0,0E0,0E0,0E0],"parents":[2147483647,0,0,1,1,2,2,3,3,4,4,5,5,6,6,7,7,8,8,9,9,10,10,11,11,12,12,13,13,14,14,15,15,16,16,17,17,18,18,19,19,20,20,21,21,22,22,23,23,24,24,25,25,26,26,27,27,28,28,29,29,30,30,31,31,32,32,33,33,34,34,35,35,36,36,37,37,38,38,39,39,40,40,41,41,42,42,43,43,44,44,46,46,47,47,48,48,49,49,50,50,51,51,52,52,53,53,54,54,55,55,56,56,57,57,58,58,59,59,60,60,61,61,62,62],"right_children":[2,4,6,8,10,12,14,16,18,20,22,24,26,28,30,32,34,36,38,40,42,44,46,48,50,52,54,56,58,60,62,64,66,68,70,72,74,76,78,80,82,84,86,88,90,-1,92,94,96,98,100,102,104,106,108,110,112,114,116,118,120,122,124,-1,-1,-1,-1,-1,-1,-1,-1,-1,-1,-1,-1,-1,-1,-1,-1,-1,-1,-1,-1,-1,-1,-1,-1,-1,-1,-1,-1,-1,-1,-1,-1,-1,-1,-1,-1,-1,-1,-1,-1,-1,-1,-1,-1,-1,-1,-1,-1,-1,-1,-1,-1,-1,-1,-1,-1,-1,-1,-1,-1,-1,-1],"split_conditions":[1E0,1E0,4E-2,2E0,8.857143E-2,1E0,5.555556E-1,2E0,5E0,4E0,1.6393442E-2,1.14E2,1E0,5.3846157E-1,3.3333335E-2,5.555556E-1,4E-2,5.4545456E-1,1.3E2,2E0,1.1E1,2.019E3,1.2569481E7,0E0,1E0,3.5E1,9.0833336E-2,1E0,3.72E-6,3.656749E4,2E0,1E0,1E0,8.9E1,1E0,1.6151E4,5.94E-1,3.73E-1,2.6E1,7.9333335E-2,8E0,1.1E1,6E1,3.3333334E-1,5E0,-1.6219798E-2,1E2,1E0,6.5E1,6.4E1,1.1E2,1.28E-6,2.2E1,6.086956E-1,1.75E0,1.45E2,9.4510846E-2,1.8181819E-1,1.6981132E-1,3.6842105E-1,1.3E1,4.9E1,3.2971846E7,-3.912263E-2,6.6036796E-3,-2.9738639E-2,3.0942459E-2,-2.213506E-2,8.12545E-2,5.733546E-2,-1.01924585E-2,-4.4457577E-2,-7.248021E-3,-3.7496265E-2,2.3841888E-2,5.1989593E-2,-1.4446051E-2,-4.24126E-2,1.4477534E-2,-2.553793E-3,4.2964406E-2,8.137377E-4,7.763374E-2,-1.0929806E-2,-3.3243243E-2,4.3771632E-2,-3.6101915E-2,2.8295123E-3,4.8443235E-2,-1.4254233E-2,8.35917E-2,8.35917E-2,2.1526556E-2,-1.3624765E-2,8.35917E-2,-3.440148E-2,6.004714E-2,-2.4586288E-2,8.35917E-2,1.223729E-2,8.0557436E-2,8.35917E-2,7.5385533E-3,-2.2770021E-2,1.13047715E-2,2.215688E-2,6.095133E-2,4.388542E-2,7.887714E-2,-1.8500369E-2,3.014076E-2,3.469607E-2,7.37188E-2,8.35917E-2,2.2548884E-2,6.452291E-2,1.2366774E-2,3.680923E-2,7.0639566E-2,-2.2174483E-3,8.35917E-2,5.315515E-2,-5.2190416E-2,5.2115377E-2,8.35917E-2],"split_indices":[114,90,117,80,96,90,115,119,119,83,105,82,116,113,111,115,117,96,80,90,90,88,91,77,116,80,96,90,73,93,119,54,79,30,76,77,68,69,119,96,82,83,83,115,66,0,59,33,54,6,64,73,77,113,89,82,96,97,99,113,66,56,92,0,0,0,0,0,0,0,0,0,0,0,0,0,0,0,0,0,0,0,0,0,0,0,0,0,0,0,0,0,0,0,0,0,0,0,0,0,0,0,0,0,0,0,0,0,0,0,0,0,0,0,0,0,0,0,0,0,0,0,0,0,0],"split_type":[0,0,0,0,0,0,0,0,0,0,0,0,0,0,0,0,0,0,0,0,0,0,0,0,0,0,0,0,0,0,0,0,0,0,0,0,0,0,0,0,0,0,0,0,0,0,0,0,0,0,0,0,0,0,0,0,0,0,0,0,0,0,0,0,0,0,0,0,0,0,0,0,0,0,0,0,0,0,0,0,0,0,0,0,0,0,0,0,0,0,0,0,0,0,0,0,0,0,0,0,0,0,0,0,0,0,0,0,0,0,0,0,0,0,0,0,0,0,0,0,0,0,0,0,0],"sum_hessian":[7.17532E3,4.333328E3,2.8419917E3,3.86247E3,4.7085815E2,1.6719329E3,1.1700588E3,1.8134242E3,2.0490457E3,2.5140085E2,2.1945732E2,1.181402E3,4.905309E2,5.2294165E2,6.471172E2,1.6143082E3,1.9911592E2,2.010645E3,3.8400623E1,5.7568756E1,1.9383209E2,1.8104112E2,3.84162E1,3.6061523E2,8.2078674E2,7.964181E1,4.108891E2,4.35376E2,8.756567E1,2.0750941E2,4.396078E2,1.3069388E3,3.0736948E2,1.4274391E2,5.6372005E1,2.0030138E3,7.6312165E0,1.11340885E1,2.7266533E1,4.2727467E1,1.484129E1,1.6370235E2,3.0129742E1,1.316798E2,4.9361332E1,2.237861E0,3.6178337E1,1.4184083E1,3.4643115E2,1.917344E2,6.290523E2,7.9781475E0,7.166366E1,2.3429276E2,1.7659636E2,2.6971255E2,1.6566344E2,5.9758675E1,2.7806995E1,1.8040227E2,2.7107145E1,5.6390553E1,3.8321722E2,1.2872057E3,1.9733091E1,2.7624814E2,3.1121355E1,1.3683968E2,5.9042377E0,3.620846E1,2.0163542E1,1.9979758E3,5.0380216E0,4.2551017E0,3.376115E0,3.9249854E0,7.2091036E0,2.4707306E1,2.5592268E0,3.2170444E1,1.0557023E1,4.707336E0,1.0133954E1,7.984782E1,8.385453E1,2.414268E1,5.987063E0,4.102017E1,9.065962E1,4.706276E1,2.298571E0,3.356484E1,2.613499E0,1.1437124E1,2.7469587E0,3.4424E2,2.1911626E0,1.8549492E2,6.2394967E0,5.906405E2,3.8411827E1,3.72135E0,4.256798E0,4.92707E1,2.2392962E1,1.9212637E2,4.2166374E1,1.0861846E2,6.797789E1,8.996446E1,1.7974811E2,8.857751E1,7.708593E1,5.683961E1,2.9190626E0,1.8982014E1,8.824981E0,7.954067E1,1.00861595E2,2.307201E1,4.0351357E0,5.321609E1,3.1744614E0,2.6960058E1,3.5625717E2],"tree_param":{"num_deleted":"0","num_feature":"120","num_nodes":"125","size_leaf_vector":"1"}},{"base_weights":[-2.1984921E-1,-7.7761245E-1,6.03977E-1,-9.085342E-1,2.572167E-1,2.8509137E-1,1.8194208E0,-9.3108034E-1,1.3608103E0,6.7334697E-3,1.9970577E0,6.7465054E-3,9.0594786E-1,1.215189E0,2E0,-9.437102E-1,2.4452077E-1,1.8474877E0,-9.056238E-1,-6.4294085E-2,1.4132859E0,2E0,6.8865883E-1,-2.1608518E-1,5.6685317E-1,1.3463843E0,4.9105328E-1,1.9391458E0,6.311761E-1,1.726315E0,8.35917E-2,-1.050105E0,-8.2509196E-1,-2.6349932E-1,1.661846E0,3.0652133E-1,2E0,-1.2081672E-2,-4.9395043E-2,6.1685723E-1,-1.9924752E-1,-4.311472E-1,2E0,1.2845912E0,8.35917E-2,-1.4794255E-2,1.3641899E0,-6.709942E-1,7.905772E-2,1.1080407E0,3.6045748E-1,8.6670536E-1,1.6658394E0,2E0,3.3079308E-1,1.1638051E0,2E0,3.119301E-1,1.4798841E0,9.761337E-1,2E0,-4.4022415E-2,-1.0827167E-2,-3.768353E-2,-1.7190594E-2,-2.370098E-2,8.35917E-2,1.2754926E-2,8.35917E-2,3.345074E-2,-3.589996E-2,3.595864E-2,8.35917E-2,1.629062E-2,8.2342565E-2,-1.8881714E-2,1.3397949E-2,7.416939E-3,-3.6127154E-2,8.35917E-2,1.9868684E-3,7.313109E-2,-2.1182331E-3,2.448958E-2,8.35917E-2,-2.946228E-2,3.059285E-2,1.1683711E-3,8.35917E-2,3.3728708E-2,7.643147E-2,-4.8286766E-3,3.4719296E-2,5.862613E-3,4.830755E-2,3.5198584E-2,8.22127E-2,8.35917E-2,2.554122E-2,2.731094E-3,4.418849E-2,7.719339E-2,1.069247E-2,8.35917E-2,2.2248272E-2,-1.7331329E-3,4.366063E-2,4.6225272E-2,8.35917E-2,1.5534604E-2,8.1502266E-2,8.35917E-2,4.3530915E-2],"categories":[],"categories_nodes":[],"categories_segments":[],"categories_sizes":[],"default_left":[0,0,0,0,0,0,0,0,0,0,0,0,0,0,0,0,0,0,0,0,0,0,0,0,0,0,0,0,0,0,0,0,0,0,0,0,0,0,0,0,0,0,0,0,0,0,0,0,0,0,0,0,0,0,0,0,0,0,0,0,0,0,0,0,0,0,0,0,0,0,0,0,0,0,0,0,0,0,0,0,0,0,0,0,0,0,0,0,0,0,0,0,0,0,0,0,0,0,0,0,0,0,0,0,0,0,0,0,0,0,0,0,0],"id":15,"left_children":[1,3,5,7,9,11,13,15,17,19,21,23,25,27,29,31,33,35,37,39,41,43,45,47,49,51,53,55,57,59,-1,61,63,65,67,69,71,-1,-1,73,75,77,79,81,-1,-1,83,85,87,89,91,93,95,97,99,101,103,105,107,109,111,-1,-1,-1,-1,-1,-1,-1,-1,-1,-1,-1,-1,-1,-1,-1,-1,-1,-1,-1,-1,-1,-1,-1,-1,-1,-1,-1,-1,-1,-1,-1,-1,-1,-1,-1,-1,-1,-1,-1,-1,-1,-1,-1,-1,-1,-1,-1,-1,-1,-1,-1,-1],"loss_changes":[3.251183E3,5.716272E2,1.1070715E3,1.9177197E2,2.065317E2,3.910621E2,1.1986841E2,5.5089844E1,4.0886765E1,4.1415134E1,1.1992645E1,1.9503976E2,1.2792615E2,9.5747314E1,4.008545E0,4.620459E1,2.8503563E1,2.1224731E1,1.0837708E0,3.628643E1,2.2425434E1,3.7088165E0,5.1617107E0,1.5010472E2,4.9633102E1,5.1890015E1,9.355732E1,1.1305725E1,3.4005737E1,1.6498505E1,0E0,4.812744E0,5.490381E1,2.2903196E1,8.296516E0,4.5770597E0,2.3733215E0,0E0,0E0,1.997291E1,4.3256622E1,1.346756E0,1.1729546E1,5.0748625E0,0E0,0E0,2.5000277E0,2.0992966E1,8.002801E1,2.6458038E1,7.211557E1,2.8550728E1,5.036151E1,1.1447205E1,6.336941E1,1.0716442E1,4.637024E0,2.369749E1,9.206734E0,1.1950699E1,4.23645E0,0E0,0E0,0E0,0E0,0E0,0E0,0E0,0E0,0E0,0E0,0E0,0E0,0E0,0E0,0E0,0E0,0E0,0E0,0E0,0E0,0E0,0E0,0E0,0E0,0E0,0E0,0E0,0E0,0E0,0E0,0E0,0E0,0E0,0E0,0E0,0E0,0E0,0E0,0E0,0E0,0E0,0E0,0E0,0E0,0E0,0E0,0E0,0E0,0E0,0E0,0E0,0E0],"parents":[2147483647,0,0,1,1,2,2,3,3,4,4,5,5,6,6,7,7,8,8,9,9,10,10,11,11,12,12,13,13,14,14,15,15,16,16,17,17,18,18,19,19,20,20,21,21,22,22,23,23,24,24,25,25,26,26,27,27,28,28,29,29,31,31,32,32,33,33,34,34,35,35,36,36,39,39,40,40,41,41,42,42,43,43,46,46,47,47,48,48,49,49,50,50,51,51,52,52,53,53,54,54,55,55,56,56,57,57,58,58,59,59,60,60],"right_children":[2,4,6,8,10,12,14,16,18,20,22,24,26,28,30,32,34,36,38,40,42,44,46,48,50,52,54,56,58,60,-1,62,64,66,68,70,72,-1,-1,74,76,78,80,82,-1,-1,84,86,88,90,92,94,96,98,100,102,104,106,108,110,112,-1,-1,-1,-1,-1,-1,-1,-1,-1,-1,-1,-1,-1,-1,-1,-1,-1,-1,-1,-1,-1,-1,-1,-1,-1,-1,-1,-1,-1,-1,-1,-1,-1,-1,-1,-1,-1,-1,-1,-1,-1,-1,-1,-1,-1,-1,-1,-1,-1,-1,-1,-1],"split_conditions":[1E0,6.25E-2,8E0,1E1,8E0,5.555556E-1,1E1,2E0,2E0,1E0,9.52381E-2,6.25E-2,6E-1,1.224E0,1.1E1,1.56E2,1.7E1,3.75E-1,2.9099736E7,3E0,2.857143E-1,9E0,4E-1,1.81E2,4E0,4E0,0E0,2E0,3.6842105E-1,2.1875E-1,8.35917E-2,5.4545456E-1,6E0,7E0,5.62E-2,2.35E-1,8.826014E-2,-1.2081672E-2,