{"learner":{"attributes":{"scikit_learn":"{\"_estimator_type\": \"ranker\"}"},"feature_names":["rank_andorra","rank_argentina","rank_australia","rank_austria","rank_belgium","rank_bolivia","rank_brazil","rank_bulgaria","rank_canada","rank_chile","rank_colombia","rank_costa_rica","rank_czech_republic","rank_denmark","rank_dominican_republic","rank_ecuador","rank_egypt","rank_el_salvador","rank_estonia","rank_finland","rank_france","rank_germany","rank_greece","rank_guatemala","rank_honduras","rank_hong_kong","rank_hungary","rank_iceland","rank_india","rank_indonesia","rank_ireland","rank_israel","rank_italy","rank_japan","rank_latvia","rank_lithuania","rank_luxembourg","rank_malaysia","rank_mexico","rank_morocco","rank_netherlands","rank_new_zealand","rank_nicaragua","rank_norway","rank_panama","rank_paraguay","rank_peru","rank_philippines","rank_poland","rank_portugal","rank_romania","rank_saudi_arabia","rank_singapore","rank_slovakia","rank_south_africa","rank_spain","rank_sweden","rank_switzerland","rank_taiwan","rank_thailand","rank_turkey","rank_united_arab_emirates","rank_united_kingdom","rank_united_states","rank_uruguay","rank_vietnam","af_danceability","af_energy","af_valence","af_tempo","af_acousticness","af_speechiness","af_instrumentalness","af_liveness","duration_ms","explicit","days_since_release","is_friday_release","track_in_viral50_at_obs","artist_prior_chart_count","artist_prior_unique_regions","artist_prior_best_rank","artist_prior_unique_tracks","multi_artist_flag","artist_country_ratio","artist_prior_success_in_target","target_population","target_avg_daily_streams","target_new_entry_rate_30d","target_continent_africa","target_continent_antarctica","target_continent_asia","target_continent_europe","target_continent_north_america","target_continent_oceania","target_continent_south_america","cultural_dist_min","cultural_dist_missing","same_language_flag","same_continent_flag","neighbor_entered_count","observation_month","observation_year"],"feature_types":["int","int","int","int","int","int","int","int","int","int","int","int","int","int","int","int","int","int","int","int","int","int","int","int","int","int","int","int","int","int","int","int","int","int","int","int","int","int","int","int","int","int","int","int","int","int","int","int","int","int","int","int","int","int","int","int","int","int","int","int","int","int","int","int","int","int","float","float","float","float","float","float","float","float","int","int","int","int","int","int","int","int","int","int","float","int","int","float","float","int","int","int","int","int","int","int","float","int","int","int","float","int","int"],"gradient_booster":{"model":{"cats":{"enc":[],"feature_segments":[],"sorted_idx":[]},"gbtree_model_param":{"num_parallel_tree":"1","num_trees":"240"},"iteration_indptr":[0,1,2,3,4,5,6,7,8,9,10,11,12,13,14,15,16,17,18,19,20,21,22,23,24,25,26,27,28,29,30,31,32,33,34,35,36,37,38,39,40,41,42,43,44,45,46,47,48,49,50,51,52,53,54,55,56,57,58,59,60,61,62,63,64,65,66,67,68,69,70,71,72,73,74,75,76,77,78,79,80,81,82,83,84,85,86,87,88,89,90,91,92,93,94,95,96,97,98,99,100,101,102,103,104,105,106,107,108,109,110,111,112,113,114,115,116,117,118,119,120,121,122,123,124,125,126,127,128,129,130,131,132,133,134,135,136,137,138,139,140,141,142,143,144,145,146,147,148,149,150,151,152,153,154,155,156,157,158,159,160,161,162,163,164,165,166,167,168,169,170,171,172,173,174,175,176,177,178,179,180,181,182,183,184,185,186,187,188,189,190,191,192,193,194,195,196,197,198,199,200,201,202,203,204,205,206,207,208,209,210,211,212,213,214,215,216,217,218,219,220,221,222,223,224,225,226,227,228,229,230,231,232,233,234,235,236,237,238,239,240],"tree_info":[0,0,0,0,0,0,0,0,0,0,0,0,0,0,0,0,0,0,0,0,0,0,0,0,0,0,0,0,0,0,0,0,0,0,0,0,0,0,0,0,0,0,0,0,0,0,0,0,0,0,0,0,0,0,0,0,0,0,0,0,0,0,0,0,0,0,0,0,0,0,0,0,0,0,0,0,0,0,0,0,0,0,0,0,0,0,0,0,0,0,0,0,0,0,0,0,0,0,0,0,0,0,0,0,0,0,0,0,0,0,0,0,0,0,0,0,0,0,0,0,0,0,0,0,0,0,0,0,0,0,0,0,0,0,0,0,0,0,0,0,0,0,0,0,0,0,0,0,0,0,0,0,0,0,0,0,0,0,0,0,0,0,0,0,0,0,0,0,0,0,0,0,0,0,0,0,0,0,0,0,0,0,0,0,0,0,0,0,0,0,0,0,0,0,0,0,0,0,0,0,0,0,0,0,0,0,0,0,0,0,0,0,0,0,0,0,0,0,0,0,0,0,0,0,0,0,0,0,0,0,0,0,0,0,0,0,0,0,0,0],"trees":[{"base_weights":[1.939144E-4,-3.827328E-1,3.4326085E-1,-5.4565805E-1,2.2703414E-1,-8.7640476E-1,4.3810487E-1,-3.8409862E-1,-7.8169346E-1,6.0320365E-1,-3.0212624E-2,-7.18001E-2,-2.382341E-1,2.7600127E-1,6.731295E-1,2.7713594E-1,-4.1808492E-1,-5.8554405E-1,-8.540651E-1,6.0501166E-2,4.424074E-1,-3.863867E-1,1.7108248E-1,7.952355E-3,-3.7951145E-1,4.413009E-1,-1.9549812E-1,8.872041E-1,3.9879832E-1,3.259285E-1,-2.6868584E-2,-6.5143876E-2,-3.834803E-1,-6.3411087E-1,-2.6703995E-2,-8.773034E-1,-6.154375E-1,2.7813342E-1,5.0092787E-2,-1.5005781E-1,-6.059217E-1,7.073361E-2,5.4794383E-1,-4.676698E-1,5.0122538E-3,-1.2642248E-1,4.7276422E-1,4.476272E-2,-4.2166573E-1,6.9860466E-2,5.2522693E-2,2.8623393E-1,7.265298E-1,-1.5754214E-2,3.6535886E-1,-3.2572523E-1,-6.4022326E-1,1.3380817E-3,-6.4477944E-1,-3.6783412E-1,1.6944808E-1,-8.9565367E-1,-6.029868E-1,-6.806358E-1,1.9977126E-2,3.5347176E-1,-3.3569578E-2,-2.138765E-1,2.10531E-2,-7.191189E-1,-9.850346E-3,1.3825506E-1,-3.5342735E-1,4.948517E-4,4.3720633E-2,-3.91399E-2,2.9845685E-3,-2.3654619E-1,3.5482142E-2,5.332069E-1,1.803835E-1,-3.549171E-2,4.5223907E-1,-4.737168E-1,1.8932593E-1,4.4869382E-2,4.0949112E-1,5.5455517E-2,2.5893483E-1,4.0014606E-2,2.072072E-1,-3.525662E-1,3.5468567E-2,-6.603296E-1,1.2679599E-2,-1.2449971E-1,-6.6025275E-1,-3.6279824E-2,2.0156652E-3,2.2224247E-2,-1.0076012E-1,-6.5582894E-2,-6.6085337E-3,-5.5454634E-2,-2.9703715E-1,-5.642382E-2,-2.4128982E-1,3.9298955E-1,-2.612746E-3,-4.2082843E-1,-3.1434983E-2,-7.393435E-1,-5.4553584E-3,1.5347221E-2,-2.4117456E-1,3.1526262E-1,2.907307E-2,1.8035725E-2,-3.538298E-2,-3.3660948E-1,2.0801513E-1,5.637124E-1,1.3981688E-1,5.8289677E-2,4.6207702E-1,1.20778486E-1,-1.6146338E-1,5.4356694E-1,-6.965996E-2,-5.420597E-1,-1.1318506E-1,2.9136708E-1,-2.269897E-2,1.3091297E-1,-3.080248E-1,4.999157E-2,2.6548582E-1,-1.9030507E-3,3.590004E-2,-4.693954E-2,4.4042486E-1,-3.289224E-1,-6.5382284E-1,-1.759851E-1,4.4787854E-2,-6.7592156E-1,1.4833442E-2,-2.2462085E-2,1.30033E-2,-6.7835844E-1,-1.7025298E-2,-2.297714E-2,1.2083354E-2,7.140995E-2,-4.8764428E-1,6.1183874E-2,-3.7456334E-2,-9.799948E-3,4.1915843E-1,-8.8624965E-4,-3.4480605E-2,-1.4093962E-2,7.344941E-2,-5.5588536E-2,-6.7100883E-3,-2.9373355E-2,1.0596961E-2,3.5073757E-1,-1.2343212E-2,-1.12518E-2,3.467575E-2,1.6465323E-2,-4.2052954E-1,2.4679443E-2,-1.3336982E-2,5.306231E-1,7.887046E-1,8.5579544E-2,4.0941343E-2,-1.595689E-2,4.2851713E-2,5.4246104E-1,-2.2501044E-1,2.1291856E-1,-1.8254876E-2,-2.510064E-1,1.5739712E-1,4.297645E-2,1.1367042E-3,-2.0846687E-2,1.2373164E-2,-6.2014693E-1,-1.8079978E-1,2.6776696E-2,-3.7721497E-1,2.6911728E-2,-9.746829E-3,2.2993773E-1,1.6687001E-3,-3.770179E-1,7.954682E-3,7.646495E-2,3.6648452E-1,1.8319948E-2,-1.15182195E-2,3.5963796E-2,-1.8224712E-3,-2.5399594E-2,1.2925183E-3,-5.3996697E-2,-4.022581E-3,9.562709E-3,-3.0183509E-2,-5.1557973E-2,-1.1985278E-2,-5.0455097E-2,-9.252651E-3,2.1865947E-2,-2.0838449E-2,-4.491326E-2,-9.799782E-4,-1.888821E-2,2.3354115E-2,2.0188732E-2,4.079935E-2,1.9387873E-2,-3.8821506E-3,3.681393E-2,1.76215E-2,6.7668394E-3,-1.626699E-2,-3.514539E-2,5.9626964E-3,2.6918173E-2,4.2623416E-2,5.9328724E-2,1.1511606E-2,-5.734924E-3,1.3042591E-2,6.7657917E-3,-1.1857771E-2,4.1828156E-2,-1.15779685E-2,-3.2206077E-2,6.336079E-3,1.8145667E-3,2.0632308E-2,-4.985474E-3,1.8438932E-2,-2.3442015E-2,1.1751618E-2,1.952822E-2,-1.3078889E-2,-3.1412162E-2,-5.5735335E-2,6.58306E-3,-2.2926213E-2,-3.1991962E-2,1.1687757E-2,2.134246E-3,2.3809548E-2,4.5358627E-3,-1.9435914E-2,-3.154983E-2,4.8661823E-3,2.2916948E-2,-5.4739583E-3,3.5490535E-2,8.780869E-3],"categories":[],"categories_nodes":[],"categories_segments":[],"categories_sizes":[],"default_left":[0,0,0,0,0,0,0,0,0,0,0,0,0,0,0,0,0,0,0,0,0,0,0,0,0,0,0,0,0,0,0,0,0,0,0,0,0,0,0,0,0,0,0,0,0,0,0,0,0,0,0,0,0,0,0,0,0,0,0,0,0,0,0,0,0,0,0,0,0,0,0,0,0,0,0,0,0,0,0,0,0,0,0,0,0,0,0,0,0,0,0,0,0,0,0,0,0,0,0,0,0,0,0,0,0,0,0,0,0,0,0,0,0,0,0,0,0,0,0,0,0,0,0,0,0,0,0,0,0,0,0,0,0,0,0,0,0,0,0,0,0,0,0,0,0,0,0,0,0,0,0,0,0,0,0,0,0,0,0,0,0,0,0,0,0,0,0,0,0,0,0,0,0,0,0,0,0,0,0,0,0,0,0,0,0,0,0,0,0,0,0,0,0,0,0,0,0,0,0,0,0,0,0,0,0,0,0,0,0,0,0,0,0,0,0,0,0,0,0,0,0,0,0,0,0,0,0,0,0,0,0,0,0,0,0,0,0,0,0,0,0,0,0,0,0,0,0,0,0,0,0,0,0,0,0,0,0,0,0,0,0,0,0,0,0,0,0,0,0],"id":0,"left_children":[1,3,5,7,9,11,13,15,17,19,21,-1,23,25,27,29,31,33,35,-1,37,39,41,-1,43,45,47,49,51,53,-1,-1,55,57,59,61,63,65,-1,67,69,71,73,75,-1,77,79,81,83,-1,-1,85,87,-1,89,91,93,-1,95,97,99,101,103,105,-1,107,-1,109,-1,111,113,115,117,-1,-1,-1,-1,119,-1,121,123,125,127,129,131,133,135,-1,137,-1,139,141,143,145,-1,147,149,-1,-1,-1,151,-1,-1,-1,153,-1,155,157,-1,159,161,163,-1,-1,165,167,169,-1,-1,171,173,175,177,179,181,183,185,187,189,191,193,195,-1,197,199,-1,201,-1,-1,203,205,207,209,211,-1,213,-1,-1,-1,215,-1,-1,-1,217,219,221,-1,-1,223,-1,-1,-1,225,-1,-1,-1,-1,227,-1,229,-1,-1,231,-1,-1,233,235,237,-1,239,-1,241,243,245,247,249,251,-1,-1,-1,-1,253,255,-1,257,-1,-1,259,261,263,-1,265,267,-1,-1,-1,-1,-1,-1,-1,-1,-1,-1,-1,-1,-1,-1,-1,-1,-1,-1,-1,-1,-1,-1,-1,-1,-1,-1,-1,-1,-1,-1,-1,-1,-1,-1,-1,-1,-1,-1,-1,-1,-1,-1,-1,-1,-1,-1,-1,-1,-1,-1,-1,-1,-1,-1,-1,-1,-1,-1,-1,-1,-1,-1,-1,-1,-1,-1],"loss_changes":[1.5409688E3,5.514794E2,7.18186E2,1.6493677E2,1.13659424E2,2.902179E1,2.1767078E2,5.9418274E1,2.1919678E1,1.4894165E1,5.0827793E1,0E0,3.836299E0,2.663971E2,1.3516467E2,4.9144382E0,3.8545868E1,1.341069E1,3.607544E0,0E0,1.04468E1,1.2684387E1,1.6904062E1,0E0,2.308124E0,4.5533478E1,4.847714E1,1.080542E1,3.6934097E1,3.1941223E0,0E0,0E0,3.316806E1,3.2646484E0,3.5201468E0,2.3031006E0,9.044861E0,1.134843E1,0E0,4.085353E0,8.7589035E0,1.0788418E1,2.5632992E0,1.7119341E0,0E0,1.00353565E1,4.1722656E1,1.4405632E1,1.5177597E1,0E0,0E0,2.3176117E1,2.7277832E0,0E0,2.7169914E0,1.8631638E1,7.62677E0,0E0,3.0977478E0,1.059581E0,1.4372835E0,1.4494019E0,2.9399948E0,3.958809E0,0E0,2.732998E0,0E0,4.3982415E0,0E0,1.0708809E0,1.7212523E0,6.12679E0,4.8671265E0,0E0,0E0,0E0,0E0,5.842561E0,0E0,2.3279236E1,1.42796335E1,7.436842E0,3.6974077E0,1.0070488E1,2.6603277E0,8.518627E0,1.9318954E1,0E0,1.8666861E0,0E0,4.5470934E0,1.1299835E1,1.758606E1,6.43425E0,0E0,1.516657E0,2.3515778E0,0E0,0E0,0E0,1.257606E0,0E0,0E0,0E0,3.1557145E0,0E0,2.792992E0,2.5223427E0,0E0,1.1179829E0,1.2794721E0,1.0348892E0,0E0,0E0,1.3948133E0,2.4699526E0,3.720871E0,0E0,0E0,5.3945036E0,1.7313914E0,1.0973389E1,3.1414309E0,1.1853803E1,7.7562523E0,2.195942E0,6.2053633E0,1.418356E0,1.1649417E0,9.300858E0,1.0506023E1,1.5333993E0,0E0,2.8539226E0,1.8546343E0,0E0,6.5048656E0,0E0,0E0,1.6238419E0,1.034019E0,1.0916931E1,6.0385857E0,8.085802E0,0E0,5.4883423E0,0E0,0E0,0E0,2.2896423E0,0E0,0E0,0E0,2.1682303E0,1.6566839E0,2.24616E0,0E0,0E0,1.9998798E0,0E0,0E0,0E0,1.2384334E0,0E0,0E0,0E0,0E0,1.147954E0,0E0,4.4050155E0,0E0,0E0,3.010417E0,0E0,0E0,1.2530884E1,2.48526E0,2.251989E0,0E0,4.387334E0,0E0,3.0217247E0,1.4447029E0,1.2948565E0,1.1063901E0,5.09433E0,2.147529E0,0E0,0E0,0E0,0E0,5.746002E0,2.7902606E0,0E0,2.156549E0,0E0,0E0,2.3738847E0,1.7792162E0,1.3771887E0,0E0,4.8283243E0,6.286268E0,0E0,0E0,0E0,0E0,0E0,0E0,0E0,0E0,0E0,0E0,0E0,0E0,0E0,0E0,0E0,0E0,0E0,0E0,0E0,0E0,0E0,0E0,0E0,0E0,0E0,0E0,0E0,0E0,0E0,0E0,0E0,0E0,0E0,0E0,0E0,0E0,0E0,0E0,0E0,0E0,0E0,0E0,0E0,0E0,0E0,0E0,0E0,0E0,0E0,0E0,0E0,0E0,0E0,0E0,0E0,0E0,0E0,0E0,0E0,0E0,0E0,0E0,0E0,0E0,0E0,0E0],"parents":[2147483647,0,0,1,1,2,2,3,3,4,4,5,5,6,6,7,7,8,8,9,9,10,10,12,12,13,13,14,14,15,15,16,16,17,17,18,18,20,20,21,21,22,22,24,24,25,25,26,26,27,27,28,28,29,29,32,32,33,33,34,34,35,35,36,36,37,37,39,39,40,40,41,41,42,42,43,43,45,45,46,46,47,47,48,48,51,51,52,52,54,54,55,55,56,56,58,58,59,59,60,60,61,61,62,62,63,63,65,65,67,67,69,69,70,70,71,71,72,72,77,77,79,79,80,80,81,81,82,82,83,83,84,84,85,85,86,86,88,88,90,90,91,91,92,92,93,93,95,95,96,96,100,100,104,104,106,106,107,107,109,109,110,110,111,111,114,114,115,115,116,116,119,119,120,120,121,121,122,122,123,123,124,124,125,125,126,126,127,127,128,128,129,129,130,130,131,131,133,133,134,134,136,136,139,139,140,140,141,141,142,142,143,143,145,145,149,149,153,153,154,154,155,155,158,158,162,162,167,167,169,169,172,172,175,175,176,176,177,177,179,179,181,181,182,182,183,183,184,184,185,185,186,186,191,191,192,192,194,194,197,197,198,198,199,199,201,201,202,202],"right_children":[2,4,6,8,10,12,14,16,18,20,22,-1,24,26,28,30,32,34,36,-1,38,40,42,-1,44,46,48,50,52,54,-1,-1,56,58,60,62,64,66,-1,68,70,72,74,76,-1,78,80,82,84,-1,-1,86,88,-1,90,92,94,-1,96,98,100,102,104,106,-1,108,-1,110,-1,112,114,116,118,-1,-1,-1,-1,120,-1,122,124,126,128,130,132,134,136,-1,138,-1,140,142,144,146,-1,148,150,-1,-1,-1,152,-1,-1,-1,154,-1,156,158,-1,160,162,164,-1,-1,166,168,170,-1,-1,172,174,176,178,180,182,184,186,188,190,192,194,196,-1,198,200,-1,202,-1,-1,204,206,208,210,212,-1,214,-1,-1,-1,216,-1,-1,-1,218,220,222,-1,-1,224,-1,-1,-1,226,-1,-1,-1,-1,228,-1,230,-1,-1,232,-1,-1,234,236,238,-1,240,-1,242,244,246,248,250,252,-1,-1,-1,-1,254,256,-1,258,-1,-1,260,262,264,-1,266,268,-1,-1,-1,-1,-1,-1,-1,-1,-1,-1,-1,-1,-1,-1,-1,-1,-1,-1,-1,-1,-1,-1,-1,-1,-1,-1,-1,-1,-1,-1,-1,-1,-1,-1,-1,-1,-1,-1,-1,-1,-1,-1,-1,-1,-1,-1,-1,-1,-1,-1,-1,-1,-1,-1,-1,-1,-1,-1,-1,-1,-1,-1,-1,-1,-1,-1],"split_conditions":[1E0,1E0,6.32275E5,2E0,3.8E1,3.66425E5,1E0,7.7265E4,1.83E2,1.3E1,3E0,-7.18001E-2,5.9E-1,2E0,3.2E1,2.8E1,1.901548E6,1E0,2.3E1,6.0501166E-2,3E0,7.234E3,1E0,7.952355E-3,2.3E1,3.473727E6,4.79E2,1.4E1,1E0,4.44E-1,-2.6868584E-2,-6.5143876E-2,6.739158E7,2.96E-1,4.8E1,1E0,1E0,7.854E3,5.0092787E-2,1E0,1E0,7E0,3.24E-2,1E0,5.0122538E-3,1E0,4.735157E7,1E0,3E0,6.9860466E-2,5.2522693E-2,3E0,1.2893275E8,-1.5754214E-2,2.018E3,6.2E1,7.3E1,1.3380817E-3,7.7265E4,7E0,2.02E3,8.6E1,2.02E3,1E0,1.9977126E-2,6.739158E7,-3.3569578E-2,6.66E-1,2.10531E-2,1.78E2,3.691056E7,5.6E1,7.7265E4,4.948517E-4,4.3720633E-2,-3.91399E-2,2.9845685E-3,1E0,3.5482142E-2,6E0,1E0,5.3E1,1.7E1,1E0,1.1E1,5.8E1,5.3E1,5.5455517E-2,1E0,4.0014606E-2,1.51E-1,1E0,1E0,5E1,1.2679599E-2,1.09E2,1.16E2,-3.6279824E-2,2.0156652E-3,2.2224247E-2,1.32987E2,-6.5582894E-2,-6.6085337E-3,-5.5454634E-2,3.79508E7,-5.642382E-2,3.691056E7,3.15E-1,-2.612746E-3,8.72E2,4.71E-1,1E0,-5.4553584E-3,1.5347221E-2,1.35E2,2.7E1,1E0,1.8035725E-2,-3.538298E-2,9.91E-3,1.1E2,1E0,1E0,1.18E2,3.2948413E8,6.92E-2,1E0,1.2893275E8,3.5E1,1E0,1.4E1,3.1E1,-2.269897E-2,4.877E3,1.2E1,4.999157E-2,7E0,-1.9030507E-3,3.590004E-2,2.78E-1,9E0,4E1,1E0,1.1673029E7,4.4787854E-2,1.8E1,1.4833442E-2,-2.2462085E-2,1.30033E-2,1.76E2,-1.7025298E-2,-2.297714E-2,1.2083354E-2,5E0,1.9E1,2.02E3,-3.7456334E-2,-9.799948E-3,2.568704E7,-8.8624965E-4,-3.4480605E-2,-1.4093962E-2,7.29E-1,-5.5588536E-2,-6.7100883E-3,-2.9373355E-2,1.0596961E-2,4.6E1,-1.2343212E-2,4.5376764E7,3.467575E-2,1.6465323E-2,6.63E-1,2.4679443E-2,-1.3336982E-2,7.13253E6,1E0,7.13253E6,4.0941343E-2,9.1E-2,4.2851713E-2,1E0,2.019E3,7.5007E6,1E0,1E0,2.1E1,4.297645E-2,1.1367042E-3,-2.0846687E-2,1.2373164E-2,1.607E3,3.049E3,2.6776696E-2,1E0,2.6911728E-2,-9.746829E-3,2.018E3,5.2E1,1.7E1,7.954682E-3,1.2137E4,4E0,1.8319948E-2,-1.15182195E-2,3.5963796E-2,-1.8224712E-3,-2.5399594E-2,1.2925183E-3,-5.3996697E-2,-4.022581E-3,9.562709E-3,-3.0183509E-2,-5.1557973E-2,-1.1985278E-2,-5.0455097E-2,-9.252651E-3,2.1865947E-2,-2.0838449E-2,-4.491326E-2,-9.799782E-4,-1.888821E-2,2.3354115E-2,2.0188732E-2,4.079935E-2,1.9387873E-2,-3.8821506E-3,3.681393E-2,1.76215E-2,6.7668394E-3,-1.626699E-2,-3.514539E-2,5.9626964E-3,2.6918173E-2,4.2623416E-2,5.9328724E-2,1.1511606E-2,-5.734924E-3,1.3042591E-2,6.7657917E-3,-1.1857771E-2,4.1828156E-2,-1.15779685E-2,-3.2206077E-2,6.336079E-3,1.8145667E-3,2.0632308E-2,-4.985474E-3,1.8438932E-2,-2.3442015E-2,1.1751618E-2,1.952822E-2,-1.3078889E-2,-3.1412162E-2,-5.5735335E-2,6.58306E-3,-2.2926213E-2,-3.1991962E-2,1.1687757E-2,2.134246E-3,2.3809548E-2,4.5358627E-3,-1.9435914E-2,-3.154983E-2,4.8661823E-3,2.2916948E-2,-5.4739583E-3,3.5490535E-2,8.780869E-3],"split_indices":[99,85,86,80,80,86,85,86,79,80,85,0,66,80,80,10,86,94,8,0,85,79,94,0,22,86,79,80,91,66,0,0,86,66,81,89,94,79,0,94,91,52,71,8,0,34,86,91,39,0,0,85,86,0,102,8,51,0,86,80,102,34,102,91,0,86,0,66,0,8,86,80,86,0,0,0,0,4,0,8,91,79,80,91,101,80,80,0,59,0,71,21,94,61,0,81,2,0,0,0,69,0,0,0,86,0,86,66,0,79,68,94,0,0,8,59,89,0,0,70,48,91,94,3,86,71,3,86,2,11,80,8,0,79,101,0,85,0,0,68,101,12,94,86,0,2,0,0,0,79,0,0,0,80,81,102,0,0,86,0,0,0,66,0,0,0,0,80,0,86,0,0,70,0,0,86,12,86,0,71,0,15,102,86,2,78,48,0,0,0,0,79,79,0,28,0,0,102,54,5,0,79,37,0,0,0,0,0,0,0,0,0,0,0,0,0,0,0,0,0,0,0,0,0,0,0,0,0,0,0,0,0,0,0,0,0,0,0,0,0,0,0,0,0,0,0,0,0,0,0,0,0,0,0,0,0,0,0,0,0,0,0,0,0,0,0,0,0,0],"split_type":[0,0,0,0,0,0,0,0,0,0,0,0,0,0,0,0,0,0,0,0,0,0,0,0,0,0,0,0,0,0,0,0,0,0,0,0,0,0,0,0,0,0,0,0,0,0,0,0,0,0,0,0,0,0,0,0,0,0,0,0,0,0,0,0,0,0,0,0,0,0,0,0,0,0,0,0,0,0,0,0,0,0,0,0,0,0,0,0,0,0,0,0,0,0,0,0,0,0,0,0,0,0,0,0,0,0,0,0,0,0,0,0,0,0,0,0,0,0,0,0,0,0,0,0,0,0,0,0,0,0,0,0,0,0,0,0,0,0,0,0,0,0,0,0,0,0,0,0,0,0,0,0,0,0,0,0,0,0,0,0,0,0,0,0,0,0,0,0,0,0,0,0,0,0,0,0,0,0,0,0,0,0,0,0,0,0,0,0,0,0,0,0,0,0,0,0,0,0,0,0,0,0,0,0,0,0,0,0,0,0,0,0,0,0,0,0,0,0,0,0,0,0,0,0,0,0,0,0,0,0,0,0,0,0,0,0,0,0,0,0,0,0,0,0,0,0,0,0,0,0,0,0,0,0,0,0,0,0,0,0,0,0,0,0,0,0,0,0,0],"sum_hessian":[1.1717101E4,5.53654E3,6.18056E3,4.3696753E3,1.166865E3,4.420921E2,5.738468E3,2.604181E3,1.7654943E3,4.703619E2,6.965031E2,3.7578156E2,6.631055E1,3.4044077E3,2.3340603E3,1.2504486E2,2.479136E3,4.9168167E2,1.2738126E3,1.8476816E2,2.8559375E2,2.4935136E2,4.4715176E2,1.9610342E1,4.6700207E1,2.521002E3,8.8340576E2,1.3028953E3,1.031165E3,1.1922564E2,5.8192225E0,1.5781786E2,2.321318E3,4.5156635E2,4.011531E1,1.1449985E3,1.28814E2,1.7880278E2,1.0679097E2,1.25326454E2,1.240249E2,3.5919E2,8.796174E1,3.8788128E1,7.9120755E0,1.313528E2,2.3896492E3,4.3087186E2,4.525339E2,9.0095917E2,4.0193607E2,7.7656E2,2.54605E2,6.128313E0,1.1309733E2,1.9070048E3,4.143133E2,7.19045E0,4.4437592E2,1.2578969E1,2.7536343E1,1.059476E3,8.5522606E1,1.2142427E2,7.3897285E0,1.652926E2,1.3510187E1,1.1228907E2,1.3037382E1,1.0310872E2,2.0916183E1,3.1362436E2,4.5565647E1,8.159457E0,7.9802284E1,3.3892906E1,4.8952236E0,1.1469203E2,1.6660769E1,1.9758605E3,4.1378873E2,3.649058E2,6.596605E1,4.1834766E2,3.4186245E1,2.6549176E2,5.1106827E2,2.341636E2,2.044139E1,4.5105007E1,6.7992325E1,1.7752383E3,1.3176646E2,4.0551477E2,8.798525E0,1.4524142E1,4.2985178E2,8.237116E0,4.3418527E0,1.7825386E1,9.710957E0,1.0557135E3,3.762526E0,5.0262787E1,3.5259823E1,9.635994E1,2.506433E1,1.5000185E2,1.5290748E1,4.8650826E1,6.363825E1,9.904743E1,4.0612884E0,1.1024345E1,9.891837E0,1.1499092E2,1.9863344E2,7.138117E0,3.8427532E1,9.490193E1,1.97901E1,1.8310691E3,1.447914E2,2.9411658E2,1.1967214E2,1.6298529E2,2.0192052E2,5.591338E1,1.0052669E1,3.4894452E2,6.9403145E1,3.0635363E1,3.5508847E0,2.1671925E2,4.87725E1,1.6730766E2,3.437606E2,1.1766925E1,8.674464E0,3.5008007E1,3.2984318E1,1.6585946E3,1.1664376E2,9.9754814E1,3.2011658E1,3.9970148E2,5.813285E0,8.982585E0,5.5415573E0,4.08723E2,2.1128784E1,4.7333107E0,4.977646E0,1.3400441E1,2.1859383E1,1.4227295E1,1.0837034E1,5.8313494E0,1.441705E2,6.315346E0,4.233548E1,2.2914923E1,4.0723328E1,9.472715E1,4.320278E0,6.793911E0,3.0979257E0,1.0880396E2,6.1869516E0,1.8793417E2,1.0699274E1,1.0911906E1,8.399003E1,1.5506747E1,4.283354E0,1.6152388E3,2.1583032E2,1.3515254E2,9.638854E0,2.6338242E2,3.0734173E1,1.0835674E2,1.1315398E1,9.595673E1,6.702856E1,1.5872398E2,4.3196526E1,5.085228E1,5.061099E0,4.624885E0,5.427784E0,2.8311374E2,6.583078E1,2.3742867E1,4.5660275E1,2.6655432E1,3.9799306E0,1.1985148E2,9.6867775E1,4.2379303E1,6.393196E0,1.23671745E2,2.2008884E2,7.27399E0,2.7734016E1,2.933211E1,3.6522074E0,1.5730438E3,8.555081E1,1.00740456E2,1.5903303E1,4.4759186E1,5.4995625E1,3.752496E2,2.4451872E1,3.980944E2,1.0628603E1,8.810054E0,4.590388E0,1.5720027E1,6.1393547E0,6.3600683E0,7.8672266E0,8.078071E1,6.3389793E1,1.3363593E1,2.7359734E1,3.5612167E1,7.31918E1,1.2845459E2,5.9479576E1,7.517656E1,8.813467E0,4.1058417E2,1.2046545E3,2.0625374E2,9.576583E0,4.9251198E1,8.5901344E1,1.5257892E2,1.10803505E2,1.0500949E2,3.3472514E0,5.1016893E0,6.2137094E0,2.8283117E1,6.7673615E1,6.0660774E1,6.3677816E0,1.3690067E2,2.1823328E1,3.3556454E1,9.640072E0,1.3267513E2,1.5043861E2,2.237441E1,4.3456367E1,4.2090206E1,3.5700703E0,4.1524044E1,7.832743E1,8.308444E1,1.3783328E1,3.7859554E1,4.519749E0,4.5470753E1,7.8201E1,1.4396356E2,7.612528E1],"tree_param":{"num_deleted":"0","num_feature":"103","num_nodes":"269","size_leaf_vector":"1"}},{"base_weights":[-6.2963384E-4,-3.4480697E-1,5.380436E-1,-5.063296E-1,7.457835E-2,6.058779E-1,2.3726143E-1,-4.0324536E-1,-7.114945E-1,6.3966817E-1,-3.0513374E-2,6.464137E-1,3.5029534E-1,3.1541914E-1,-5.698184E-2,-4.4958696E-1,-2.5441399E-2,-7.213004E-1,3.0629116E-1,8.483097E-1,5.422382E-1,-1.0896188E-1,1.8617827E-1,5.8427006E-1,7.9076034E-1,3.9540377E-1,-5.936885E-1,3.4284917E-1,-6.908433E-1,-5.431441E-1,1.1560991E-2,1.460828E-1,-4.7376144E-1,7.398138E-2,-5.120165E-1,-6.0488886E-1,-7.659974E-1,5.0371814E-1,-2.4751297E-1,-2.9313313E-2,8.840473E-1,4.101742E-1,6.7074645E-1,-3.3196308E-2,-4.4777027E-1,3.5026914E-1,6.096568E-2,6.265534E-1,4.6193677E-1,-4.936313E-2,7.984575E-1,2.6134145E-1,5.5948013E-1,-7.593476E-2,-6.9126266E-1,3.112639E-1,8.453058E-1,-7.5029325E-1,1.1290411E-2,-6.7685634E-1,4.1090306E-2,3.0702144E-1,-8.129347E-2,-6.76966E-2,8.874304E-1,-4.3934917E-1,-7.4647844E-1,2.018329E-1,-1.855624E-1,-7.455381E-1,3.61024E-1,-7.17186E-1,-4.9239483E-1,-4.3824732E-1,-7.83254E-1,6.2715393E-1,-1.3947878E-2,-2.7851226E-2,4.367361E-3,2.3166005E-2,-3.3783004E-2,6.5306254E-2,-1.8863258E-3,4.9599972E-1,-4.8755077E-1,6.889264E-1,-2.6790516E-2,9.291639E-2,-1.6151291E-1,-5.017739E-1,5.1831104E-2,2.6223907E-1,6.644538E-1,-8.212593E-2,3.010165E-1,5.854708E-1,7.862458E-1,3.5229522E-1,6.0638547E-1,8.293041E-1,5.818357E-1,1.3807586E-1,5.3204495E-1,5.873323E-1,-3.7343234E-1,-3.0898753E-1,2.3553537E-2,-5.325429E-2,-2.914636E-3,3.9068112E-1,7.813626E-2,6.490699E-2,-1.7146472E-2,-5.7122923E-2,-4.377377E-3,-7.29247E-1,3.4797503E-4,3.4664832E-2,-2.488314E-2,3.7978554E-1,-3.2425866E-1,-7.0089255E-3,-4.9409658E-1,2.040987E-1,-7.074872E-1,6.7408584E-2,-5.5357167E-3,-4.1734132E-1,-8.331638E-1,-8.0611527E-1,-1.4251322E-1,-6.767392E-1,2.67143E-1,-3.4614158E-1,3.8171417E-1,-7.779973E-1,8.470528E-3,4.8694623E-1,-2.384393E-2,-7.402596E-1,-1.1364124E-1,-5.3447133E-1,-1.4250243E-2,6.04238E-2,-7.8701395E-1,-8.0843395E-1,-6.15338E-1,5.084182E-2,-2.8221854E-3,5.463095E-1,-3.2805538E-1,-4.490592E-2,1.564781E-2,7.2954804E-1,4.1555777E-1,-2.6004415E-2,2.2862963E-1,-3.1356847E-1,8.7148386E-5,-6.2257093E-1,-3.4998843E-1,2.9316023E-1,-2.3622862E-1,-2.8129807E-1,3.180622E-1,7.055195E-1,-2.5926689E-2,3.5835076E-2,-3.7810776E-1,3.974494E-1,3.9347496E-2,6.253631E-1,2.530626E-1,6.5019555E-2,7.0167977E-1,4.9189427E-1,1.66036E-1,6.600119E-1,3.8440138E-1,4.8942026E-1,8.4854275E-1,-6.858442E-2,6.561556E-1,-2.9664727E-2,3.680659E-1,5.5944675E-1,-2.3458311E-2,6.471126E-1,2.5665432E-1,1.4114068E-2,-4.14388E-2,9.997596E-3,-3.5970498E-2,4.371858E-1,-1.4507827E-1,1.8702136E-1,-2.224836E-1,-9.055668E-3,-5.6425538E-2,4.8922306E-1,-1.14349686E-1,-3.6564156E-2,1.0175327E-2,1.2292563E-1,-2.1754383E-1,-6.265346E-1,1.0738487E-1,3.6542654E-1,-2.8855863E-1,-8.051886E-1,2.9317373E-2,-4.0133706E-1,-8.319211E-1,-8.511394E-1,2.3839183E-2,-6.509138E-1,-9.1511935E-1,-2.8055793E-1,4.878009E-2,-5.5862587E-2,1.9374061E-2,-3.2671297E-1,3.33556E-1,-4.7018948E-1,1.7600842E-1,4.472879E-1,-1.7291028E-2,-5.762461E-2,-4.217061E-3,5.9071016E-1,-2.068382E-2,-7.6978457E-1,-3.6637366E-1,-3.7952453E-1,2.5359648E-1,-5.756037E-1,-1.7639875E-1,1.329297E-1,-2.6719788E-2,-7.046934E-2,3.976101E-2,-6.493187E-2,6.5658223E-3,-8.107798E-1,1.0973642E-1,-6.9533443E-1,-4.02057E-1,5.613197E-1,-2.5935588E-2,-3.7851144E-2,1.9436713E-2,5.3833414E-2,2.7107694E-3,-2.8839884E-2,5.344864E-1,1.586495E-1,-1.4408626E-1,4.510041E-1,1.20319724E-1,-2.4613443E-1,-6.850822E-1,1.2684336E-1,-1.294544E-1,-3.3085266E-1,-6.870877E-1,-2.826053E-1,-7.0951897E-1,-1.5147144E-1,3.991441E-2,-4.6823263E-1,1.4274089E-1,1.9280147E-2,-4.0076452E-1,3.875271E-1,-1.4404322E-1,7.593843E-1,9.304675E-2,-1.6934769E-1,1.2792562E-1,-4.581289E-1,3.778653E-1,4.4763684E-1,4.0369295E-2,-2.0870106E-1,3.4063196E-1,6.2844163E-1,-4.129186E-2,3.4931126E-1,-1.0684249E-2,7.097832E-1,-5.848191E-2,1.5266845E-1,5.409947E-1,2.4429011E-1,-1.22752465E-1,6.778719E-1,1.0870825E-1,-1.7304224E-1,4.3591544E-1,-4.7496474E-1,6.3738924E-1,8.539753E-1,7.112243E-2,-3.5086915E-2,1.6652638E-1,6.754815E-1,-3.1298697E-2,8.46277E-2,-5.070815E-1,5.92542E-2,2.3288372E-1,5.961151E-1,-1.4862026E-3,6.820693E-1,4.194837E-2,-2.2546373E-1,5.717756E-1,-2.5642207E-1,4.751806E-1,-3.478552E-1,3.933655E-1,5.408428E-2,3.739272E-1,-4.5824823E-1,4.848196E-2,5.662779E-1,-2.1340822E-1,-3.2639295E-1,2.793386E-2,2.4333835E-1,-1.5723437E-1,-4.341762E-1,2.8218076E-2,-6.9006693E-1,-1.4703804E-4,2.6813434E-2,-2.0703135E-2,2.9741392E-2,-3.4320246E-2,-3.443612E-2,4.044925E-2,-6.1295364E-2,6.4259525E-3,-4.9055465E-2,-2.7514292E-2,-6.1874136E-2,-1.5411954E-2,-6.7387745E-2,-4.2272232E-2,-5.7445876E-2,-1.0646588E-2,-6.721967E-2,-1.5146628E-2,-3.246525E-2,3.0709265E-2,-3.2201796E-3,-5.4843787E-2,1.7839564E-2,5.0407246E-2,-4.4917963E-3,-4.140856E-2,2.1741739E-2,-2.6348285E-2,3.685837E-2,-2.0812534E-2,-7.8045353E-3,5.126663E-2,-5.6637205E-2,3.059228E-3,-4.142305E-2,2.4811944E-3,-3.9820474E-2,5.7226033E-3,3.0932473E-2,-7.5291027E-3,-4.6758674E-2,-2.3087243E-2,-2.6040511E-2,3.278592E-2,-2.558757E-2,2.5066288E-2,3.0986972E-2,-1.9298228E-2,-5.980049E-2,-3.3714637E-2,-1.9789012E-2,2.603795E-2,-5.4287672E-2,-4.17081E-3,-5.7785153E-2,-2.0566234E-2,4.5535754E-2,2.1180367E-2,4.6308216E-2,2.913489E-3,-1.2725846E-2,1.5448475E-2,-1.619333E-2,1.3966725E-2,3.7472744E-2,6.671476E-4,1.55505E-2,-7.33028E-3,-2.0437483E-2,1.5433007E-2,-5.6733266E-2,-1.15528535E-2,2.6040722E-3,2.8537638E-2,-1.2628292E-2,4.165369E-2,-5.2166637E-3,-4.151215E-2,-5.274969E-2,-6.1165765E-3,-2.3836924E-2,1.1939925E-2,-5.863786E-2,1.3618289E-2,1.4672393E-2,-2.36779E-2,4.039514E-3,-4.1266814E-2,2.7747978E-2,-1.2473291E-2,-3.499737E-2,1.0240934E-2,2.9539116E-2,-2.723089E-2,-2.9332034E-2,1.9493086E-2,5.799995E-2,1.6795527E-2,-1.3024489E-2,1.8085798E-2,-4.9253074E-3,-3.7151705E-2,1.3003822E-2,-3.3955723E-2,-4.2721074E-2,2.6439095E-3,4.200866E-2,-1.4261993E-2,1.6777083E-2,4.1888833E-2,-4.4179887E-2,4.195357E-2,-2.3596201E-2,1.4172168E-2,3.4904346E-2,-3.0247923E-2,4.6589017E-2,1.2365883E-2,-7.368462E-3,2.7502637E-2,-9.7106965E-3,3.1455964E-2,5.280584E-2,1.5596092E-2,-2.7808018E-2,2.3963774E-2,2.124265E-2,-2.6492747E-2,1.3045057E-2,4.3609023E-2,1.3523391E-2,4.3344714E-2,-2.2021431E-2,2.2715867E-2,4.9981624E-2,-1.5015658E-2,3.0836208E-2,-1.9537747E-2,-2.86398E-2,2.3752091E-2,3.563965E-2,-1.0714234E-2,-4.8187558E-2,2.3735216E-2,5.4475468E-2,1.4223215E-2,6.2477294E-2,-4.818318E-3,2.4480974E-2,-1.4034197E-2,-3.0106803E-2,3.0996516E-2,5.0585885E-2,-1.956213E-2,1.45880245E-2,-1.6614309E-2,-4.516051E-2,-1.4894629E-2,-1.22209275E-2,2.5710506E-2,4.5976177E-2,-5.931738E-4,3.3993103E-2,-2.4370989E-2,5.1097624E-2,-2.562483E-3,-2.2035817E-2,2.9747719E-2,-2.9828038E-2,1.2721846E-2,1.0951737E-2,5.3817015E-2,-3.1491857E-2,2.904603E-2,2.8568024E-2,4.375741E-2,-3.633211E-2,1.1264341E-2,4.064205E-2,-1.246843E-2,-9.049657E-3,2.4452634E-2,-2.39282E-2,3.360312E-2,-3.664872E-2,6.298481E-3,-1.2703135E-2,3.532011E-2,4.441739E-2,-0E0,1.6208231E-2,-3.2361757E-2,-3.299141E-2,1.1680341E-2,7.2595864E-3,3.5111602E-2,-2.6985688E-2,9.022508E-3,1.3961267E-2,-4.004703E-2,-2.5219597E-2,1.9228712E-2,-5.510898E-2,-8.421629E-4],"categories":[],"categories_nodes":[],"categories_segments":[],"categories_sizes":[],"default_left":[0,0,0,0,0,0,0,0,0,0,0,0,0,0,0,0,0,0,0,0,0,0,0,0,0,0,0,0,0,0,0,0,0,0,0,0,0,0,0,0,0,0,0,0,0,0,0,0,0,0,0,0,0,0,0,0,0,0,0,0,0,0,0,0,0,0,0,0,0,0,0,0,0,0,0,0,0,0,0,0,0,0,0,0,0,0,0,0,0,0,0,0,0,0,0,0,0,0,0,0,0,0,0,0,0,0,0,0,0,0,0,0,0,0,0,0,0,0,0,0,0,0,0,0,0,0,0,0,0,0,0,0,0,0,0,0,0,0,0,0,0,0,0,0,0,0,0,0,0,0,0,0,0,0,0,0,0,0,0,0,0,0,0,0,0,0,0,0,0,0,0,0,0,0,0,0,0,0,0,0,0,0,0,0,0,0,0,0,0,0,0,0,0,0,0,0,0,0,0,0,0,0,0,0,0,0,0,0,0,0,0,0,0,0,0,0,0,0,0,0,0,0,0,0,0,0,0,0,0,0,0,0,0,0,0,0,0,0,0,0,0,0,0,0,0,0,0,0,0,0,0,0,0,0,0,0,0,0,0,0,0,0,0,0,0,0,0,0,0,0,0,0,0,0,0,0,0,0,0,0,0,0,0,0,0,0,0,0,0,0,0,0,0,0,0,0,0,0,0,0,0,0,0,0,0,0,0,0,0,0,0,0,0,0,0,0,0,0,0,0,0,0,0,0,0,0,0,0,0,0,0,0,0,0,0,0,0,0,0,0,0,0,0,0,0,0,0,0,0,0,0,0,0,0,0,0,0,0,0,0,0,0,0,0,0,0,0,0,0,0,0,0,0,0,0,0,0,0,0,0,0,0,0,0,0,0,0,0,0,0,0,0,0,0,0,0,0,0,0,0,0,0,0,0,0,0,0,0,0,0,0,0,0,0,0,0,0,0,0,0,0,0,0,0,0,0,0,0,0,0,0,0,0,0,0,0,0,0,0,0,0,0,0,0,0,0,0,0,0,0,0,0,0,0,0,0,0,0,0,0,0,0,0,0,0,0,0,0,0,0,0,0,0,0,0,0,0,0,0,0,0,0,0,0,0,0,0,0,0,0,0,0,0,0,0,0,0,0,0,0,0,0,0,0,0,0,0,0,0,0,0,0,0,0,0,0,0,0,0,0,0,0,0,0,0,0,0,0,0,0,0,0,0,0,0,0,0,0,0],"id":1,"left_children":[1,3,5,7,9,11,13,15,17,19,21,23,25,27,29,31,33,35,37,39,41,43,45,47,49,51,53,55,57,59,61,63,65,67,69,71,73,75,77,79,81,83,85,87,89,91,93,95,97,-1,99,101,103,105,107,109,111,113,-1,115,117,119,121,123,125,127,129,131,133,135,137,139,141,143,145,147,-1,-1,-1,-1,-1,-1,-1,149,151,153,-1,155,157,159,161,163,165,167,169,171,173,175,177,179,181,183,185,187,189,191,-1,-1,-1,193,195,-1,-1,-1,-1,197,-1,-1,-1,199,201,203,205,207,209,-1,-1,211,213,215,217,219,221,223,225,227,-1,229,-1,231,233,235,237,239,241,243,245,-1,-1,247,249,-1,-1,251,253,255,257,259,261,263,265,267,269,271,273,275,-1,277,279,281,283,285,287,-1,289,291,293,295,297,299,301,303,305,307,309,311,-1,313,315,-1,-1,-1,-1,317,319,321,323,-1,-1,325,327,-1,-1,329,331,333,335,337,339,341,-1,343,345,347,-1,349,351,353,-1,-1,-1,355,357,359,361,363,-1,-1,-1,365,-1,367,369,371,373,375,377,379,-1,381,-1,-1,-1,383,385,387,389,391,-1,-1,-1,-1,-1,-1,393,395,397,399,401,403,405,407,409,411,413,415,417,419,-1,421,423,-1,425,427,429,431,433,435,437,439,441,443,445,447,449,451,-1,453,455,457,459,461,463,465,467,469,471,473,475,477,479,481,483,-1,485,487,-1,489,491,-1,493,495,497,499,501,503,505,507,509,511,513,515,517,519,521,523,525,527,-1,529,531,533,535,537,-1,-1,-1,-1,-1,-1,-1,-1,-1,-1,-1,-1,-1,-1,-1,-1,-1,-1,-1,-1,-1,-1,-1,-1,-1,-1,-1,-1,-1,-1,-1,-1,-1,-1,-1,-1,-1,-1,-1,-1,-1,-1,-1,-1,-1,-1,-1,-1,-1,-1,-1,-1,-1,-1,-1,-1,-1,-1,-1,-1,-1,-1,-1,-1,-1,-1,-1,-1,-1,-1,-1,-1,-1,-1,-1,-1,-1,-1,-1,-1,-1,-1,-1,-1,-1,-1,-1,-1,-1,-1,-1,-1,-1,-1,-1,-1,-1,-1,-1,-1,-1,-1,-1,-1,-1,-1,-1,-1,-1,-1,-1,-1,-1,-1,-1,-1,-1,-1,-1,-1,-1,-1,-1,-1,-1,-1,-1,-1,-1,-1,-1,-1,-1,-1,-1,-1,-1,-1,-1,-1,-1,-1,-1,-1,-1,-1,-1,-1,-1,-1,-1,-1,-1,-1,-1,-1,-1,-1,-1,-1,-1,-1,-1,-1,-1,-1,-1,-1,-1,-1,-1,-1,-1,-1,-1,-1,-1,-1,-1,-1,-1,-1,-1,-1,-1,-1,-1,-1,-1,-1,-1,-1,-1,-1,-1,-1,-1,-1,-1,-1,-1,-1,-1,-1,-1],"loss_changes":[8.120007E3,1.8104729E3,3.4744336E2,4.061875E2,4.417255E2,1.4283496E2,7.26205E1,2.2501514E2,6.573828E1,2.0734283E1,1.06820625E2,1.0477832E2,8.330661E1,7.031642E1,2.2272223E1,1.6534619E2,6.852974E1,3.0221191E1,8.025688E0,1.1453125E1,1.2018158E1,1.1829486E2,3.418636E1,4.1697266E1,4.4099365E1,3.946237E1,4.2163963E0,3.6866425E1,4.1816864E0,6.630478E0,1.6376781E1,7.1953026E1,1.0116992E2,3.9321533E1,5.0731964E1,2.0479065E1,2.3732422E1,5.1313562E0,1.0394856E0,4.002097E0,3.3348083E0,3.3739136E1,9.214706E0,6.1204037E1,2.2895279E1,1.8833076E1,3.297658E1,3.796924E1,3.3273163E1,0E0,2.0810791E1,3.366469E1,2.2734924E1,2.6469913E0,1.6647835E0,4.2324966E1,7.9094086E0,1.1226311E0,0E0,2.4353142E0,4.600493E0,7.3507223E0,1.392486E1,6.292551E1,3.9262772E0,8.259009E1,4.334131E1,4.66205E1,3.656655E1,5.9443436E0,5.7955294E0,1.1816193E1,1.8475983E1,4.2778725E1,1.5178711E1,2.224352E0,0E0,0E0,0E0,0E0,0E0,0E0,0E0,1.7094162E1,4.398819E0,2.4498138E0,0E0,3.0840555E1,4.6050503E1,1.2539932E1,6.567694E0,1.8007607E1,8.055679E0,2.1163979E1,8.937237E0,6.5140625E1,7.0254517E0,3.2217697E1,9.492218E0,1.7714111E1,2.2918594E1,2.7528584E1,8.593498E0,1.4722534E1,3.7574682E0,1.8197402E0,0E0,0E0,0E0,4.3053192E1,1.9636602E1,0E0,0E0,0E0,0E0,1.0267944E0,0E0,0E0,0E0,7.44154E0,1.9421334E0,1.0897125E1,5.95331E0,2.0966919E1,1.3762978E1,0E0,0E0,5.9437744E1,1.2460358E1,1.4969116E1,1.4395952E1,6.0141983E0,2.9966908E1,2.054583E1,4.317275E0,1.1746979E0,0E0,5.008911E0,0E0,7.600067E0,4.559758E0,1.1805649E1,4.512381E0,6.995383E0,1.34147415E1,8.68042E0,8.334E0,0E0,0E0,6.223427E0,3.8480651E0,0E0,0E0,1.5823059E0,7.766114E0,2.2453726E1,2.1133034E1,2.3099129E1,1.5130556E1,6.346588E0,7.22884E0,6.256431E0,4.2755866E0,4.392942E0,1.718002E1,4.489731E0,0E0,8.407624E0,1.1559881E1,4.5608673E0,8.204802E0,1.8611938E1,1.3871807E1,0E0,4.7312927E0,1.1400879E1,1.2607249E1,6.8513184E0,6.158163E0,2.798848E1,1.2040283E1,5.7321177E0,1.0691391E1,2.306136E1,1.6792454E1,6.388542E0,0E0,1.4041565E1,2.1049728E1,0E0,0E0,0E0,0E0,4.233258E1,1.6340235E1,1.0748789E1,1.038295E1,0E0,0E0,6.6508846E0,3.8602855E0,0E0,0E0,8.564708E0,8.168863E0,2.2810307E0,2.5025992E0,8.048822E0,1.1948008E1,3.5554352E0,0E0,5.7921753E1,2.0546417E0,6.3948364E0,0E0,3.2240875E1,1.1326904E0,1.3305914E1,0E0,0E0,0E0,9.124608E0,2.0262291E1,9.717083E0,4.8753114E0,4.4263153E0,0E0,0E0,0E0,4.0078135E0,0E0,3.8351746E0,6.1393337E0,2.2473803E0,1.5437661E0,1.1368225E1,1.1906414E1,7.0707183E0,0E0,9.310363E0,0E0,0E0,0E0,8.04541E0,2.060735E0,1.2688293E1,6.878662E0,4.9216003E0,0E0,0E0,0E0,0E0,0E0,0E0,2.8235054E0,7.315237E0,1.6605427E1,7.9179497E0,1.2575953E1,1.3133759E1,6.1973877E0,1.111725E1,1.4494396E1,5.141219E0,6.695511E0,6.341425E0,5.2558327E0,1.851384E0,0E0,1.6526613E0,2.0225482E0,0E0,2.5246549E0,6.857712E0,8.439475E0,1.3374557E0,1.1032971E0,4.5615907E0,9.618457E0,1.0102825E1,2.9954295E0,5.4094543E0,1.5781851E1,3.2084637E0,6.383383E0,1.8576294E1,0E0,5.1514244E0,8.580049E0,3.7105713E0,2.5043855E0,7.7768536E0,1.1983124E1,8.25699E0,1.0021271E1,5.0246887E0,4.393418E0,3.153596E0,6.001156E0,5.5220957E0,6.78743E0,4.284912E0,2.3273647E0,0E0,6.9649534E0,7.9219055E0,0E0,1.259673E1,1.9356174E0,0E0,1.1798929E1,5.909439E0,4.958484E0,8.157562E0,6.271253E0,4.6445923E0,5.0161724E0,1.0948141E1,1.4073456E1,8.47769E0,4.4564548E0,1.3431167E1,1.1909887E1,2.3265362E0,8.326761E0,2.3588848E0,2.1768944E0,1.9178216E0,0E0,5.670182E0,4.945992E0,6.4705133E0,7.3713264E0,2.234911E0,0E0,0E0,0E0,0E0,0E0,0E0,0E0,0E0,0E0,0E0,0E0,0E0,0E0,0E0,0E0,0E0,0E0,0E0,0E0,0E0,0E0,0E0,0E0,0E0,0E0,0E0,0E0,0E0,0E0,0E0,0E0,0E0,0E0,0E0,0E0,0E0,0E0,0E0,0E0,0E0,0E0,0E0,0E0,0E0,0E0,0E0,0E0,0E0,0E0,0E0,0E0,0E0,0E0,0E0,0E0,0E0,0E0,0E0,0E0,0E0,0E0,0E0,0E0,0E0,0E0,0E0,0E0,0E0,0E0,0E0,0E0,0E0,0E0,0E0,0E0,0E0,0E0,0E0,0E0,0E0,0E0,0E0,0E0,0E0,0E0,0E0,0E0,0E0,0E0,0E0,0E0,0E0,0E0,0E0,0E0,0E0,0E0,0E0,0E0,0E0,0E0,0E0,0E0,0E0,0E0,0E0,0E0,0E0,0E0,0E0,0E0,0E0,0E0,0E0,0E0,0E0,0E0,0E0,0E0,0E0,0E0,0E0,0E0,0E0,0E0,0E0,0E0,0E0,0E0,0E0,0E0,0E0,0E0,0E0,0E0,0E0,0E0,0E0,0E0,0E0,0E0,0E0,0E0,0E0,0E0,0E0,0E0,0E0,0E0,0E0,0E0,0E0,0E0,0E0,0E0,0E0,0E0,0E0,0E0,0E0,0E0,0E0,0E0,0E0,0E0,0E0,0E0,0E0,0E0,0E0,0E0,0E0,0E0,0E0,0E0,0E0,0E0,0E0,0E0,0E0,0E0,0E0,0E0,0E0,0E0,0E0,0E0,0E0,0E0,0E0,0E0,0E0,0E0,0E0,0E0,0E0,0E0,0E0,0E0,0E0,0E0,0E0,0E0,0E0,0E0],"parents":[2147483647,0,0,1,1,2,2,3,3,4,4,5,5,6,6,7,7,8,8,9,9,10,10,11,11,12,12,13,13,14,14,15,15,16,16,17,17,18,18,19,19,20,20,21,21,22,22,23,23,24,24,25,25,26,26,27,27,28,28,29,29,30,30,31,31,32,32,33,33,34,34,35,35,36,36,37,37,38,38,39,39,40,40,41,41,42,42,43,43,44,44,45,45,46,46,47,47,48,48,50,50,51,51,52,52,53,53,54,54,55,55,56,56,57,57,59,59,60,60,61,61,62,62,63,63,64,64,65,65,66,66,67,67,68,68,69,69,70,70,71,71,72,72,73,73,74,74,75,75,83,83,84,84,85,85,87,87,88,88,89,89,90,90,91,91,92,92,93,93,94,94,95,95,96,96,97,97,98,98,99,99,100,100,101,101,102,102,103,103,104,104,105,105,109,109,110,110,115,115,119,119,120,120,121,121,122,122,123,123,124,124,127,127,128,128,129,129,130,130,131,131,132,132,133,133,134,134,135,135,137,137,139,139,140,140,141,141,142,142,143,143,144,144,145,145,146,146,149,149,150,150,153,153,154,154,155,155,156,156,157,157,158,158,159,159,160,160,161,161,162,162,163,163,164,164,165,165,167,167,168,168,169,169,170,170,171,171,172,172,174,174,175,175,176,176,177,177,178,178,179,179,180,180,181,181,182,182,183,183,184,184,185,185,187,187,188,188,193,193,194,194,195,195,196,196,199,199,200,200,203,203,204,204,205,205,206,206,207,207,208,208,209,209,211,211,212,212,213,213,215,215,216,216,217,217,221,221,222,222,223,223,224,224,225,225,229,229,231,231,232,232,233,233,234,234,235,235,236,236,237,237,239,239,243,243,244,244,245,245,246,246,247,247,254,254,255,255,256,256,257,257,258,258,259,259,260,260,261,261,262,262,263,263,264,264,265,265,266,266,267,267,269,269,270,270,272,272,273,273,274,274,275,275,276,276,277,277,278,278,279,279,280,280,281,281,282,282,283,283,284,284,285,285,287,287,288,288,289,289,290,290,291,291,292,292,293,293,294,294,295,295,296,296,297,297,298,298,299,299,300,300,301,301,302,302,304,304,305,305,307,307,308,308,310,310,311,311,312,312,313,313,314,314,315,315,316,316,317,317,318,318,319,319,320,320,321,321,322,322,323,323,324,324,325,325,326,326,327,327,329,329,330,330,331,331,332,332,333,333],"right_children":[2,4,6,8,10,12,14,16,18,20,22,24,26,28,30,32,34,36,38,40,42,44,46,48,50,52,54,56,58,60,62,64,66,68,70,72,74,76,78,80,82,84,86,88,90,92,94,96,98,-1,100,102,104,106,108,110,112,114,-1,116,118,120,122,124,126,128,130,132,134,136,138,140,142,144,146,148,-1,-1,-1,-1,-1,-1,-1,150,152,154,-1,156,158,160,162,164,166,168,170,172,174,176,178,180,182,184,186,188,190,192,-1,-1,-1,194,196,-1,-1,-1,-1,198,-1,-1,-1,200,202,204,206,208,210,-1,-1,212,214,216,218,220,222,224,226,228,-1,230,-1,232,234,236,238,240,242,244,246,-1,-1,248,250,-1,-1,252,254,256,258,260,262,264,266,268,270,272,274,276,-1,278,280,282,284,286,288,-1,290,292,294,296,298,300,302,304,306,308,310,312,-1,314,316,-1,-1,-1,-1,318,320,322,324,-1,-1,326,328,-1,-1,330,332,334,336,338,340,342,-1,344,346,348,-1,350,352,354,-1,-1,-1,356,358,360,362,364,-1,-1,-1,366,-1,368,370,372,374,376,378,380,-1,382,-1,-1,-1,384,386,388,390,392,-1,-1,-1,-1,-1,-1,394,396,398,400,402,404,406,408,410,412,414,416,418,420,-1,422,424,-1,426,428,430,432,434,436,438,440,442,444,446,448,450,452,-1,454,456,458,460,462,464,466,468,470,472,474,476,478,480,482,484,-1,486,488,-1,490,492,-1,494,496,498,500,502,504,506,508,510,512,514,516,518,520,522,524,526,528,-1,530,532,534,536,538,-1,-1,-1,-1,-1,-1,-1,-1,-1,-1,-1,-1,-1,-1,-1,-1,-1,-1,-1,-1,-1,-1,-1,-1,-1,-1,-1,-1,-1,-1,-1,-1,-1,-1,-1,-1,-1,-1,-1,-1,-1,-1,-1,-1,-1,-1,-1,-1,-1,-1,-1,-1,-1,-1,-1,-1,-1,-1,-1,-1,-1,-1,-1,-1,-1,-1,-1,-1,-1,-1,-1,-1,-1,-1,-1,-1,-1,-1,-1,-1,-1,-1,-1,-1,-1,-1,-1,-1,-1,-1,-1,-1,-1,-1,-1,-1,-1,-1,-1,-1,-1,-1,-1,-1,-1,-1,-1,-1,-1,-1,-1,-1,-1,-1,-1,-1,-1,-1,-1,-1,-1,-1,-1,-1,-1,-1,-1,-1,-1,-1,-1,-1,-1,-1,-1,-1,-1,-1,-1,-1,-1,-1,-1,-1,-1,-1,-1,-1,-1,-1,-1,-1,-1,-1,-1,-1,-1,-1,-1,-1,-1,-1,-1,-1,-1,-1,-1,-1,-1,-1,-1,-1,-1,-1,-1,-1,-1,-1,-1,-1,-1,-1,-1,-1,-1,-1,-1,-1,-1,-1,-1,-1,-1,-1,-1,-1,-1,-1,-1,-1,-1,-1,-1,-1,-1],"split_conditions":[1E0,1E0,1E0,3.2E1,1E1,4.735157E7,2E0,1E0,3E0,3E0,7E0,1E0,1.3800044E9,1.3800044E9,1.331057E6,7.7265E4,1.3E1,2.43E2,3.7E1,2E0,2E0,2.3E1,1.926E4,1.1E1,3.66425E5,1E0,9.1989E1,2.7352362E8,5E0,4E0,1E0,1E0,1E0,1.0715549E7,3E0,1E0,2E0,1.3E2,5.7E1,3.2365998E7,8.89E-1,1.6E1,1E0,4.1E1,1E0,1.6E1,2.1E1,1E0,5E0,-4.936313E-2,6E0,1E0,3.5E1,9.0043E1,9.3E1,3.691056E7,6E1,1E0,1.1290411E-2,1.45E2,7.4E1,1E0,5.9E1,2.019E3,8.9E1,5.5E1,2.1255941E8,1E0,7E1,4.5E1,1.39E2,5.1E1,1.3E1,8.654622E6,1E0,1.8E1,-1.3947878E-2,-2.7851226E-2,4.367361E-3,2.3166005E-2,-3.3783004E-2,6.5306254E-2,-1.8863258E-3,1.45E2,8.84E-1,2.7352362E8,-2.6790516E-2,2E0,3E0,4E0,3.3E1,4.7E-3,1.35E2,4.5E1,7.6668E4,2E0,4E0,7E0,3.4786E4,1.331057E6,1E0,1E0,1.77E2,9E0,1.05E-1,4E0,2.3553537E-2,-5.325429E-2,-2.914636E-3,1E0,5.6E1,6.490699E-2,-1.7146472E-2,-5.7122923E-2,-4.377377E-3,9.5988E1,3.4797503E-4,3.4664832E-2,-2.488314E-2,1E0,1.0305564E7,8.3E1,8.18E-1,1.4003E2,1E0,6.7408584E-2,-5.5357167E-3,1E0,1.42E2,2.018E3,9.3E1,1.42E2,1.331057E6,4.7E1,1.2E2,1.93E2,8.470528E-3,3.39E-1,-2.384393E-2,6.2E1,1E0,1E0,1.1673029E7,1E0,3.868E3,1.83E2,1E0,5.084182E-2,-2.8221854E-3,7.4E1,1.24092E2,-4.490592E-2,1.564781E-2,1.79E2,5.74E-1,3E0,7E0,1E0,8.577E3,3.1E1,1.25836024E8,1E0,4.1E1,2.4E1,3.7E1,6E1,-2.5926689E-2,4.92E-2,4E0,1.13E2,3.4E1,1.22E2,4.45E2,6.5019555E-2,6.7E1,2E0,9.97E3,1.1E2,8E0,2.019E3,1.81E2,5.0843E6,1.89E2,3E0,7E0,6.1E1,-2.3458311E-2,7.3E1,4E0,1.4114068E-2,-4.14388E-2,9.997596E-3,-3.5970498E-2,4.314768E6,1E0,1E0,7E0,-9.055668E-3,-5.6425538E-2,1.25836024E8,1.23E-1,-3.6564156E-2,1.0175327E-2,2.5E1,1E0,6.9799976E7,1E0,5.7E1,1.18E2,1.33E2,2.9317373E-2,4.314768E6,1.3E2,7.4E1,2.3839183E-2,1.764306E7,7.2E1,7E0,4.878009E-2,-5.5862587E-2,1.9374061E-2,6.32275E5,1.0353442E7,1.75E-2,4.2E1,8.5E1,-1.7291028E-2,-5.762461E-2,-4.217061E-3,1.2E1,-2.068382E-2,1.92E2,5.9554024E7,1.09E2,1.01957E2,8E0,3.5E-1,3.473727E6,-2.6719788E-2,1.331057E6,3.976101E-2,-6.493187E-2,6.5658223E-3,1E0,7.98E-1,5.7E1,3.66425E5,4.6E2,-2.5935588E-2,-3.7851144E-2,1.9436713E-2,5.3833414E-2,2.7107694E-3,-2.8839884E-2,8.29E-1,2E0,1E0,1.63992E2,1.1673029E7,3E0,1.764306E7,1E0,3E0,6.81E-1,1.69E2,1.45E2,1E0,2.9E1,3.991441E-2,6E0,9.3E1,1.9280147E-2,8.1E1,6.8E1,5.4E1,1.48021E2,5.05E-1,1.47037E2,1.53E2,7.3E1,6.1E1,2.7E1,8.324053E7,8.8E1,7.44E-1,1.18E2,-4.129186E-2,8.5017E1,2E1,1.87E2,5.831404E6,9.3E1,1E0,2.3E1,6.1E1,1.9E2,6.51E-1,1E0,6.5E1,3.3E1,9.8E1,5.6E1,6.13E-2,-3.5086915E-2,5.62E-1,1.38E2,-3.1298697E-2,1.81E-1,1E1,5.92542E-2,2E0,1.29E2,6.69E-1,1.43E2,8E0,2.8E1,1.00905E2,4.96E-1,1E0,1E0,1.54E2,1E0,4.06E-1,1.8E1,1E0,9.4E1,8E0,1.2E1,2.793386E-2,2.019E3,4.9E1,5.379475E6,3E1,8.3E1,-1.4703804E-4,2.6813434E-2,-2.0703135E-2,2.9741392E-2,-3.4320246E-2,-3.443612E-2,4.044925E-2,-6.1295364E-2,6.4259525E-3,-4.9055465E-2,-2.7514292E-2,-6.1874136E-2,-1.5411954E-2,-6.7387745E-2,-4.2272232E-2,-5.7445876E-2,-1.0646588E-2,-6.721967E-2,-1.5146628E-2,-3.246525E-2,3.0709265E-2,-3.2201796E-3,-5.4843787E-2,1.7839564E-2,5.0407246E-2,-4.4917963E-3,-4.140856E-2,2.1741739E-2,-2.6348285E-2,3.685837E-2,-2.0812534E-2,-7.8045353E-3,5.126663E-2,-5.6637205E-2,3.059228E-3,-4.142305E-2,2.4811944E-3,-3.9820474E-2,5.7226033E-3,3.0932473E-2,-7.5291027E-3,-4.6758674E-2,-2.3087243E-2,-2.6040511E-2,3.278592E-2,-2.558757E-2,2.5066288E-2,3.0986972E-2,-1.9298228E-2,-5.980049E-2,-3.3714637E-2,-1.9789012E-2,2.603795E-2,-5.4287672E-2,-4.17081E-3,-5.7785153E-2,-2.0566234E-2,4.5535754E-2,2.1180367E-2,4.6308216E-2,2.913489E-3,-1.2725846E-2,1.5448475E-2,-1.619333E-2,1.3966725E-2,3.7472744E-2,6.671476E-4,1.55505E-2,-7.33028E-3,-2.0437483E-2,1.5433007E-2,-5.6733266E-2,-1.15528535E-2,2.6040722E-3,2.8537638E-2,-1.2628292E-2,4.165369E-2,-5.2166637E-3,-4.151215E-2,-5.274969E-2,-6.1165765E-3,-2.3836924E-2,1.1939925E-2,-5.863786E-2,1.3618289E-2,1.4672393E-2,-2.36779E-2,4.039514E-3,-4.1266814E-2,2.7747978E-2,-1.2473291E-2,-3.499737E-2,1.0240934E-2,2.9539116E-2,-2.723089E-2,-2.9332034E-2,1.9493086E-2,5.799995E-2,1.6795527E-2,-1.3024489E-2,1.8085798E-2,-4.9253074E-3,-3.7151705E-2,1.3003822E-2,-3.3955723E-2,-4.2721074E-2,2.6439095E-3,4.200866E-2,-1.4261993E-2,1.6777083E-2,4.1888833E-2,-4.4179887E-2,4.195357E-2,-2.3596201E-2,1.4172168E-2,3.4904346E-2,-3.0247923E-2,4.6589017E-2,1.2365883E-2,-7.368462E-3,2.7502637E-2,-9.7106965E-3,3.1455964E-2,5.280584E-2,1.5596092E-2,-2.7808018E-2,2.3963774E-2,2.124265E-2,-2.6492747E-2,1.3045057E-2,4.3609023E-2,1.3523391E-2,4.3344714E-2,-2.2021431E-2,2.2715867E-2,4.9981624E-2,-1.5015658E-2,3.0836208E-2,-1.9537747E-2,-2.86398E-2,2.3752091E-2,3.563965E-2,-1.0714234E-2,-4.8187558E-2,2.3735216E-2,5.4475468E-2,1.4223215E-2,6.2477294E-2,-4.818318E-3,2.4480974E-2,-1.4034197E-2,-3.0106803E-2,3.0996516E-2,5.0585885E-2,-1.956213E-2,1.45880245E-2,-1.6614309E-2,-4.516051E-2,-1.4894629E-2,-1.22209275E-2,2.5710506E-2,4.5976177E-2,-5.931738E-4,3.3993103E-2,-2.4370989E-2,5.1097624E-2,-2.562483E-3,-2.2035817E-2,2.9747719E-2,-2.9828038E-2,1.2721846E-2,1.0951737E-2,5.3817015E-2,-3.1491857E-2,2.904603E-2,2.8568024E-2,4.375741E-2,-3.633211E-2,1.1264341E-2,4.064205E-2,-1.246843E-2,-9.049657E-3,2.4452634E-2,-2.39282E-2,3.360312E-2,-3.664872E-2,6.298481E-3,-1.2703135E-2,3.532011E-2,4.441739E-2,-0E0,1.6208231E-2,-3.2361757E-2,-3.299141E-2,1.1680341E-2,7.2595864E-3,3.5111602E-2,-2.6985688E-2,9.022508E-3,1.3961267E-2,-4.004703E-2,-2.5219597E-2,1.9228712E-2,-5.510898E-2,-8.421629E-4],"split_indices":[98,85,8,79,80,86,59,100,100,80,85,92,86,86,86,86,9,79,5,79,85,82,79,80,86,92,69,86,85,85,2,53,93,86,100,92,80,2,12,86,70,82,22,80,32,85,85,85,85,0,80,100,29,69,47,86,29,100,0,14,59,93,82,102,19,9,86,92,43,33,64,53,8,86,8,82,0,0,0,0,0,0,0,58,67,86,0,85,85,85,2,70,8,82,79,80,80,82,79,86,85,85,23,82,73,101,0,0,0,93,80,0,0,0,0,69,0,0,0,92,86,32,67,69,26,0,0,89,19,102,50,65,86,2,47,9,0,70,0,58,75,100,86,12,79,33,92,0,0,35,69,0,0,13,67,82,82,93,79,80,86,26,22,80,82,80,0,70,100,82,85,42,79,0,13,101,79,19,85,102,48,86,13,82,80,21,0,12,85,0,0,0,0,86,38,85,101,0,0,86,73,0,0,61,100,86,100,64,48,2,0,86,26,1,0,86,60,24,0,0,0,86,86,70,54,22,0,0,0,15,0,64,86,19,69,80,73,86,0,86,0,0,0,42,67,80,86,79,0,0,0,0,0,0,67,101,100,69,86,100,86,8,100,67,26,54,28,82,0,54,12,0,58,18,82,69,67,69,48,58,22,85,86,43,67,47,0,69,15,1,86,9,85,5,9,47,67,50,80,82,21,38,70,0,67,22,0,73,101,0,85,38,67,21,79,80,69,70,100,47,46,100,67,85,89,64,101,85,0,102,18,86,29,65,0,0,0,0,0,0,0,0,0,0,0,0,0,0,0,0,0,0,0,0,0,0,0,0,0,0,0,0,0,0,0,0,0,0,0,0,0,0,0,0,0,0,0,0,0,0,0,0,0,0,0,0,0,0,0,0,0,0,0,0,0,0,0,0,0,0,0,0,0,0,0,0,0,0,0,0,0,0,0,0,0,0,0,0,0,0,0,0,0,0,0,0,0,0,0,0,0,0,0,0,0,0,0,0,0,0,0,0,0,0,0,0,0,0,0,0,0,0,0,0,0,0,0,0,0,0,0,0,0,0,0,0,0,0,0,0,0,0,0,0,0,0,0,0,0,0,0,0,0,0,0,0,0,0,0,0,0,0,0,0,0,0,0,0,0,0,0,0,0,0,0,0,0,0,0,0,0,0,0,0,0,0,0,0,0,0,0,0,0,0,0,0,0,0,0,0,0,0,0,0,0,0,0,0,0],"split_type":[0,0,0,0,0,0,0,0,0,0,0,0,0,0,0,0,0,0,0,0,0,0,0,0,0,0,0,0,0,0,0,0,0,0,0,0,0,0,0,0,0,0,0,0,0,0,0,0,0,0,0,0,0,0,0,0,0,0,0,0,0,0,0,0,0,0,0,0,0,0,0,0,0,0,0,0,0,0,0,0,0,0,0,0,0,0,0,0,0,0,0,0,0,0,0,0,0,0,0,0,0,0,0,0,0,0,0,0,0,0,0,0,0,0,0,0,0,0,0,0,0,0,0,0,0,0,0,0,0,0,0,0,0,0,0,0,0,0,0,0,0,0,0,0,0,0,0,0,0,0,0,0,0,0,0,0,0,0,0,0,0,0,0,0,0,0,0,0,0,0,0,0,0,0,0,0,0,0,0,0,0,0,0,0,0,0,0,0,0,0,0,0,0,0,0,0,0,0,0,0,0,0,0,0,0,0,0,0,0,0,0,0,0,0,0,0,0,0,0,0,0,0,0,0,0,0,0,0,0,0,0,0,0,0,0,0,0,0,0,0,0,0,0,0,0,0,0,0,0,0,0,0,0,0,0,0,0,0,0,0,0,0,0,0,0,0,0,0,0,0,0,0,0,0,0,0,0,0,0,0,0,0,0,0,0,0,0,0,0,0,0,0,0,0,0,0,0,0,0,0,0,0,0,0,0,0,0,0,0,0,0,0,0,0,0,0,0,0,0,0,0,0,0,0,0,0,0,0,0,0,0,0,0,0,0,0,0,0,0,0,0,0,0,0,0,0,0,0,0,0,0,0,0,0,0,0,0,0,0,0,0,0,0,0,0,0,0,0,0,0,0,0,0,0,0,0,0,0,0,0,0,0,0,0,0,0,0,0,0,0,0,0,0,0,0,0,0,0,0,0,0,0,0,0,0,0,0,0,0,0,0,0,0,0,0,0,0,0,0,0,0,0,0,0,0,0,0,0,0,0,0,0,0,0,0,0,0,0,0,0,0,0,0,0,0,0,0,0,0,0,0,0,0,0,0,0,0,0,0,0,0,0,0,0,0,0,0,0,0,0,0,0,0,0,0,0,0,0,0,0,0,0,0,0,0,0,0,0,0,0,0,0,0,0,0,0,0,0,0,0,0,0,0,0,0,0,0,0,0,0,0,0,0,0,0,0,0,0,0,0,0,0,0,0,0,0,0,0,0,0,0,0,0,0,0,0,0,0,0],"sum_hessian":[4.37845E4,2.671663E4,1.706787E4,1.928705E4,7.429581E3,1.3921619E4,3.1462507E3,1.284987E4,6.4371807E3,1.1598801E3,6.2697007E3,1.2007344E4,1.9142758E3,2.4855635E3,6.606872E2,1.1444815E4,1.4050546E3,6.377619E3,5.9561268E1,3.5335107E2,8.06529E2,4.60557E3,1.6641309E3,8.416532E3,3.5908113E3,1.8305607E3,8.371509E1,2.4237576E3,6.1805958E1,7.61053E1,5.845819E2,4.4508606E2,1.09997295E4,1.1712208E3,2.3383377E2,1.7954454E3,4.582174E3,4.4339638E1,1.5221628E1,1.3871165E1,3.3947992E2,4.1113232E2,3.9539667E2,3.7696814E3,8.358885E2,7.15216E2,9.489148E2,6.2348535E3,2.1816787E3,1.5815538E1,3.5749958E3,1.0166518E3,8.139089E2,1.5098792E1,6.8616295E1,2.290262E3,1.3349556E2,5.842545E1,3.380508E0,6.109703E1,1.5008266E1,1.3621939E2,4.4836252E2,3.5002698E2,9.505908E1,9.782262E3,1.2174681E3,7.856482E2,3.8557257E2,1.8523232E2,4.860145E1,8.811107E2,9.143348E2,2.377317E2,4.344442E3,3.818388E1,6.1557593E0,9.518908E0,5.702721E0,8.669575E0,5.2015905E0,3.358563E2,3.623627E0,3.7789825E2,3.3234074E1,3.9072372E2,4.6729403E0,1.9020669E3,1.8676146E3,7.543232E2,8.1565315E1,5.6795044E2,1.4726555E2,5.971906E2,3.517242E2,4.9830796E3,1.2517738E3,1.2529147E3,9.287641E2,3.1133647E3,4.61631E2,7.052713E2,3.113805E2,7.926404E2,2.1268486E1,1.0442664E1,4.6561275E0,6.4114075E1,4.502218E0,1.7050487E3,5.8521313E2,1.2944101E2,4.0545526E0,5.5028584E1,3.3968651E0,5.631669E1,4.780342E0,6.2915297E0,8.716737E0,1.2445134E2,1.1768049E1,3.855583E2,6.2804226E1,2.4875517E2,1.0127181E2,9.193911E1,3.1199765E0,9.277141E3,5.0512054E2,1.1060859E3,1.1138213E2,5.017176E1,7.3547644E2,3.0247284E2,8.309974E1,1.7911108E2,6.1212335E0,4.26723E1,5.92915E0,8.472548E2,3.3855904E1,8.396811E2,7.465366E1,1.0003995E2,1.3769176E2,3.7564678E3,5.879741E2,3.4333015E1,3.8508637E0,3.5820908E2,1.9689192E1,2.880983E1,4.424243E0,3.3077832E2,5.9945408E1,1.0165376E3,8.8552924E2,9.590897E2,9.085249E2,4.0886847E2,3.4545468E2,4.4320545E1,3.7244766E1,5.046446E1,5.17486E2,1.4347757E2,3.7879767E0,4.310739E2,1.6611668E2,2.5455621E2,9.7168E1,4.444049E3,5.3903107E2,5.337599E2,7.180139E2,7.100943E2,5.428204E2,7.377722E2,1.9099188E2,1.7594792E2,2.9374167E3,4.738989E1,4.1424115E2,4.1108444E2,2.9418686E2,3.0384933E2,7.531171E0,6.660432E2,1.26597145E2,5.4287987E0,1.5839687E1,3.5238588E0,6.9188056E0,1.5699637E3,1.3508498E2,4.314026E2,1.5381056E2,5.430608E0,5.088608E1,1.019391E2,2.2512236E1,8.1504E0,3.6176498E0,2.4008022E2,1.4547809E2,5.125038E1,1.15538435E1,1.8864958E2,6.0105583E1,9.4699585E1,6.572227E0,8.944577E3,3.3256406E2,4.991038E2,6.016751E0,4.749437E2,6.311423E2,9.878388E1,1.2598251E1,4.6991917E1,3.1798444E0,7.142786E1,6.640486E2,2.449286E2,5.7544228E1,7.675214E1,6.3476086E0,1.7581035E2,3.3007329E0,3.8933674E1,3.7386281E0,7.788984E2,6.835645E1,1.9512556E1,1.4343348E1,7.496394E2,9.0041695E1,5.545979E1,1.9193874E1,8.3092926E1,1.6947018E1,1.2326122E2,1.4430532E1,3.7476497E3,8.818297E0,4.1696332E2,1.7101079E2,3.5474222E2,3.4668422E0,1.5541079E1,4.1481137E0,3.2680536E2,3.9729588E0,5.7506804E0,5.419473E1,3.9563263E2,6.2090497E2,2.8333694E2,6.021923E2,8.208488E2,1.382409E2,4.592677E2,4.492572E2,8.122743E1,3.2764102E2,3.006571E2,4.4797573E1,1.703082E1,2.7289724E1,2.2157148E1,1.508762E1,7.6631417E0,4.2801315E1,4.5076917E2,6.671683E1,1.3045317E2,1.3024411E1,1.3185866E2,2.9921524E2,1.5252039E2,1.3596303E1,2.2174901E2,3.2807205E1,5.43821E1,4.27859E1,4.435635E3,8.413708E0,3.9337842E2,1.4565263E2,7.1086475E2,7.149162E0,9.3145836E1,6.169485E2,4.2787454E2,1.1494586E2,7.13183E2,2.4589218E1,1.4865853E1,1.7612604E2,2.1503834E1,1.5444408E2,2.9164001E3,2.1016607E1,1.4770512E1,3.261938E1,4.0938715E2,4.8539968E0,3.359739E2,7.511051E1,6.1194214E1,2.3299265E2,2.848248E2,1.9024527E1,6.2889374E2,3.7149487E1,5.0766693E1,7.583045E1,7.960287E1,1.490361E3,9.979269E1,3.5292294E1,2.5697107E2,1.7443153E2,7.985754E1,7.395303E1,9.299586E1,8.943248E0,1.7333166E1,5.179068E0,1.6850656E2,7.157366E1,7.468628E1,7.079181E1,4.590184E1,5.3485394E0,7.1770926E0,4.3767505E0,1.8281844E2,5.8311415E0,5.1721184E1,8.3844E0,9.1597046E1,3.1025364E0,7.322747E2,8.212302E3,3.222893E2,1.0274759E1,3.8305862E2,1.16045166E2,3.715737E2,1.03369995E2,6.245695E2,6.572763E0,8.197792E1,1.6805962E1,4.715266E1,2.4275198E1,5.3978186E2,1.24266716E2,4.8917984E1,1.9601062E2,4.925884E1,8.28539E0,7.3039635E1,3.7125015E0,5.38905E0,3.354462E1,7.7376587E2,5.132507E0,4.372989E1,2.4626568E1,1.3422044E1,6.090512E0,8.894335E0,5.4490128E0,5.925994E2,1.5703998E2,7.20612E1,1.7980492E1,1.5508437E1,3.995135E1,2.1218822E1,6.1874107E1,3.6551733E3,9.247616E1,3.21877E0,5.599527E0,3.8682574E2,3.013756E1,3.1913376E1,1.3909741E2,2.8179626E2,7.294595E1,4.359531E1,1.0599418E1,5.218745E1,3.434452E2,5.0595886E2,1.14946106E2,2.4752487E2,3.581209E1,4.2436377E2,1.7782854E2,7.668748E2,5.3974045E1,1.1513489E2,2.3106022E1,3.467787E2,1.12489E2,4.2757727E2,2.1679918E1,4.2845055E1,3.8382378E1,3.0839636E2,1.9244686E1,2.7537466E2,2.5282442E1,4.117965E1,3.6179228E0,5.2550035E0,1.1775817E1,3.88942E0,1.8267729E1,7.809989E0,7.277631E0,3.8028137E1,4.77318E0,4.4391867E2,6.850491E0,4.110208E1,2.561475E1,1.19384155E2,1.1069009E1,4.365783E0,8.6586275E0,1.07366455E2,2.4492195E1,2.800629E2,1.9152342E1,1.2044021E2,3.2080173E1,1.0097304E1,3.498999E0,8.78884E1,1.3386061E2,1.4467954E1,1.833925E1,4.3350563E1,1.1031534E1,3.8209267E1,4.576634E0,4.3437056E3,9.1929375E1,2.1455767E1,3.7192264E2,1.1759502E2,2.8057623E1,6.8952704E2,2.1337692E1,3.9524755E0,3.1966865E0,7.567482E1,1.7471012E1,8.632785E1,5.3062067E2,3.7437634E2,5.349818E1,8.27968E1,3.2149063E1,7.094438E2,3.7391922E0,1.2981529E1,1.1607689E1,1.128245E1,3.5834033E0,1.626438E2,1.3482228E1,1.8388765E1,3.1150687E0,1.2048496E2,3.3959118E1,2.9122388E3,4.161419E0,9.61077E0,1.1405837E1,8.86111E0,2.375827E1,4.0377158E2,5.615569E0,2.4715039E2,8.8823524E1,5.0026455E1,2.5084059E1,5.2849316E1,1.8014333E2,2.6965512E2,1.5169695E1,6.830235E0,1.2194292E1,6.14022E2,1.4871758E1,1.972346E1,1.742603E1,3.472845E1,1.6038242E1,2.4800867E1,5.1029583E1,6.455896E1,1.5043903E1,9.042065E2,5.861544E2,7.6930466E1,2.2862223E1,2.7444387E1,7.847906E0,1.594704E2,9.750066E1,1.7097446E1,1.5733408E2,7.4414E1,5.4435315E0,5.150701E1,2.244602E1,8.614633E1,6.849525E0,3.1642036E0,5.779044E0,1.4147766E1,3.1854002E0,1.1061554E2,5.7891018E1,3.9596817E1,3.1976841E1,1.0854698E1,6.3831577E1,2.6170963E1,4.4620842E1,4.125664E1,4.6451983E0],"tree_param":{"num_deleted":"0","num_feature":"103","num_nodes":"539","size_leaf_vector":"1"}},{"base_weights":[1.2171702E-3,-3.225759E-1,2.3519227E-1,-5.821232E-1,-2.7684304E-1,-1.17606014E-1,3.2052252E-1,-3.4714118E-1,-7.5418407E-1,-3.7360066E-1,-1.2591696E-1,8.432072E-2,-2.268791E-1,4.1976345E-1,1.5851434E-1,-7.743132E-1,-3.0289522E-1,-7.867865E-1,-2.4589624E-1,-4.0802893E-1,2.3019716E-1,-1.7187391E-1,4.2611164E-1,-3.628171E-2,3.8113132E-1,-5.4511386E-1,-7.2504185E-2,4.680701E-1,1.653334E-1,3.731642E-1,-1.4793513E-2,-8.041672E-1,-1.0646451E-3,-3.4899467E-1,2.7380012E-2,-8.504712E-1,-5.256166E-1,-7.1039295E-1,3.0482018E-1,-4.531235E-1,-1.2424792E-2,4.9087214E-1,-2.874764E-1,2.7497647E-2,-2.7527672E-1,6.6337055E-1,2.9374817E-1,1.3667071E-1,-2.1324919E-1,6.889808E-1,2.369046E-1,-7.40355E-1,-1.2904479E-1,1.898804E-1,-1.7279144E-1,4.116301E-1,6.656051E-1,4.0123478E-2,3.811049E-1,2.8983262E-1,6.7222667E-1,-1.4168103E-1,2.1706837E-1,-6.0513027E-2,-3.435969E-3,-3.8039446E-1,1.01481594E-1,-7.057256E-2,4.1288763E-1,-8.700437E-1,2.4106021E-1,-7.34031E-1,-2.848117E-1,-5.8074128E-2,6.4398944E-3,5.311429E-1,-2.7188823E-1,-4.8968112E-1,2.392724E-2,-2.3921378E-1,2.6137656E-1,-4.739234E-1,7.260642E-1,-5.699371E-1,5.8387995E-1,-8.37389E-2,4.1449648E-1,-2.9590124E-1,2.4303514E-1,7.0828164E-1,-6.439384E-2,4.4967543E-2,4.749574E-1,3.0019546E-1,-4.5651656E-1,-1.4365493E-1,-5.9426844E-1,7.286867E-1,3.7555285E-2,2.933278E-1,-4.7650376E-1,-7.5665236E-1,1.9214662E-2,2.5191066E-1,-5.518248E-1,4.2286706E-1,-3.00099E-1,-2.988288E-1,4.125775E-2,5.2949315E-1,2.3631446E-1,-2.7914576E-2,6.836893E-1,2.375561E-1,-1.1645443E-1,4.221179E-1,7.5978064E-3,3.220183E-1,-3.2395348E-1,7.3536265E-1,-3.124798E-1,-2.515162E-1,1.369406E-1,3.6178192E-1,-4.2443253E-2,-3.420831E-1,-6.775161E-1,2.2964473E-1,-2.88894E-2,-2.2673301E-1,1.8856609E-1,-1.107632E-2,4.0452037E-2,-8.736323E-1,2.541681E-4,4.2151403E-2,-2.6046256E-2,-7.800915E-1,8.944564E-3,-5.0783724E-1,-5.397327E-2,5.166985E-2,1.5409003E-1,-3.595195E-2,1.6752334E-2,-3.8892105E-1,-5.6532085E-1,1.8913396E-1,-6.84357E-1,2.0504875E-1,-4.3385696E-1,1.2562844E-1,6.5463376E-1,2.7096555E-1,-5.27143E-2,-2.784641E-1,6.107555E-2,-3.2296516E-2,-7.3036593E-1,-1.6237721E-3,5.0533187E-2,-1.3319203E-1,6.3618526E-2,9.625036E-2,6.8093586E-1,-3.360758E-1,-1.0450368E-1,-5.8766752E-2,4.6334797E-1,7.2969335E-1,4.463274E-3,1.4987926E-2,-2.0785557E-2,2.9597336E-1,-1.9052021E-1,5.2404463E-1,-2.5232192E-2,3.389264E-1,-2.890283E-1,3.8602453E-2,-3.6876503E-2,-4.4555745E-1,-9.066539E-2,-7.359261E-1,-1.1637112E-1,7.5386935E-1,-6.7877932E-3,1.9762387E-2,-1.4776394E-2,3.4487748E-1,-1.825797E-1,-4.2029887E-2,5.444904E-3,-7.6629806E-1,-1.4531631E-2,4.3329206E-1,-2.9696515E-1,6.548799E-2,-6.251022E-2,2.8754032E-1,7.7825373E-1,-4.1694054E-1,2.3962995E-1,-3.428005E-1,2.9831812E-1,1.1638093E-1,-3.965067E-1,5.41311E-1,-3.310972E-1,2.793393E-1,-5.6595045E-1,2.4210322E-1,-3.804261E-2,7.2931063E-1,3.494558E-1,-6.161013E-3,4.3502542E-1,-2.510349E-1,9.825804E-2,3.5091317E-1,6.5493095E-1,-1.8591203E-1,3.2979774E-1,3.6829737E-1,-9.05953E-2,-5.48175E-1,1.0933164E-1,7.764406E-1,-1.710133E-1,-4.108967E-2,3.2021546E-1,-1.9351414E-1,-7.390591E-1,8.438329E-3,6.192269E-1,3.870027E-1,-5.476925E-1,-1.2708136E-1,4.3222982E-1,-3.6547628E-1,1.525907E-2,-7.221112E-1,6.7412346E-3,3.4896123E-1,-1.926487E-2,-3.747235E-1,1.7255828E-1,2.797625E-1,-1.5178144E-2,-8.770202E-1,-2.1537298E-3,-5.8701713E-2,-4.2729154E-3,-1.9569649E-1,-5.2456893E-2,1.3218708E-1,-2.5510486E-2,2.1477198E-2,-1.0237923E-2,-4.4498977E-1,-2.2328424E-1,-5.9027743E-1,-3.222977E-1,2.5707477E-1,-5.437252E-1,-2.0842335E-1,-6.069528E-2,4.395611E-1,-1.5682435E-1,-2.5616825E-1,-5.905431E-2,1.736237E-1,-4.1959146E-1,7.048776E-1,8.749848E-2,-1.0987079E-2,3.0797206E-2,1.0862851E-1,-3.4916155E-2,-2.9661959E-2,1.411506E-1,4.9323607E-3,-8.1871676E-1,-3.473615E-1,1.9807529E-2,2.9205692E-1,-1.5092556E-1,7.7861285E-1,-1.1737052E-1,-1.5211153E-1,-3.8188833E-1,-1.475034E-1,5.046583E-2,1.524822E-1,-3.7345594E-1,5.361023E-1,-1.9630535E-2,5.4635156E-2,8.497569E-4,5.174779E-1,-3.210553E-1,-4.3082E-1,2.4417219E-1,5.500535E-1,-1.5092934E-2,-1.5462036E-1,3.8364264E-1,-2.6356686E-2,7.561394E-3,-1.8609034E-2,1.7570391E-2,-5.57654E-1,2.1480791E-2,-1.8758455E-1,3.769438E-2,-7.841442E-1,-1.4169783E-3,1.4840037E-2,-2.8699173E-2,5.815824E-2,9.7854726E-2,4.0372756E-1,-1.8434758E-1,-3.1178576E-1,1.2994592E-2,-7.7070796E-1,1.7880994E-3,-2.4886394E-2,2.1648843E-2,5.384475E-1,-2.9600263E-2,-5.336775E-1,6.1548796E-2,-3.9666396E-1,3.942128E-1,1.0924969E-1,7.957027E-1,-2.0260643E-3,5.9871946E-2,-5.4170877E-1,3.1678978E-1,-1.9617856E-2,4.655625E-1,-2.3170094E-1,-5.4691035E-1,3.713689E-1,-2.408191E-2,2.829929E-1,-8.308717E-2,-5.2396193E-2,2.6074573E-1,5.497593E-1,-5.4402385E-2,-4.5540646E-1,2.5207262E-2,-2.0084888E-2,3.8497812E-1,-5.8335565E-2,-1.1361824E-1,3.432629E-1,-2.3230776E-2,7.4936134E-1,5.2484006E-2,7.587888E-1,-1.5985261E-1,-1.5325277E-1,3.2585004E-1,2.204101E-1,6.2415195E-1,-3.9046964E-1,1.6109982E-1,2.2220421E-1,-1.538758E-1,4.850329E-1,2.2826926E-1,6.97453E-1,-1.1333378E-3,-3.0506438E-1,1.9829929E-2,-1.0903005E-1,4.1406382E-2,3.2458913E-1,5.756669E-1,-6.2610483E-1,4.0646514E-1,-6.2946296E-1,-2.2886518E-2,3.4495017E-1,-2.0244062E-1,7.9999614E-1,-2.2115886E-1,-4.3551683E-2,1.6504081E-2,3.353674E-2,-5.817502E-3,-5.1017117E-2,-3.7425786E-1,3.6070704E-2,-8.2039696E-1,-1.2609594E-1,5.5644125E-1,-3.5151377E-1,8.052503E-1,4.1979724E-1,-2.7882692E-1,-4.550678E-2,1.2262253E-4,-2.9420328E-1,1.5167539E-1,5.404433E-1,-1.9191204E-2,-2.8180424E-2,-9.1704065E-3,-1.3028947E-2,2.644649E-2,-5.747385E-2,-1.5440506E-2,3.3331756E-2,-2.0856403E-2,-3.541119E-2,1.3951072E-2,-9.279845E-3,2.3776961E-2,2.7789986E-2,-7.6309545E-3,-6.426506E-2,-1.3018613E-2,4.629859E-3,-2.6535278E-2,-2.3186058E-2,2.1467177E-2,-3.4938812E-2,-1.29548265E-2,-5.4726033E-3,-4.3215793E-2,-4.486758E-2,-2.3775654E-2,-8.519821E-3,-4.2089175E-2,-4.4587232E-2,2.2079237E-2,-4.4676255E-2,2.8371958E-3,1.7129553E-2,-3.6637396E-2,3.7310157E-2,-1.4935083E-2,-2.3294855E-2,1.9704787E-2,-3.0986693E-2,2.1155518E-2,1.773004E-2,-1.8609473E-2,-4.0480264E-2,8.312643E-3,5.4271113E-2,5.31288E-3,-2.298731E-2,2.7874224E-2,-1.584017E-2,2.3036074E-2,2.2251893E-2,-1.40342675E-2,-6.1688725E-2,-7.016239E-3,2.4185596E-2,-3.275951E-2,4.5281548E-2,-5.8361185E-3,-6.729264E-3,3.3892654E-2,1.1014172E-3,-3.1356283E-2,5.9448548E-2,-1.512637E-2,-2.4214014E-2,2.5868831E-2,-1.3537437E-2,1.3818261E-2,-2.3006983E-2,-3.8871385E-2,-1.576492E-2,3.007267E-2,-2.1505801E-2,2.3180503E-2,-3.561993E-2,4.5137876E-3,4.3398727E-2,-1.3102007E-2,4.6507977E-2,-1.0528609E-2,-3.3127505E-2,7.908684E-3,-3.7021607E-2,4.408819E-3,2.8894672E-2,-2.0404842E-2,4.298979E-2,4.20944E-3,-4.181012E-2,1.2103676E-2,3.0791223E-2,-1.4300064E-2,-4.9832255E-2,-2.8648286E-3,-2.0093724E-2,1.1177159E-2,8.080135E-3,-1.5386651E-2,-6.0716096E-2,-2.2516742E-3,-1.8081076E-2,2.5859775E-2,3.2120515E-2,-2.3473952E-2,-2.91199E-2,1.8189264E-2,-3.4186818E-2,3.956969E-3,-5.6632247E-2,-2.7040024E-3,4.3621685E-2,-2.1171216E-2,-4.5144554E-2,1.644931E-3,2.2207193E-2,-2.2652835E-2,-4.4502467E-2,7.433276E-3,4.126102E-2,-2.6453447E-2,-1.4047542E-2,1.3570406E-2,7.697224E-5,6.107084E-2,-4.8993926E-2,-8.09419E-3,3.771686E-2,-2.190344E-2,-3.8217728E-3,4.490536E-2,1.4405975E-3,-2.1954162E-2,-4.817832E-2,-1.14124045E-2,4.486791E-2,1.1481518E-2,2.8665591E-2,-4.9550715E-3,-2.2151321E-2,1.8895788E-2,3.437817E-2,-2.28871E-2,3.7617788E-2,4.76147E-2,1.554407E-2,-2.3491008E-2,-4.307667E-2,1.1860219E-2,1.1516932E-2,-2.6250688E-2,2.2373674E-2,5.274427E-2,-3.4375552E-2,7.4992697E-3,3.2852843E-2,-1.3386497E-2,1.9508423E-2,5.5967193E-2,1.8996015E-2,-2.3830721E-2,5.8716893E-2,7.8257924E-4,-2.852432E-2,1.6804757E-2,-1.747209E-2,3.5738844E-2,3.408809E-2,-2.3934664E-2,6.7594144E-3,4.562362E-2,5.2952208E-2,1.1900543E-2,-3.4436997E-2,2.5360072E-2,1.9517077E-2,-3.6428735E-2,2.1581925E-2,-1.5468089E-2,7.781268E-3,-2.6665311E-2,7.571934E-3,4.1316207E-2,2.2616624E-3,2.3384903E-2,5.5489413E-2,2.282682E-2,6.1400735E-4,-4.107181E-2,-2.3538303E-2,1.0489049E-2,3.442941E-2,1.834647E-2,4.6122275E-2,-5.92185E-3,-5.199259E-2,2.6122075E-2,3.741573E-2,-3.7492838E-2,-4.9253244E-2,5.6964895E-3,1.5717246E-2,-2.4863318E-2,-1.1634573E-2,3.4748137E-2,-3.5088662E-2,1.3848246E-2,5.9204437E-2,-2.2080887E-2,-4.0017605E-2,2.3844853E-2,-6.760922E-3,3.6078468E-2,7.1483487E-3,-3.0542789E-2,2.502801E-2,-3.0393068E-2,-6.315196E-2,-1.2212114E-2,-2.0608386E-2,4.4454876E-3,5.3161323E-2,-8.5160125E-4,-3.967309E-2,1.1409657E-2,6.287982E-2,7.007462E-3,3.1787854E-2,-4.0666644E-2,-3.772274E-2,7.7522555E-3,-3.5622567E-2,-1.5197854E-3,-7.100427E-3,2.8792929E-2,4.399011E-2,-1.3815935E-2],"categories":[],"categories_nodes":[],"categories_segments":[],"categories_sizes":[],"default_left":[0,0,0,0,0,0,0,0,0,0,0,0,0,0,0,0,0,0,0,0,0,0,0,0,0,0,0,0,0,0,0,0,0,0,0,0,0,0,0,0,0,0,0,0,0,0,0,0,0,0,0,0,0,0,0,0,0,0,0,0,0,0,0,0,0,0,0,0,0,0,0,0,0,0,0,0,0,0,0,0,0,0,0,0,0,0,0,0,0,0,0,0,0,0,0,0,0,0,0,0,0,0,0,0,0,0,0,0,0,0,0,0,0,0,0,0,0,0,0,0,0,0,0,0,0,0,0,0,0,0,0,0,0,0,0,0,0,0,0,0,0,0,0,0,0,0,0,0,0,0,0,0,0,0,0,0,0,0,0,0,0,0,0,0,0,0,0,0,0,0,0,0,0,0,0,0,0,0,0,0,0,0,0,0,0,0,0,0,0,0,0,0,0,0,0,0,0,0,0,0,0,0,0,0,0,0,0,0,0,0,0,0,0,0,0,0,0,0,0,0,0,0,0,0,0,0,0,0,0,0,0,0,0,0,0,0,0,0,0,0,0,0,0,0,0,0,0,0,0,0,0,0,0,0,0,0,0,0,0,0,0,0,0,0,0,0,0,0,0,0,0,0,0,0,0,0,0,0,0,0,0,0,0,0,0,0,0,0,0,0,0,0,0,0,0,0,0,0,0,0,0,0,0,0,0,0,0,0,0,0,0,0,0,0,0,0,0,0,0,0,0,0,0,0,0,0,0,0,0,0,0,0,0,0,0,0,0,0,0,0,0,0,0,0,0,0,0,0,0,0,0,0,0,0,0,0,0,0,0,0,0,0,0,0,0,0,0,0,0,0,0,0,0,0,0,0,0,0,0,0,0,0,0,0,0,0,0,0,0,0,0,0,0,0,0,0,0,0,0,0,0,0,0,0,0,0,0,0,0,0,0,0,0,0,0,0,0,0,0,0,0,0,0,0,0,0,0,0,0,0,0,0,0,0,0,0,0,0,0,0,0,0,0,0,0,0,0,0,0,0,0,0,0,0,0,0,0,0,0,0,0,0,0,0,0,0,0,0,0,0,0,0,0,0,0,0,0,0,0,0,0,0,0,0,0,0,0,0,0,0,0,0,0,0,0,0,0,0,0,0,0,0,0,0,0,0,0,0,0,0,0,0,0,0,0,0,0,0,0,0,0,0,0,0,0,0,0,0,0,0,0,0,0,0,0,0,0,0,0,0,0,0,0,0,0,0,0,0,0,0,0,0,0,0,0,0,0,0,0,0,0,0,0,0,0,0,0,0,0,0,0,0,0,0,0,0,0,0,0,0,0,0,0,0,0,0,0,0,0,0,0,0,0,0,0,0,0,0,0,0,0,0,0,0,0,0,0,0,0,0,0,0,0,0,0,0,0,0,0,0,0,0,0,0,0,0,0,0,0,0,0,0,0,0,0,0,0,0,0,0,0,0,0,0,0,0,0],"id":2,"left_children":[1,3,5,7,9,11,13,15,17,19,21,23,25,27,29,31,33,35,37,39,41,43,45,47,49,51,53,55,57,59,61,63,-1,65,67,69,71,73,75,77,79,81,83,85,87,89,91,93,95,97,99,101,103,105,107,109,111,113,115,117,119,121,123,-1,-1,125,127,129,131,133,135,137,139,-1,-1,141,143,145,147,149,151,153,155,157,159,161,163,165,167,169,171,173,175,177,179,181,183,185,187,189,191,193,-1,195,197,199,201,203,205,207,209,211,213,215,217,219,221,223,225,227,229,231,233,235,237,239,241,243,-1,245,247,-1,-1,249,-1,-1,-1,251,-1,253,255,-1,257,-1,-1,259,261,263,265,267,269,271,273,275,-1,277,-1,279,281,-1,-1,283,-1,285,287,289,291,293,295,297,-1,-1,-1,299,301,303,-1,305,307,309,-1,311,313,315,317,319,-1,-1,-1,321,323,-1,-1,325,327,329,331,333,-1,335,337,339,341,343,345,347,349,351,353,355,357,359,-1,361,363,365,367,369,371,373,375,377,379,381,383,385,387,389,391,-1,393,395,397,399,401,403,405,407,409,411,413,415,-1,417,-1,419,421,423,-1,425,-1,-1,-1,427,-1,429,-1,-1,-1,431,433,435,437,439,441,443,-1,445,447,449,-1,451,453,455,457,-1,-1,459,-1,-1,461,-1,463,465,467,469,471,473,475,477,479,481,-1,483,485,487,-1,-1,-1,489,491,493,495,497,-1,499,501,-1,-1,-1,-1,503,-1,505,507,509,-1,-1,-1,-1,511,513,515,517,-1,519,-1,-1,-1,521,-1,523,525,527,529,531,533,-1,-1,535,537,-1,539,541,543,545,-1,547,549,-1,551,553,555,557,-1,559,561,-1,563,565,-1,567,569,571,573,575,577,579,581,583,585,587,589,591,593,595,-1,597,-1,599,-1,601,603,605,607,609,611,613,615,617,619,-1,-1,-1,-1,621,623,625,627,629,631,633,635,637,639,-1,-1,641,643,645,-1,-1,-1,-1,-1,-1,-1,-1,-1,-1,-1,-1,-1,-1,-1,-1,-1,-1,-1,-1,-1,-1,-1,-1,-1,-1,-1,-1,-1,-1,-1,-1,-1,-1,-1,-1,-1,-1,-1,-1,-1,-1,-1,-1,-1,-1,-1,-1,-1,-1,-1,-1,-1,-1,-1,-1,-1,-1,-1,-1,-1,-1,-1,-1,-1,-1,-1,-1,-1,-1,-1,-1,-1,-1,-1,-1,-1,-1,-1,-1,-1,-1,-1,-1,-1,-1,-1,-1,-1,-1,-1,-1,-1,-1,-1,-1,-1,-1,-1,-1,-1,-1,-1,-1,-1,-1,-1,-1,-1,-1,-1,-1,-1,-1,-1,-1,-1,-1,-1,-1,-1,-1,-1,-1,-1,-1,-1,-1,-1,-1,-1,-1,-1,-1,-1,-1,-1,-1,-1,-1,-1,-1,-1,-1,-1,-1,-1,-1,-1,-1,-1,-1,-1,-1,-1,-1,-1,-1,-1,-1,-1,-1,-1,-1,-1,-1,-1,-1,-1,-1,-1,-1,-1,-1,-1,-1,-1,-1,-1,-1,-1,-1,-1,-1,-1,-1,-1,-1,-1,-1,-1,-1,-1,-1,-1,-1,-1,-1,-1,-1,-1,-1,-1,-1,-1,-1,-1,-1,-1,-1,-1,-1,-1,-1,-1,-1,-1,-1,-1,-1,-1,-1,-1,-1,-1,-1,-1,-1,-1,-1,-1,-1,-1,-1,-1,-1,-1],"loss_changes":[2.9041003E3,1.8982678E2,6.70155E2,9.54646E1,1.9952051E2,9.585863E1,2.8769568E2,1.790857E1,2.1645996E1,1.7386938E2,1.3633395E2,5.4792885E1,1.3813675E2,1.3603906E2,2.5366664E2,2.0177536E0,1.4403236E1,1.8656433E1,2.5111929E1,1.4067383E2,6.214309E1,1.020609E2,1.1723E1,3.3628498E1,1.8573616E1,7.4049255E1,5.0321873E1,1.0228076E2,4.8062683E1,7.4648926E1,1.1136271E2,1.3844872E0,0E0,1.1947945E1,4.771498E0,2.33844E1,1.2243782E1,3.9881077E0,7.060183E0,1.2355432E2,5.0933853E1,7.124564E1,4.055774E1,7.322642E1,3.5303116E1,4.965988E0,1.2348614E1,5.486631E1,1.3834169E1,3.3834305E0,1.3419106E1,1.149588E1,4.9442207E1,6.1286865E1,3.733963E1,1.4953491E2,2.600415E1,3.527475E1,9.995132E0,4.795935E1,4.2448547E1,7.507503E1,5.0384293E1,0E0,0E0,7.3172073E0,4.3455787E0,4.4163365E0,2.5755143E0,3.1993408E0,5.996643E0,6.1852036E0,6.837431E0,0E0,0E0,1.6813507E0,2.6639333E0,4.870117E1,6.052841E1,3.935488E1,1.9313549E1,1.2993057E1,2.8854996E1,1.0293854E1,2.8096313E0,6.3199562E1,3.177166E1,2.3895325E1,8.704754E0,1.584198E0,1.2228135E0,7.686658E0,7.597622E0,1.0677963E1,3.0689735E0,7.2140255E0,4.9789352E0,3.1304855E0,1.1772879E0,7.5740356E0,1.6546474E0,4.3368835E0,0E0,1.7057907E1,2.7557217E1,1.5945969E1,1.1649135E1,2.350679E1,1.7317951E1,4.53562E1,1.0239073E2,8.62315E0,2.9021423E1,2.4285847E1,1.8580595E1,8.278076E0,4.8406477E0,4.370607E1,1.2287074E1,2.3983765E1,8.165693E0,4.8750305E1,4.3086716E1,2.1104042E1,1.9846075E1,5.8802032E0,3.24152E0,3.5974822E0,0E0,4.363774E0,1.8941903E0,0E0,0E0,2.7216187E0,0E0,0E0,0E0,1.9958115E0,0E0,3.591507E0,4.377357E0,0E0,1.0783117E0,0E0,0E0,2.5739502E1,2.1466919E1,2.1751976E1,5.7126694E0,1.2412938E1,1.9561012E1,7.912249E0,2.2755432E0,1.7161547E0,0E0,2.5979197E0,0E0,2.6143239E0,6.912369E0,0E0,0E0,4.143235E1,0E0,9.023879E0,1.6623352E1,2.145227E1,1.9596497E1,4.347901E0,4.9200172E0,1.6609726E0,0E0,0E0,0E0,9.61582E0,7.767354E0,3.645546E0,0E0,9.563847E0,1.105731E0,1.4004692E0,0E0,6.708703E0,5.091962E0,2.037632E0,2.8469903E0,3.010086E0,0E0,0E0,0E0,8.76026E0,1.8855987E0,0E0,0E0,2.2420044E0,2.1235538E0,1.244544E1,3.9735665E0,9.187755E0,0E0,2.4097317E1,3.3570213E0,1.4456177E1,4.8456774E0,1.7625122E1,3.6883583E0,1.499844E1,1.7506922E1,2.1780151E1,6.302391E0,8.8350235E1,1.5376808E1,3.1038775E0,0E0,2.3682495E1,5.373516E1,1.1656748E1,1.0420502E1,2.3030622E1,8.042333E0,6.932686E0,3.7902527E0,3.1882372E0,3.4256415E0,1.7364136E1,6.416586E1,3.3991356E0,3.9160438E0,1.5134247E1,6.312845E0,0E0,1.1620722E0,4.053516E1,1.182193E1,4.1441334E1,2.824836E1,1.9118004E1,1.0790505E0,1.9702429E1,6.5503273E0,2.8941422E0,3.7198687E0,1.5096016E0,0E0,3.8314586E0,0E0,3.7610688E0,1.2981765E0,1.6854098E0,0E0,1.0175171E0,0E0,0E0,0E0,1.7334198E0,0E0,4.2541127E0,0E0,0E0,0E0,1.8356781E1,3.9689228E1,2.0261108E1,1.8512432E1,1.6402668E1,1.6427784E0,4.8771567E0,0E0,4.682169E0,4.7215476E0,2.120096E1,0E0,8.27648E0,2.1965322E0,1.7100449E0,2.554377E0,0E0,0E0,1.4675412E0,0E0,0E0,1.9283888E0,0E0,1.0523262E0,3.711667E1,4.4778755E1,7.0796843E0,3.9275093E0,7.503372E0,3.5907378E0,6.207547E0,1.9720917E1,2.0855658E1,0E0,3.582757E0,1.4839313E0,3.610777E0,0E0,0E0,0E0,4.4191465E0,1.4840524E0,1.9180689E0,2.9573646E0,2.6217766E0,0E0,5.8560348E0,8.96133E0,0E0,0E0,0E0,0E0,3.7935581E0,0E0,7.1958475E0,3.4095662E0,1.8869667E0,0E0,0E0,0E0,0E0,1.8982856E0,7.222912E0,3.5259764E0,1.6787224E0,0E0,1.8974915E0,0E0,0E0,0E0,6.672001E0,0E0,1.3751631E0,2.721385E0,3.1140237E0,5.803843E0,5.056158E0,2.2347221E0,0E0,0E0,6.583599E0,4.112406E0,0E0,2.2725754E0,9.355989E0,1.1750557E1,2.4762363E0,0E0,9.579086E0,1.6186928E1,0E0,4.581378E0,1.2825317E1,5.1462655E0,5.261176E0,0E0,4.4656193E1,5.3296204E1,0E0,4.8732452E0,2.7186522E0,0E0,1.2663879E1,5.086519E0,4.7390823E0,1.1242772E1,9.885007E0,7.7401295E0,6.889872E0,5.9622E0,1.8757645E1,8.15229E0,5.8260555E0,4.9987984E0,6.276333E0,4.5622816E0,1.4102173E0,0E0,3.3902946E0,0E0,1.1411924E0,0E0,1.7629318E1,1.3105179E1,1.1402107E1,1.3939938E1,2.5827389E0,1.8098801E0,2.4198706E0,3.2457378E0,8.413635E0,4.5211E0,0E0,0E0,0E0,0E0,2.0455536E1,1.4678017E1,4.210287E0,3.9008179E0,1.32898245E1,1.0844109E1,3.2767057E0,4.3931046E0,1.3689636E1,4.321678E0,0E0,0E0,1.383601E1,9.935101E0,3.7571182E0,0E0,0E0,0E0,0E0,0E0,0E0,0E0,0E0,0E0,0E0,0E0,0E0,0E0,0E0,0E0,0E0,0E0,0E0,0E0,0E0,0E0,0E0,0E0,0E0,0E0,0E0,0E0,0E0,0E0,0E0,0E0,0E0,0E0,0E0,0E0,0E0,0E0,0E0,0E0,0E0,0E0,0E0,0E0,0E0,0E0,0E0,0E0,0E0,0E0,0E0,0E0,0E0,0E0,0E0,0E0,0E0,0E0,0E0,0E0,0E0,0E0,0E0,0E0,0E0,0E0,0E0,0E0,0E0,0E0,0E0,0E0,0E0,0E0,0E0,0E0,0E0,0E0,0E0,0E0,0E0,0E0,0E0,0E0,0E0,0E0,0E0,0E0,0E0,0E0,0E0,0E0,0E0,0E0,0E0,0E0,0E0,0E0,0E0,0E0,0E0,0E0,0E0,0E0,0E0,0E0,0E0,0E0,0E0,0E0,0E0,0E0,0E0,0E0,0E0,0E0,0E0,0E0,0E0,0E0,0E0,0E0,0E0,0E0,0E0,0E0,0E0,0E0,0E0,0E0,0E0,0E0,0E0,0E0,0E0,0E0,0E0,0E0,0E0,0E0,0E0,0E0,0E0,0E0,0E0,0E0,0E0,0E0,0E0,0E0,0E0,0E0,0E0,0E0,0E0,0E0,0E0,0E0,0E0,0E0,0E0,0E0,0E0,0E0,0E0,0E0,0E0,0E0,0E0,0E0,0E0,0E0,0E0,0E0,0E0,0E0,0E0,0E0,0E0,0E0,0E0,0E0,0E0,0E0,0E0,0E0,0E0,0E0,0E0,0E0,0E0,0E0,0E0,0E0,0E0,0E0,0E0,0E0,0E0,0E0,0E0,0E0,0E0,0E0,0E0,0E0,0E0,0E0,0E0,0E0,0E0,0E0,0E0,0E0,0E0,0E0,0E0,0E0,0E0,0E0,0E0,0E0,0E0,0E0,0E0,0E0,0E0,0E0,0E0,0E0,0E0,0E0,0E0,0E0,0E0,0E0,0E0,0E0],"parents":[2147483647,0,0,1,1,2,2,3,3,4,4,5,5,6,6,7,7,8,8,9,9,10,10,11,11,12,12,13,13,14,14,15,15,16,16,17,17,18,18,19,19,20,20,21,21,22,22,23,23,24,24,25,25,26,26,27,27,28,28,29,29,30,30,31,31,33,33,34,34,35,35,36,36,37,37,38,38,39,39,40,40,41,41,42,42,43,43,44,44,45,45,46,46,47,47,48,48,49,49,50,50,51,51,52,52,53,53,54,54,55,55,56,56,57,57,58,58,59,59,60,60,61,61,62,62,65,65,66,66,67,67,68,68,69,69,70,70,71,71,72,72,75,75,76,76,77,77,78,78,79,79,80,80,81,81,82,82,83,83,84,84,85,85,86,86,87,87,88,88,89,89,90,90,91,91,92,92,93,93,94,94,95,95,96,96,97,97,98,98,99,99,100,100,101,101,103,103,104,104,105,105,106,106,107,107,108,108,109,109,110,110,111,111,112,112,113,113,114,114,115,115,116,116,117,117,118,118,119,119,120,120,121,121,122,122,123,123,124,124,125,125,126,126,127,127,129,129,130,130,133,133,137,137,139,139,140,140,142,142,145,145,146,146,147,147,148,148,149,149,150,150,151,151,152,152,153,153,155,155,157,157,158,158,161,161,163,163,164,164,165,165,166,166,167,167,168,168,169,169,173,173,174,174,175,175,177,177,178,178,179,179,181,181,182,182,183,183,184,184,185,185,189,189,190,190,193,193,194,194,195,195,196,196,197,197,199,199,200,200,201,201,202,202,203,203,204,204,205,205,206,206,207,207,208,208,209,209,210,210,211,211,213,213,214,214,215,215,216,216,217,217,218,218,219,219,220,220,221,221,222,222,223,223,224,224,225,225,226,226,227,227,228,228,230,230,231,231,232,232,233,233,234,234,235,235,236,236,237,237,238,238,239,239,240,240,241,241,243,243,245,245,246,246,247,247,249,249,253,253,255,255,259,259,260,260,261,261,262,262,263,263,264,264,265,265,267,267,268,268,269,269,271,271,272,272,273,273,274,274,277,277,280,280,282,282,283,283,284,284,285,285,286,286,287,287,288,288,289,289,290,290,291,291,293,293,294,294,295,295,299,299,300,300,301,301,302,302,303,303,305,305,306,306,311,311,313,313,314,314,315,315,320,320,321,321,322,322,323,323,325,325,329,329,331,331,332,332,333,333,334,334,335,335,336,336,339,339,340,340,342,342,343,343,344,344,345,345,347,347,348,348,350,350,351,351,352,352,353,353,355,355,356,356,358,358,359,359,361,361,362,362,363,363,364,364,365,365,366,366,367,367,368,368,369,369,370,370,371,371,372,372,373,373,374,374,375,375,377,377,379,379,381,381,382,382,383,383,384,384,385,385,386,386,387,387,388,388,389,389,390,390,395,395,396,396,397,397,398,398,399,399,400,400,401,401,402,402,403,403,404,404,407,407,408,408,409,409],"right_children":[2,4,6,8,10,12,14,16,18,20,22,24,26,28,30,32,34,36,38,40,42,44,46,48,50,52,54,56,58,60,62,64,-1,66,68,70,72,74,76,78,80,82,84,86,88,90,92,94,96,98,100,102,104,106,108,110,112,114,116,118,120,122,124,-1,-1,126,128,130,132,134,136,138,140,-1,-1,142,144,146,148,150,152,154,156,158,160,162,164,166,168,170,172,174,176,178,180,182,184,186,188,190,192,194,-1,196,198,200,202,204,206,208,210,212,214,216,218,220,222,224,226,228,230,232,234,236,238,240,242,244,-1,246,248,-1,-1,250,-1,-1,-1,252,-1,254,256,-1,258,-1,-1,260,262,264,266,268,270,272,274,276,-1,278,-1,280,282,-1,-1,284,-1,286,288,290,292,294,296,298,-1,-1,-1,300,302,304,-1,306,308,310,-1,312,314,316,318,320,-1,-1,-1,322,324,-1,-1,326,328,330,332,334,-1,336,338,340,342,344,346,348,350,352,354,356,358,360,-1,362,364,366,368,370,372,374,376,378,380,382,384,386,388,390,392,-1,394,396,398,400,402,404,406,408,410,412,414,416,-1,418,-1,420,422,424,-1,426,-1,-1,-1,428,-1,430,-1,-1,-1,432,434,436,438,440,442,444,-1,446,448,450,-1,452,454,456,458,-1,-1,460,-1,-1,462,-1,464,466,468,470,472,474,476,478,480,482,-1,484,486,488,-1,-1,-1,490,492,494,496,498,-1,500,502,-1,-1,-1,-1,504,-1,506,508,510,-1,-1,-1,-1,512,514,516,518,-1,520,-1,-1,-1,522,-1,524,526,528,530,532,534,-1,-1,536,538,-1,540,542,544,546,-1,548,550,-1,552,554,556,558,-1,560,562,-1,564,566,-1,568,570,572,574,576,578,580,582,584,586,588,590,592,594,596,-1,598,-1,600,-1,602,604,606,608,610,612,614,616,618,620,-1,-1,-1,-1,622,624,626,628,630,632,634,636,638,640,-1,-1,642,644,646,-1,-1,-1,-1,-1,-1,-1,-1,-1,-1,-1,-1,-1,-1,-1,-1,-1,-1,-1,-1,-1,-1,-1,-1,-1,-1,-1,-1,-1,-1,-1,-1,-1,-1,-1,-1,-1,-1,-1,-1,-1,-1,-1,-1,-1,-1,-1,-1,-1,-1,-1,-1,-1,-1,-1,-1,-1,-1,-1,-1,-1,-1,-1,-1,-1,-1,-1,-1,-1,-1,-1,-1,-1,-1,-1,-1,-1,-1,-1,-1,-1,-1,-1,-1,-1,-1,-1,-1,-1,-1,-1,-1,-1,-1,-1,-1,-1,-1,-1,-1,-1,-1,-1,-1,-1,-1,-1,-1,-1,-1,-1,-1,-1,-1,-1,-1,-1,-1,-1,-1,-1,-1,-1,-1,-1,-1,-1,-1,-1,-1,-1,-1,-1,-1,-1,-1,-1,-1,-1,-1,-1,-1,-1,-1,-1,-1,-1,-1,-1,-1,-1,-1,-1,-1,-1,-1,-1,-1,-1,-1,-1,-1,-1,-1,-1,-1,-1,-1,-1,-1,-1,-1,-1,-1,-1,-1,-1,-1,-1,-1,-1,-1,-1,-1,-1,-1,-1,-1,-1,-1,-1,-1,-1,-1,-1,-1,-1,-1,-1,-1,-1,-1,-1,-1,-1,-1,-1,-1,-1,-1,-1,-1,-1,-1,-1,-1,-1,-1,-1,-1,-1,-1,-1,-1,-1,-1,-1,-1,-1,-1,-1,-1,-1,-1,-1,-1,-1],"split_conditions":[1E0,1.8470065E3,2.2237012E3,2E0,1E0,2E0,1.391062E4,2.01E2,1E0,4E0,1E0,1E0,1.5671818E3,3E0,1E0,1.15E2,7E1,1.7323184E3,2.019E3,1E0,1.0071788E4,3.5013481E3,3.3875828E3,1E0,1E0,2.019E3,1E0,1E0,8.328292E3,1E0,1E0,9E1,-1.0646451E-3,1.29E2,8.65E-1,7.8E1,1E0,1E0,1E0,2.2E1,5.040245E4,5.315397E3,1E0,1E0,2.3E1,1.32E2,8.660444E3,1E0,1.6E1,1.54E2,9.1E1,4E0,1E0,1E0,1E0,1E0,2.6581375E3,2.019E3,1.3265494E4,1.37E2,1.6E1,8.5871055E4,4.6761984E4,-6.0513027E-2,-3.435969E-3,1.8E1,1E0,1E0,1E0,1.91E2,1E0,1.62E2,1E0,-5.8074128E-2,6.4398944E-3,1.2E1,9.3E1,2.019E3,1E0,2.018E3,9.4E1,2.018E3,1E0,9.93E-2,1E0,1.22E2,2.514045E3,7.875406E4,8.540135E3,1.23E2,5.34E-1,4.3145063E3,1.51E2,1E0,9.15E-3,1.44E2,4.2E1,9.54E-1,1E0,1.01E2,1.81E-1,1.92E2,1.9214662E-2,1E0,1E0,1E0,7.5E1,6E1,1E0,1.5E1,5.3E1,3.34E-1,3E0,3.3488926E3,4.2E1,5.7E1,1.11E2,7.626254E4,1.8E1,1E0,3.7E1,3E0,1.09E2,9.3E1,1.52E2,1E0,1.09E2,1E0,-2.88894E-2,5.4E1,1.88E2,-1.107632E-2,4.0452037E-2,1.91E2,2.541681E-4,4.2151403E-2,-2.6046256E-2,6.7E1,8.944564E-3,2.019E3,2.02E3,5.166985E-2,1.8E1,-3.595195E-2,1.6752334E-2,4.2086914E4,3.3E1,1E0,1E0,7E0,1.3011826E4,1E0,1E0,2.514045E3,-5.27143E-2,1.1E-1,6.107555E-2,6.47E-1,3.32E-1,-1.6237721E-3,5.0533187E-2,2.5664307E3,6.3618526E-2,2.019E3,3.0241616E3,2.018E3,4.9E1,2.02E3,1.6E2,1.69E2,4.463274E-3,1.4987926E-2,-2.0785557E-2,1.04E2,1E0,1.46E2,-2.5232192E-2,2E2,9.5E1,6.4E1,-3.6876503E-2,9E0,7.34E-1,1.42E2,1E0,1.38E2,-6.7877932E-3,1.9762387E-2,-1.4776394E-2,1.6E2,2.1E1,-4.2029887E-2,5.444904E-3,1.55E2,4.77E-1,2.6E1,1.7E1,3.83E-1,-6.251022E-2,1.1E1,5.22E-2,1E0,1.72E-1,5.93E-1,1E0,5.2E1,1E0,1.34E2,1.03391E4,6.37527E3,2.2E1,8.5E1,-3.804261E-2,3E0,1E0,1E0,1E1,1E0,1.6E-1,2.02E3,1.56E2,1.13E2,5.6E1,5.8E1,3.6E1,8E1,6.4E1,4.1E1,8E0,-4.108967E-2,5.1E1,2.019E3,2.27E-2,1.26E2,1E0,3.8E1,1.41E2,6E1,4.8E1,1E0,7.22E-1,1.77E2,6.7412346E-3,1E0,-1.926487E-2,8.05E-1,8.64E-2,3.03E-1,-1.5178144E-2,1.96E2,-2.1537298E-3,-5.8701713E-2,-4.2729154E-3,1.3E1,-5.2456893E-2,1.7603724E3,-2.5510486E-2,2.1477198E-2,-1.0237923E-2,7.3E1,6.863358E4,8.4E1,1.3382268E4,2.30027E3,1.23E2,4.8063535E3,-6.069528E-2,4.1E1,4.0508402E4,1.0660871E4,-5.905431E-2,9.492181E4,6.5E1,6.586183E4,6E0,-1.0987079E-2,3.0797206E-2,6.9E-1,-3.4916155E-2,-2.9661959E-2,2.32E-1,4.9323607E-3,2.2E1,3.68E-1,2.6127283E3,2.018E3,4.98E-1,1E0,8.35E-1,4.744966E4,1.2747163E4,1E0,5.046583E-2,3E0,1.12E2,1.28E2,-1.9630535E-2,5.4635156E-2,8.497569E-4,2.4E1,1E0,5.4E1,7.4E1,9.947405E4,-1.5092934E-2,4.77E-1,1.11E2,-2.6356686E-2,7.561394E-3,-1.8609034E-2,1.7570391E-2,2.35E-1,2.1480791E-2,1E0,1E0,9E0,-1.4169783E-3,1.4840037E-2,-2.8699173E-2,5.815824E-2,3.2E1,1.9496654E3,2E0,1E0,1.2994592E-2,1.95E2,1.7880994E-3,-2.4886394E-2,2.1648843E-2,3E-1,-2.9600263E-2,5.8E1,3.4E1,1E0,8.6E1,5E0,1E0,-2.0260643E-3,5.9871946E-2,3.4E1,4.3E1,-1.9617856E-2,2.4E1,1.693941E3,1.1E1,8.2E1,-2.408191E-2,6E0,1E0,-5.2396193E-2,1.6E1,9.084469E3,4.45E-1,4.5E1,2.5207262E-2,2.02E3,1E0,-5.8335565E-2,1E0,8.7E-1,-2.3230776E-2,3.6255413E3,8E0,1E2,3E0,1E0,1.44E2,1.3E1,1.21E2,2E0,3E0,7.48E-1,3.2E1,1.9E1,1.0543351E4,1E0,-1.1333378E-3,1E0,1.9829929E-2,1.02E2,4.1406382E-2,2.019E3,2.3E1,2E0,2.9E1,3E0,5.1792184E4,1E0,5.6E1,7.7E1,1.2E1,-4.3551683E-2,1.6504081E-2,3.353674E-2,-5.817502E-3,1.83E2,1.8286883E4,1E0,6.586183E4,1.0414166E5,1E0,6.74E-1,1E0,1E0,8.9E1,-4.550678E-2,1.2262253E-4,4E1,1.6E1,1.4E2,-1.9191204E-2,-2.8180424E-2,-9.1704065E-3,-1.3028947E-2,2.644649E-2,-5.747385E-2,-1.5440506E-2,3.3331756E-2,-2.0856403E-2,-3.541119E-2,1.3951072E-2,-9.279845E-3,2.3776961E-2,2.7789986E-2,-7.6309545E-3,-6.426506E-2,-1.3018613E-2,4.629859E-3,-2.6535278E-2,-2.3186058E-2,2.1467177E-2,-3.4938812E-2,-1.29548265E-2,-5.4726033E-3,-4.3215793E-2,-4.486758E-2,-2.3775654E-2,-8.519821E-3,-4.2089175E-2,-4.4587232E-2,2.2079237E-2,-4.4676255E-2,2.8371958E-3,1.7129553E-2,-3.6637396E-2,3.7310157E-2,-1.4935083E-2,-2.3294855E-2,1.9704787E-2,-3.0986693E-2,2.1155518E-2,1.773004E-2,-1.8609473E-2,-4.0480264E-2,8.312643E-3,5.4271113E-2,5.31288E-3,-2.298731E-2,2.7874224E-2,-1.584017E-2,2.3036074E-2,2.2251893E-2,-1.40342675E-2,-6.1688725E-2,-7.016239E-3,2.4185596E-2,-3.275951E-2,4.5281548E-2,-5.8361185E-3,-6.729264E-3,3.3892654E-2,1.1014172E-3,-3.1356283E-2,5.9448548E-2,-1.512637E-2,-2.4214014E-2,2.5868831E-2,-1.3537437E-2,1.3818261E-2,-2.3006983E-2,-3.8871385E-2,-1.576492E-2,3.007267E-2,-2.1505801E-2,2.3180503E-2,-3.561993E-2,4.5137876E-3,4.3398727E-2,-1.3102007E-2,4.6507977E-2,-1.0528609E-2,-3.3127505E-2,7.908684E-3,-3.7021607E-2,4.408819E-3,2.8894672E-2,-2.0404842E-2,4.298979E-2,4.20944E-3,-4.181012E-2,1.2103676E-2,3.0791223E-2,-1.4300064E-2,-4.9832255E-2,-2.8648286E-3,-2.0093724E-2,1.1177159E-2,8.080135E-3,-1.5386651E-2,-6.0716096E-2,-2.2516742E-3,-1.8081076E-2,2.5859775E-2,3.2120515E-2,-2.3473952E-2,-2.91199E-2,1.8189264E-2,-3.4186818E-2,3.956969E-3,-5.6632247E-2,-2.7040024E-3,4.3621685E-2,-2.1171216E-2,-4.5144554E-2,1.644931E-3,2.2207193E-2,-2.2652835E-2,-4.4502467E-2,7.433276E-3,4.126102E-2,-2.6453447E-2,-1.4047542E-2,1.3570406E-2,7.697224E-5,6.107084E-2,-4.8993926E-2,-8.09419E-3,3.771686E-2,-2.190344E-2,-3.8217728E-3,4.490536E-2,1.4405975E-3,-2.1954162E-2,-4.817832E-2,-1.14124045E-2,4.486791E-2,1.1481518E-2,2.8665591E-2,-4.9550715E-3,-2.2151321E-2,1.8895788E-2,3.437817E-2,-2.28871E-2,3.7617788E-2,4.76147E-2,1.554407E-2,-2.3491008E-2,-4.307667E-2,1.1860219E-2,1.1516932E-2,-2.6250688E-2,2.2373674E-2,5.274427E-2,-3.4375552E-2,7.4992697E-3,3.2852843E-2,-1.3386497E-2,1.9508423E-2,5.5967193E-2,1.8996015E-2,-2.3830721E-2,5.8716893E-2,7.8257924E-4,-2.852432E-2,1.6804757E-2,-1.747209E-2,3.5738844E-2,3.408809E-2,-2.3934664E-2,6.7594144E-3,4.562362E-2,5.2952208E-2,1.1900543E-2,-3.4436997E-2,2.5360072E-2,1.9517077E-2,-3.6428735E-2,2.1581925E-2,-1.5468089E-2,7.781268E-3,-2.6665311E-2,7.571934E-3,4.1316207E-2,2.2616624E-3,2.3384903E-2,5.5489413E-2,2.282682E-2,6.1400735E-4,-4.107181E-2,-2.3538303E-2,1.0489049E-2,3.442941E-2,1.834647E-2,4.6122275E-2,-5.92185E-3,-5.199259E-2,2.6122075E-2,3.741573E-2,-3.7492838E-2,-4.9253244E-2,5.6964895E-3,1.5717246E-2,-2.4863318E-2,-1.1634573E-2,3.4748137E-2,-3.5088662E-2,1.3848246E-2,5.9204437E-2,-2.2080887E-2,-4.0017605E-2,2.3844853E-2,-6.760922E-3,3.6078468E-2,7.1483487E-3,-3.0542789E-2,2.502801E-2,-3.0393068E-2,-6.315196E-2,-1.2212114E-2,-2.0608386E-2,4.4454876E-3,5.3161323E-2,-8.5160125E-4,-3.967309E-2,1.1409657E-2,6.287982E-2,7.007462E-3,3.1787854E-2,-4.0666644E-2,-3.772274E-2,7.7522555E-3,-3.5622567E-2,-1.5197854E-3,-7.100427E-3,2.8792929E-2,4.399011E-2,-1.3815935E-2],"split_indices":[99,87,87,101,97,101,87,81,20,6,8,100,87,63,92,20,63,87,102,100,87,87,87,92,92,102,92,100,87,97,100,3,0,55,68,51,97,31,97,55,87,87,19,92,30,63,87,57,55,32,1,100,97,63,100,92,87,102,87,6,14,87,87,0,0,1,30,92,97,19,92,8,92,0,0,20,57,102,9,102,30,102,92,70,100,42,87,87,87,41,68,87,37,8,70,81,32,68,43,55,73,59,0,100,92,51,27,27,9,8,55,70,55,87,35,25,57,87,18,51,38,55,30,15,57,100,55,97,0,30,63,0,0,32,0,0,0,41,0,102,102,0,82,0,0,87,43,43,14,101,87,55,41,87,0,73,0,67,68,0,0,87,0,102,87,102,50,102,63,13,0,0,0,81,41,20,0,81,6,62,0,50,67,20,20,63,0,0,0,57,19,0,0,50,68,30,22,68,0,1,70,9,70,68,31,43,3,51,87,87,1,58,0,50,92,100,37,92,70,102,57,43,8,15,23,25,43,42,101,0,44,102,70,3,97,7,9,81,18,77,67,15,0,15,0,67,73,70,0,3,0,0,0,81,0,87,0,0,0,8,87,8,87,87,62,87,0,33,87,87,0,87,44,87,101,0,0,67,0,0,73,0,82,67,87,102,68,41,67,87,87,41,0,101,62,58,0,0,0,82,83,35,62,87,0,68,38,0,0,0,0,73,0,63,78,3,0,0,0,0,30,87,100,63,0,20,0,0,0,73,0,82,18,20,65,101,10,0,0,18,43,0,58,87,101,27,0,82,41,0,50,87,68,58,0,102,40,0,38,67,0,87,82,57,100,10,55,58,57,23,17,67,8,63,87,92,0,22,0,30,0,102,63,100,38,100,87,100,31,23,101,0,0,0,0,3,87,83,87,87,97,68,63,42,40,0,0,3,43,13,0,0,0,0,0,0,0,0,0,0,0,0,0,0,0,0,0,0,0,0,0,0,0,0,0,0,0,0,0,0,0,0,0,0,0,0,0,0,0,0,0,0,0,0,0,0,0,0,0,0,0,0,0,0,0,0,0,0,0,0,0,0,0,0,0,0,0,0,0,0,0,0,0,0,0,0,0,0,0,0,0,0,0,0,0,0,0,0,0,0,0,0,0,0,0,0,0,0,0,0,0,0,0,0,0,0,0,0,0,0,0,0,0,0,0,0,0,0,0,0,0,0,0,0,0,0,0,0,0,0,0,0,0,0,0,0,0,0,0,0,0,0,0,0,0,0,0,0,0,0,0,0,0,0,0,0,0,0,0,0,0,0,0,0,0,0,0,0,0,0,0,0,0,0,0,0,0,0,0,0,0,0,0,0,0,0,0,0,0,0,0,0,0,0,0,0,0,0,0,0,0,0,0,0,0,0,0,0,0,0,0,0,0,0,0,0,0,0,0,0,0,0,0,0,0,0,0,0,0,0,0,0,0,0,0,0,0],"split_type":[0,0,0,0,0,0,0,0,0,0,0,0,0,0,0,0,0,0,0,0,0,0,0,0,0,0,0,0,0,0,0,0,0,0,0,0,0,0,0,0,0,0,0,0,0,0,0,0,0,0,0,0,0,0,0,0,0,0,0,0,0,0,0,0,0,0,0,0,0,0,0,0,0,0,0,0,0,0,0,0,0,0,0,0,0,0,0,0,0,0,0,0,0,0,0,0,0,0,0,0,0,0,0,0,0,0,0,0,0,0,0,0,0,0,0,0,0,0,0,0,0,0,0,0,0,0,0,0,0,0,0,0,0,0,0,0,0,0,0,0,0,0,0,0,0,0,0,0,0,0,0,0,0,0,0,0,0,0,0,0,0,0,0,0,0,0,0,0,0,0,0,0,0,0,0,0,0,0,0,0,0,0,0,0,0,0,0,0,0,0,0,0,0,0,0,0,0,0,0,0,0,0,0,0,0,0,0,0,0,0,0,0,0,0,0,0,0,0,0,0,0,0,0,0,0,0,0,0,0,0,0,0,0,0,0,0,0,0,0,0,0,0,0,0,0,0,0,0,0,0,0,0,0,0,0,0,0,0,0,0,0,0,0,0,0,0,0,0,0,0,0,0,0,0,0,0,0,0,0,0,0,0,0,0,0,0,0,0,0,0,0,0,0,0,0,0,0,0,0,0,0,0,0,0,0,0,0,0,0,0,0,0,0,0,0,0,0,0,0,0,0,0,0,0,0,0,0,0,0,0,0,0,0,0,0,0,0,0,0,0,0,0,0,0,0,0,0,0,0,0,0,0,0,0,0,0,0,0,0,0,0,0,0,0,0,0,0,0,0,0,0,0,0,0,0,0,0,0,0,0,0,0,0,0,0,0,0,0,0,0,0,0,0,0,0,0,0,0,0,0,0,0,0,0,0,0,0,0,0,0,0,0,0,0,0,0,0,0,0,0,0,0,0,0,0,0,0,0,0,0,0,0,0,0,0,0,0,0,0,0,0,0,0,0,0,0,0,0,0,0,0,0,0,0,0,0,0,0,0,0,0,0,0,0,0,0,0,0,0,0,0,0,0,0,0,0,0,0,0,0,0,0,0,0,0,0,0,0,0,0,0,0,0,0,0,0,0,0,0,0,0,0,0,0,0,0,0,0,0,0,0,0,0,0,0,0,0,0,0,0,0,0,0,0,0,0,0,0,0,0,0,0,0,0,0,0,0,0,0,0,0,0,0,0,0,0,0,0,0,0,0,0,0,0,0,0,0,0,0,0,0,0,0,0,0,0,0,0,0,0,0,0,0,0,0,0,0,0,0,0,0,0,0,0,0,0,0,0,0,0,0,0,0,0,0,0,0,0,0,0,0,0,0,0,0,0,0,0,0,0,0,0,0,0,0,0,0,0,0,0,0,0,0,0,0,0,0,0,0,0,0,0,0,0,0,0,0,0,0,0,0,0,0,0,0,0,0],"sum_hessian":[3.8320195E4,1.60737E4,2.2246496E4,2.3965767E3,1.3677124E4,4.332268E3,1.7914229E4,1.0213051E3,1.3752715E3,8.328341E3,5.348783E3,1.5217283E3,2.8105398E3,1.1102753E4,6.811475E3,8.5840614E1,9.354645E2,1.289046E3,8.62254E1,7.8810635E3,4.4727753E2,4.941825E3,4.069581E2,1.0860944E3,4.3563388E2,9.126974E2,1.8978424E3,9.326562E3,1.7761918E3,3.0394797E3,3.7719954E3,8.223095E1,3.6096637E0,8.205647E2,1.1489981E2,1.0246079E3,2.6443814E2,4.5757042E1,4.0468365E1,7.0737876E3,8.0727545E2,2.9770364E2,1.4957388E2,1.6893417E3,3.2524832E3,1.3644191E2,2.7051617E2,5.500227E2,5.3607166E2,1.3118747E2,3.044464E2,6.1776776E2,2.949296E2,5.231998E2,1.3746426E3,7.269465E3,2.0570964E3,1.1288201E3,6.4737177E2,2.3870745E3,6.524052E2,2.4394893E3,1.3325061E3,7.9075356E1,3.1555946E0,7.6803625E2,5.252841E1,9.583309E1,1.9066715E1,1.00784845E3,1.6759468E1,1.3465128E2,1.2978688E2,4.139194E1,4.3651013E0,2.9430056E1,1.1038309E1,6.570131E3,5.0365686E2,4.4199197E2,3.6528348E2,5.7061775E1,2.4064186E2,1.14647026E2,3.492686E1,1.3161139E3,3.7322784E2,3.1306833E3,1.21799866E2,1.2867458E2,7.767343E0,1.17404945E2,1.5311124E2,4.3366763E2,1.1635509E2,4.6080966E2,7.526199E1,1.2292753E2,8.259942E0,2.8566196E2,1.8784449E1,6.0945996E2,8.30781E0,1.5651335E2,1.3841624E2,3.5519138E2,1.6800847E2,8.635829E2,5.1105972E2,4.3391963E3,2.9302683E3,5.2187973E1,2.0049084E3,4.9779498E2,6.310251E2,5.8256146E2,6.481027E1,2.2710596E3,1.1601508E2,6.146347E2,3.777046E1,1.7501815E3,6.893077E2,8.5382983E2,4.786763E2,6.926402E2,7.53961E1,4.4526493E1,8.001921E0,6.0302925E1,3.5530167E1,3.7118852E0,1.535483E1,1.00372424E3,4.1241884E0,1.0869937E1,5.8895316E0,1.2832722E2,6.32405E0,6.206309E1,6.7723785E1,1.6191154E1,1.3238901E1,7.7484217E0,3.2898872E0,2.8342861E3,3.7358447E3,4.122423E2,9.141455E1,1.3454773E2,3.0744424E2,2.7789203E2,8.739145E1,1.4094791E1,4.2966984E1,2.2808325E1,2.1783353E2,2.8133661E1,8.651336E1,6.059612E0,2.8867249E1,1.2565947E3,5.9519104E1,1.7409085E2,1.99137E2,2.583512E3,5.471714E2,5.339586E1,6.840401E1,1.2375525E2,4.919319E0,3.689589E0,4.077754E0,5.6026115E1,6.1378834E1,1.4667229E2,6.438948E0,4.09498E2,2.4169659E1,1.0476281E1,1.058788E2,6.164986E1,3.991598E2,5.5360046E1,1.9901943E1,1.19789474E2,3.1380537E0,3.7699306E0,4.490011E0,2.5935037E2,2.631158E1,1.5681773E1,3.102676E0,6.01432E2,8.027942E0,1.1866236E2,3.7851E1,4.7352844E1,9.106341E1,2.6571216E2,8.947921E1,1.3931981E2,2.8688662E1,8.0691925E2,5.666362E1,4.402571E2,7.08026E1,4.2827837E3,5.6412754E1,2.7851204E3,1.4514812E2,3.5844975E1,1.6343E1,1.7573878E3,2.4752066E2,2.2561078E2,2.721842E2,3.8722272E2,2.4380238E2,4.5853662E2,1.2402484E2,4.2200478E1,2.2609793E1,2.0426492E3,2.2841035E2,7.532192E1,4.0693157E1,5.888736E2,2.5761137E1,2.7583094E1,1.0187365E1,1.5721774E3,1.7800412E2,5.494823E2,1.3982536E2,8.344063E2,1.942352E1,4.1025983E2,6.841647E1,6.4994507E2,4.2695133E1,7.1646576E1,3.7495267E0,3.738087E1,7.1456223E0,4.4286938E1,1.6015987E1,3.0431793E1,5.0983744E0,9.99461E2,4.26324E0,1.2354223E2,4.784989E0,3.0015875E1,3.2047215E1,4.3729626E1,2.3994158E1,8.974728E0,4.2641735E0,2.1093535E3,7.249326E2,3.3795488E3,3.562958E2,3.8110992E2,3.1132406E1,2.5224644E1,6.618991E1,8.0798195E1,5.374954E1,2.1593579E2,9.150846E1,2.594601E2,1.8431913E1,7.883619E1,8.555264E0,3.7158077E0,1.03789835E1,8.762484E0,1.4045842E1,6.166764E0,2.1966898E1,8.776368E0,7.773699E1,5.2020056E2,7.363942E2,9.648442E1,7.760643E1,1.7757005E2,2.156694E1,5.206677E2,2.0628442E3,5.241089E2,2.3062466E1,3.394328E1,1.945258E1,6.3796143E1,4.6078644E0,1.2040524E2,3.3500047E0,4.1994366E1,1.4031748E1,3.9565E1,2.1813833E1,1.4317508E2,3.497218E0,3.2698322E1,3.7679965E2,2.0872015E1,3.2976434E0,3.5814917E0,6.8947897E0,5.4918633E1,6.7312307E0,2.2573409E2,1.734257E2,5.1297512E1,4.062534E0,1.0029453E1,9.87249E0,1.1121356E2,8.575917E0,2.3477693E2,2.457344E1,2.0013021E1,6.2985587E0,5.982601E2,3.1719682E0,3.6155224E0,4.41242E0,1.07497314E2,1.1165044E1,2.0895163E1,1.695584E1,1.9126305E1,2.8226538E1,2.0251663E2,6.3195534E1,4.487262E0,8.499195E1,1.2051876E2,1.8801052E1,8.452562E0,2.02361E1,5.314527E2,2.7546652E2,5.3127506E1,3.5361161E0,2.3841003E2,2.0184709E2,4.717711E1,2.3625488E1,4.223387E3,5.939621E1,4.9437077E1,6.975681E0,7.2771387E2,2.0574065E3,9.2561874E1,5.2586254E1,3.2483498E1,3.361476E0,1.7061506E3,5.1237186E1,1.3547281E2,1.12047844E2,1.5875821E2,6.685258E1,1.34061E2,1.381232E2,2.8958844E2,9.763426E1,1.6396646E2,7.9835915E1,2.0989291E2,2.486437E2,1.1638311E2,7.641736E0,3.51887E1,7.0117774E0,9.1572695E0,1.3452524E1,1.700763E3,3.4188623E2,1.0914443E2,1.19265915E2,6.4117035E1,1.1204892E1,2.278542E1,1.7907738E1,5.765414E2,1.233223E1,1.0869572E1,1.4891565E1,6.8482995E0,3.3390656E0,8.837383E2,6.8843915E2,1.724658E1,1.6075754E2,4.4517206E2,1.0431026E2,2.1560472E1,1.1826489E2,7.9751575E2,3.689055E1,1.6317093E1,3.1064262E0,2.5626456E2,1.5399525E2,6.0443535E1,7.972934E0,5.954599E2,5.448514E1,2.9413649E1,1.3281483E1,6.047334E1,1.117324E1,3.3522152E1,3.8587182E0,3.784521E1,6.441727E0,5.7841516E0,1.0231836E1,2.416099E1,6.270803E0,9.9367346E2,5.787544E0,1.3370491E1,1.6645384E1,9.920979E0,3.3808647E1,1.8708418E3,2.3851175E2,5.223709E2,2.0256174E2,3.0903313E3,2.8921765E2,2.0209886E2,1.5419696E2,1.488019E1,3.662297E2,2.7589846E1,3.5425606E0,1.0562148E1,1.4662496E1,7.395083E1,6.847365E0,4.013118E1,1.3618359E1,1.6619368E2,4.974212E1,2.2582236E2,3.363775E1,1.4515017E1,3.9168973E0,7.327335E1,5.562838E0,3.4223537E0,5.1329107E0,3.2810137E0,5.48147E0,1.5109936E1,6.856962E0,7.3991264E1,3.745728E0,6.5597755E1,4.5460278E2,1.001072E2,6.3628705E2,3.0765543E1,6.571888E1,5.244886E1,2.5157566E1,1.7251035E2,5.0597057E0,1.6152046E1,5.4148936E0,4.771513E2,4.3516453E1,1.4415625E3,6.2128174E2,4.705705E2,5.353842E1,7.7787585E0,2.6164518E1,1.4791091E1,4.6614885E0,6.0018208E1,3.7779355E0,3.57848E1,6.2095637E0,1.0443355E1,3.5883937E0,3.407994E1,5.48506E0,1.8145372E1,3.6684608E0,1.3160608E2,1.1569001E1,1.1981058E1,2.0717262E1,3.5529324E2,2.1506407E1,4.2625736E1,1.2292896E1,1.8057245E2,4.5161644E1,1.3682986E2,3.659584E1,4.7644062E1,3.6534522E0,3.7449937E0,4.830923E0,2.2607834E2,8.698601E0,1.6787903E1,7.785538E0,1.2759339E1,7.2536817E0,5.9409015E2,4.169919E0,1.0205495E2,5.4423666E0,1.7516241E1,3.3789198E0,1.0973739E1,5.982101E0,1.2398096E1,6.7282085E0,2.4364492E1,3.862046E0,3.9018982E1,1.6349765E2,3.3844457E0,5.9811085E1,8.996092E1,3.0557837E1,1.49979315E1,3.8031194E0,5.4674587E0,1.47686405E1,1.1529592E2,4.161568E2,2.103156E2,6.515094E1,1.9228724E1,3.389878E1,1.8111725E2,5.729278E1,1.2320324E2,7.8643845E1,1.8152239E1,5.47325E0,3.1818657E3,1.0415217E3,3.0356487E1,2.9039724E1,4.0844906E1,8.592168E0,4.7981018E2,2.4790367E2,1.6783295E3,3.790769E2,1.6969246E1,3.5617004E1,2.7800367E1,4.683131E0,6.156513E1,1.6445854E3,3.440584E1,1.6831345E1,1.273049E2,8.167912E0,7.039216E1,4.165568E1,1.436048E2,1.5153402E1,5.6518517E1,1.0334061E1,1.0788689E2,2.6174114E1,1.1030127E2,2.782193E1,2.6302786E2,2.6560595E1,8.74229E1,1.0211368E1,1.4204222E2,2.192425E1,3.7189686E1,4.264623E1,3.9225845E1,1.7066707E2,8.176835E1,1.6687537E2,9.4748215E1,2.1634893E1,1.8682365E1,1.6506334E1,3.999271E0,5.1579986E0,5.5514575E2,1.1456172E3,3.1532684E2,2.6559402E1,1.0203569E2,7.1087413E0,1.095297E2,9.736217E0,6.057455E1,3.5424807E0,7.5946465E0,3.610246E0,4.4033585E0,1.8382061E1,9.625138E0,8.282599E0,5.727323E2,3.8090367E0,7.721814E0,4.610416E0,8.26121E2,5.761727E1,5.7928738E1,6.305104E2,1.1211557E1,6.0350223E0,1.4859175E2,1.2165796E1,2.408357E2,2.0433636E2,7.873211E1,2.5578144E1,1.5323708E1,6.2367654E0,1.083727E2,9.892191E0,7.8863354E2,8.882201E0,2.1442944E1,1.5447604E1,1.4707693E2,1.0918763E2,7.791687E1,7.607839E1,5.6759384E1,3.6841533E0],"tree_param":{"num_deleted":"0","num_feature":"103","num_nodes":"647","size_leaf_vector":"1"}},{"base_weights":[-2.0017559E-3,-3.1153607E-1,2.2405206E-1,-4.4079673E-1,1.1743627E-1,-9.1078155E-2,3.0092385E-1,-3.065528E-1,-6.7294985E-1,5.812881E-1,-3.298346E-2,5.870152E-2,-2.1348533E-1,3.3965397E-1,-1.3271154E-1,-2.0863347E-1,-6.538297E-1,-7.119971E-1,-4.2046818E-1,7.283017E-1,4.1532838E-1,5.031566E-2,-5.099117E-1,1.7861056E-1,-2.164966E-1,-2.759785E-1,1.1356603E-1,4.2634445E-1,1.8314171E-1,-3.2780945E-1,2.0630372E-1,-4.307675E-1,-1.5684596E-1,-6.068591E-1,-6.414376E-2,-5.588448E-1,-7.632445E-1,-2.6030377E-1,-6.1369095E-2,-7.9762E-3,7.414164E-1,2.9314643E-1,5.882126E-1,-1.5632746E-1,1.7803909E-1,3.2792115E-1,-6.971327E-1,1.2030438E-1,5.694826E-1,-4.6241415E-1,-5.7807446E-2,-1.1368706E-1,-6.415689E-1,4.4429177E-1,-8.3491296E-2,4.791345E-1,1.536928E-1,7.115389E-2,3.177542E-1,-2.2540131E-1,-7.607046E-1,2.7865908E-1,-3.0139464E-1,-2.4176463E-1,-7.526001E-1,-1.3447279E-1,-6.304364E-1,-6.4080286E-1,-1.5146661E-1,-7.2327906E-1,-4.2978254E-1,-7.897387E-1,-5.045921E-1,-7.219367E-1,-1.1840635E-1,7.5205E-1,-7.7671963E-3,3.3575517E-1,-3.2725725E-2,6.0845447E-1,-8.223264E-3,-2.4000064E-2,-4.1652834E-1,2.5510114E-1,-1.6280018E-1,4.091903E-1,-2.6467804E-2,-7.179811E-1,-5.5054646E-2,1.8892083E-1,-2.0871133E-1,6.3827306E-1,-1.6097244E-2,-5.086153E-1,1.3310042E-1,-1.5650073E-1,2.390831E-1,-2.0821904E-1,1.5776835E-1,-6.9582814E-1,-2.1718441E-1,5.0843054E-1,-1.041111E-2,-2.3904087E-1,2.2617994E-1,6.2761134E-1,3.8149363E-1,-2.1706767E-2,4.591896E-1,2.0907982E-1,-4.681596E-1,7.0268285E-1,1.9157092E-1,-1.0676852E-1,-6.0028654E-1,-7.8730196E-1,-2.1792133E-3,3.1483138E-1,-3.8259208E-1,2.931516E-2,-4.3580416E-1,-1.2294119E-1,-7.700401E-1,-7.680483E-1,1.695851E-2,3.9237306E-2,-1.8774824E-1,3.12568E-1,-7.0130825E-1,-6.6472334E-1,-1.24627195E-1,6.020283E-2,-4.4545344E-1,-7.361594E-1,2.0553984E-2,-1.272784E-1,-5.435352E-1,-7.923345E-1,1.1951325E-2,-1.4954941E-1,-7.331073E-1,-5.5656265E-2,8.398944E-3,7.7219665E-2,-4.6080977E-1,7.600894E-1,-1.1595592E-3,5.8811146E-1,2.5379816E-1,6.346124E-1,4.0498096E-2,-6.190695E-2,5.374974E-1,-5.230643E-1,-5.1483016E-2,4.377598E-1,1.6330793E-1,2.4323341E-1,-2.911486E-1,5.091498E-1,-1.5184914E-1,-7.317055E-1,7.592727E-4,2.360087E-2,-3.0128295E-2,2.7870888E-1,-6.966963E-2,-3.695462E-1,2.9659443E-2,6.6770345E-1,2.469521E-2,-2.724232E-1,2.875045E-2,-1.2190154E-1,-5.8545405E-1,2.171956E-2,-1.6049854E-2,-2.3919922E-1,3.8526136E-1,3.957971E-1,-1.550592E-1,-6.3144945E-2,-3.7865004E-1,-1.4187434E-1,6.741618E-1,-7.09432E-1,3.0581014E-2,2.578401E-1,-4.9311367E-1,5.421181E-1,-1.0593402E-2,2.1733241E-2,-2.0116349E-1,-1.1807869E-1,-5.338585E-1,3.6603507E-1,-6.915189E-2,5.621006E-1,7.909592E-1,2.5705484E-1,5.4045326E-1,-1.8600579E-1,2.800359E-1,2.1919219E-1,5.941447E-1,3.9015356E-1,4.991186E-2,-6.013899E-1,-1.2100853E-1,7.1839666E-1,-4.2213127E-2,1.23326525E-1,4.464995E-1,-2.225822E-1,2.2447409E-1,-6.6211087E-1,7.0575676E-3,-5.889676E-2,-4.458429E-3,3.71898E-1,5.455706E-2,1.8124036E-2,-4.0561512E-2,-4.4870418E-2,-3.1076932E-2,-2.2743385E-2,-6.1608933E-2,-5.97737E-2,4.3566474E-3,-7.931369E-1,-2.9005937E-2,-1.8089712E-1,2.3592876E-1,-2.2809158E-1,3.1436333E-1,-3.3650042E-3,3.340332E-2,-7.3292285E-1,2.329929E-2,-6.7210174E-1,2.2167647E-2,2.9122002E-2,-2.1696934E-1,3.513108E-1,-1.5131937E-1,-5.069614E-1,5.6194193E-3,-7.5457686E-1,-7.9919964E-2,-2.4435927E-1,1.5386702E-2,-5.889067E-1,-1.8885525E-1,-7.981042E-1,-2.9658526E-1,4.789642E-1,-6.858786E-1,-7.5823957E-1,1.1353122E-2,-1.2714773E-1,2.1593787E-1,8.3201244E-2,-5.241534E-1,7.6772004E-1,7.220576E-3,1.5018666E-1,4.9334124E-2,2.8687462E-1,-2.1349771E-2,4.7510408E-2,-2.0668723E-3,1.7642578E-2,-1.4867411E-2,-2.5468592E-3,-3.3803427E-1,4.4470042E-2,-4.983758E-3,6.366358E-2,-5.662722E-1,3.1473303E-1,-3.095972E-1,4.585659E-1,-1.4771216E-1,6.7552996E-1,1.1709595E-1,-2.4499501E-1,3.4703273E-1,-4.942643E-1,-5.625033E-2,-3.284966E-3,5.580682E-1,-2.6878186E-2,9.522709E-3,-7.521196E-1,-2.3260465E-1,2.2854419E-1,5.1375885E-2,-1.6163808E-1,5.5600005E-1,-5.6963265E-1,8.882195E-2,3.8887873E-1,-2.8065246E-1,7.43526E-1,2.4890146E-1,2.2149866E-2,-1.8513948E-2,-3.310306E-2,1.0778509E-2,-3.5127228E-1,2.194105E-1,-6.243925E-1,1.7483974E-2,4.369695E-1,-3.3052725E-1,-2.5211556E-2,5.7487035E-1,5.149572E-1,-2.5603322E-2,-3.2378992E-1,2.2622637E-2,-2.4815915E-2,-3.9832658E-1,-4.6481925E-1,3.0499253E-1,7.125517E-3,-5.6133457E-2,-1.4158436E-2,7.2125316E-1,-2.1424791E-1,-7.1857864E-1,2.2404252E-2,-1.5459843E-2,-2.647461E-2,4.4529352E-1,-5.623321E-1,1.2313053E-2,6.861968E-2,5.909448E-1,-2.5295112E-2,9.256982E-3,-2.0641199E-1,4.0853858E-1,-4.381906E-2,4.385231E-3,5.5470586E-1,3.0487347E-2,-2.4252104E-2,3.1719156E-2,7.0341146E-1,3.952611E-1,7.996144E-1,-1.396546E-2,3.350179E-1,-6.758306E-2,7.188722E-1,3.972884E-1,6.7903535E-3,-5.241974E-1,-1.4695425E-1,3.836714E-1,3.9778653E-1,-1.7935702E-1,6.10624E-1,-2.6613856E-2,4.2803547E-1,-4.4394545E-2,-5.1622376E-2,5.790009E-1,-4.0380663E-1,-7.013629E-1,3.703139E-2,-4.779153E-1,7.2872174E-1,-1.9725263E-2,-3.2062907E-2,2.6726713E-2,2.7235445E-1,-8.293222E-2,6.746923E-1,2.2828414E-1,-7.8456655E-2,-3.767547E-1,2.9134682E-1,-2.9668408E-2,-6.928973E-1,-2.1260616E-3,1.856763E-1,4.610216E-1,-3.78619E-1,2.529335E-1,1.9768323E-1,-2.5933206E-2,2.681813E-2,-6.7100637E-3,-5.9414577E-2,-2.5908476E-2,-2.2459315E-2,2.6494639E-2,-4.9570523E-2,-3.9576734E-3,-4.849366E-3,3.230661E-2,3.899159E-3,-2.0031806E-2,4.231084E-2,-4.6883058E-2,-5.4547515E-2,-2.409066E-3,-5.008688E-2,-1.0104452E-2,3.0929106E-5,-3.6321696E-2,3.303288E-2,-9.774374E-3,-3.2171316E-2,1.1072484E-2,-4.901354E-2,-1.03134625E-2,-5.572709E-2,-6.349044E-4,2.1606069E-2,-2.6165444E-2,-2.2416783E-2,1.9748105E-2,-4.4321995E-2,2.986935E-3,-2.6150692E-2,5.122854E-3,-1.7931487E-2,-5.8623254E-2,-4.2777117E-2,-3.7023964E-4,-3.484427E-2,5.093651E-2,-1.048095E-2,-5.567323E-2,-5.6864202E-2,5.735231E-3,7.910943E-3,-3.395316E-2,-5.5893897E-3,2.7093247E-2,2.0786218E-2,-1.4302211E-2,-4.130585E-2,1.2918365E-2,5.655129E-2,5.026397E-3,-1.6061876E-2,2.9012548E-2,2.5000712E-2,-2.931286E-3,-5.5396855E-3,2.0333355E-2,-3.253713E-2,1.3327629E-2,2.5179585E-2,-1.4818732E-2,-4.2948198E-2,1.7710336E-2,-1.8179456E-2,3.628018E-2,-3.0826097E-2,1.8238213E-2,2.7666876E-2,4.3676365E-2,-2.4045939E-2,1.4626178E-2,5.465355E-2,1.12930555E-2,-8.105761E-4,1.7806755E-2,-2.8940476E-2,7.894125E-3,3.9556604E-2,7.2642555E-3,-6.1006956E-3,-4.3715388E-2,1.8029457E-2,-2.8008956E-2,5.3130157E-2,1.8529166E-2,-7.765956E-3,-5.5627707E-2,2.1234246E-2,-3.258684E-2,1.4119488E-2,4.7958914E-2,3.6055462E-3,-2.9877404E-2,4.7431756E-2,-7.5449026E-3,-4.793505E-2,9.232874E-3,2.952759E-2,-2.7220327E-2,-1.3966702E-2,4.434656E-2,1.9624203E-3,-3.4081675E-2,5.6340292E-2,-8.5515546E-4,-1.9360237E-2,3.419673E-2,-3.7739057E-2,1.2755318E-3,-1.0735934E-2,3.3201657E-2,8.021696E-3,-4.723744E-2,9.4925903E-4,4.3978278E-2,-2.8193833E-2,6.7372853E-3,4.886739E-2,-4.9884967E-3,4.14984E-2,-8.504674E-3,-3.0119931E-2,6.8705864E-3,3.2850187E-3,-1.2407458E-2,-3.214833E-2,5.5214064E-3,-4.2560708E-2,-1.1595406E-2,2.9033864E-2,-2.3587095E-2,-2.1312688E-2,1.4513867E-2,5.517057E-2,-4.182275E-3,1.4990833E-2,-3.0837001E-2,-5.3053714E-2,-1.1346799E-2,4.0107694E-2,-6.2424634E-3,-4.5324765E-2,-1.5387434E-4,2.3642141E-2,-1.6591268E-2,4.517927E-2,-1.2564982E-3,-2.4028668E-2,1.6807389E-2,3.979866E-2,-6.5685734E-3,4.463184E-2,5.391104E-4,2.4526853E-2,-1.813578E-2,5.3043135E-2,1.1433482E-2,4.0627928E-3,4.040447E-2,5.977659E-2,2.8056843E-2,2.1635562E-2,5.675788E-2,-1.3039424E-2,1.4011149E-2,5.4435574E-2,-4.587354E-2,3.039176E-2,-1.4990208E-2,9.252272E-3,-2.3886066E-2,-4.514636E-2,1.9181143E-2,2.8619785E-3,-3.8233943E-2,1.7595334E-2,4.175934E-2,-2.8863156E-2,3.4683976E-2,2.7874917E-2,-2.5230616E-2,4.5647256E-2,-4.930534E-3,2.6814302E-2,4.62398E-2,1.9899083E-2,-2.8313074E-2,5.0236296E-4,-2.576428E-2,5.083165E-2,-1.9325038E-2,-1.2379025E-2,-4.4978965E-2,-5.24273E-2,1.7278286E-2,1.4445846E-2,-1.659119E-2,-4.6832774E-2,-2.370553E-3,5.3867687E-2,2.7730557E-4,9.07888E-3,3.405941E-2,1.1906469E-3,-2.5680516E-2,6.3883266E-3,5.294752E-2,4.3050833E-3,3.3020463E-2,1.5417074E-2,-1.5249451E-2,-4.4539068E-2,-8.57801E-3,2.523135E-2,-3.1070722E-2,-5.216053E-2,6.0947514E-3,2.2673305E-2,-3.9343912E-2,3.6477253E-2,-1.2419466E-2,-3.5115443E-2,9.7804E-3,2.9137406E-2,-1.2463998E-2,2.9013023E-2,-1.1186411E-2],"categories":[],"categories_nodes":[],"categories_segments":[],"categories_sizes":[],"default_left":[0,0,0,0,0,0,0,0,0,0,0,0,0,0,0,0,0,0,0,0,0,0,0,0,0,0,0,0,0,0,0,0,0,0,0,0,0,0,0,0,0,0,0,0,