{"learner":{"attributes":{"best_iteration":"131","best_score":"0.23347247216386666","scikit_learn":"{\"_estimator_type\": \"classifier\"}"},"feature_names":["rank_andorra","rank_argentina","rank_australia","rank_austria","rank_belgium","rank_bolivia","rank_brazil","rank_bulgaria","rank_canada","rank_chile","rank_colombia","rank_costa_rica","rank_czech_republic","rank_denmark","rank_dominican_republic","rank_ecuador","rank_egypt","rank_el_salvador","rank_estonia","rank_finland","rank_france","rank_germany","rank_greece","rank_guatemala","rank_honduras","rank_hong_kong","rank_hungary","rank_iceland","rank_india","rank_indonesia","rank_ireland","rank_israel","rank_italy","rank_japan","rank_latvia","rank_lithuania","rank_luxembourg","rank_malaysia","rank_mexico","rank_morocco","rank_netherlands","rank_new_zealand","rank_nicaragua","rank_norway","rank_panama","rank_paraguay","rank_peru","rank_philippines","rank_poland","rank_portugal","rank_romania","rank_saudi_arabia","rank_singapore","rank_slovakia","rank_south_africa","rank_spain","rank_sweden","rank_switzerland","rank_taiwan","rank_thailand","rank_turkey","rank_united_arab_emirates","rank_united_kingdom","rank_united_states","rank_uruguay","rank_vietnam","af_danceability","af_energy","af_valence","af_tempo","af_acousticness","af_speechiness","af_instrumentalness","af_liveness","duration_ms","explicit","days_since_release","is_friday_release","track_in_viral50_at_obs","artist_prior_chart_count","artist_prior_unique_regions","artist_prior_best_rank","artist_prior_unique_tracks","multi_artist_flag","artist_country_ratio","artist_prior_success_in_target","target_population","target_avg_daily_streams","target_new_entry_rate_30d","target_continent_africa","target_continent_antarctica","target_continent_asia","target_continent_europe","target_continent_north_america","target_continent_oceania","target_continent_south_america","cultural_dist_min","cultural_dist_missing","same_language_flag","same_continent_flag","neighbor_entered_count","observation_month","observation_year"],"feature_types":["int","int","int","int","int","int","int","int","int","int","int","int","int","int","int","int","int","int","int","int","int","int","int","int","int","int","int","int","int","int","int","int","int","int","int","int","int","int","int","int","int","int","int","int","int","int","int","int","int","int","int","int","int","int","int","int","int","int","int","int","int","int","int","int","int","int","float","float","float","float","float","float","float","float","int","int","int","int","int","int","int","int","int","int","float","int","int","float","float","int","int","int","int","int","int","int","float","int","int","int","float","int","int"],"gradient_booster":{"model":{"cats":{"enc":[],"feature_segments":[],"sorted_idx":[]},"gbtree_model_param":{"num_parallel_tree":"1","num_trees":"182"},"iteration_indptr":[0,1,2,3,4,5,6,7,8,9,10,11,12,13,14,15,16,17,18,19,20,21,22,23,24,25,26,27,28,29,30,31,32,33,34,35,36,37,38,39,40,41,42,43,44,45,46,47,48,49,50,51,52,53,54,55,56,57,58,59,60,61,62,63,64,65,66,67,68,69,70,71,72,73,74,75,76,77,78,79,80,81,82,83,84,85,86,87,88,89,90,91,92,93,94,95,96,97,98,99,100,101,102,103,104,105,106,107,108,109,110,111,112,113,114,115,116,117,118,119,120,121,122,123,124,125,126,127,128,129,130,131,132,133,134,135,136,137,138,139,140,141,142,143,144,145,146,147,148,149,150,151,152,153,154,155,156,157,158,159,160,161,162,163,164,165,166,167,168,169,170,171,172,173,174,175,176,177,178,179,180,181,182],"tree_info":[0,0,0,0,0,0,0,0,0,0,0,0,0,0,0,0,0,0,0,0,0,0,0,0,0,0,0,0,0,0,0,0,0,0,0,0,0,0,0,0,0,0,0,0,0,0,0,0,0,0,0,0,0,0,0,0,0,0,0,0,0,0,0,0,0,0,0,0,0,0,0,0,0,0,0,0,0,0,0,0,0,0,0,0,0,0,0,0,0,0,0,0,0,0,0,0,0,0,0,0,0,0,0,0,0,0,0,0,0,0,0,0,0,0,0,0,0,0,0,0,0,0,0,0,0,0,0,0,0,0,0,0,0,0,0,0,0,0,0,0,0,0,0,0,0,0,0,0,0,0,0,0,0,0,0,0,0,0,0,0,0,0,0,0,0,0,0,0,0,0,0,0,0,0,0,0,0,0,0,0,0,0],"trees":[{"base_weights":[5.6820796E-3,-5.2552503E-1,1.5755916E0,-9.3908894E-1,1.1076432E0,1.4857042E0,1.8194405E0,-1.1162373E0,1.0817064E0,4.8315695E-1,1.3720282E0,1.298359E0,1.6114396E0,1.9682201E0,1.7094097E0,-1.2613356E0,-2.4465853E-2,6.680141E-1,1.5923636E0,6.915641E-2,1.6432341E0,9.920961E-1,1.5874959E0,1.171219E0,1.5343368E0,1.5186726E0,1.7493145E0,1.7606022E0,9.912317E-2,1.7212642E0,1.7864738E-2,-1.3561113E0,3.9144635E-1,-4.7956342E-1,8.8290095E-1,1.2349133E0,-7.2674304E-2,1.6726896E0,5.8254E-1,-4.6455455E-1,3.640002E-1,5.130376E-1,1.6983249E0,1.339865E0,7.2680223E-1,1.6065452E0,-9.384616E-2,7.938458E-1,1.3326787E0,1.5837467E0,3.9132088E-1,1.4482471E0,1.8027447E0,1.6024793E0,1.7926407E0,4.9525883E-2,9.5196955E-2,1.7491455E0,1.245487E0,-1.4398233E0,-4.676087E-1,8.0287E-1,-9.9244106E-1,-1.0413456E0,3.5060984E-1,-4.3851608E-1,1.1663924E0,1.3069072E0,-9.3333334E-2,-4.4278744E-1,7.554818E-1,5.866285E-1,1.7377687E0,-9.824292E-1,1.2760134E0,1.399057E0,-6.529852E-1,8.898676E-1,1.02615915E-1,-2.7299497E-2,6.808444E-2,1.7375277E0,2.5765926E-2,1.4209085E0,8.343177E-1,2.3847969E-1,1.0036491E0,1.9395484E-1,1.6317562E0,1.1011325E0,4.5374015E-1,-2.7087873E-1,1.3560165E0,1.6052581E0,-2.5723606E-2,-5.7238705E-2,1.4682829E0,1.5525402E0,1.2402694E0,1.8546835E0,1.1301904E0,1.651806E0,8.072079E-1,1.7987885E0,4.25616E-2,1.776109E0,1.2280396E0,1.6274548E0,5.297652E-1,-1.850784E0,-1.140701E0,-9.164194E-1,3.1988558E-1,1.0075504E0,-1.3154601E0,-1.3382235E0,1.2991418E0,5.0711747E-2,-1.3469422E0,-1.3905389E0,6.8418074E-1,-1.4462734E0,6.7014855E-1,1.5878659E-2,1.4282287E0,1.3963155E0,-2.327142E-1,-8.569086E-1,6.6371405E-1,-7.7292636E-2,1.008385E0,1.1341084E0,-6.872274E-2,1.5686742E0,9.523107E-2,4.0124162E-4,-9.148937E-2,1.0753954E-2,1.6836987E0,8.63702E-2,2.7971437E-2,-1.2358447E0,-1.4259173E-1,1.0450233E0,-7.327477E-2,-7.426804E-2,1.3996686E0,3.859544E-2,1.7704538E0,1.5694469E0,1.1424646E0,-4.0704402E-1,1.2645266E0,1.2863754E-1,9.299957E-2,1.0490211E0,-6.9402024E-2,1.5084957E0,-1.1484799E0,1.641601E0,-3.2986674E-2,1.2722908E0,2.0576872E-1,6.4983153E-1,-8.179757E-1,-4.7541816E-2,2.3114448E-2,1.3845028E0,2.4799654E-2,1.7695308E0,1.3529592E0,5.0314542E-2,9.008059E-2,1.5765284E0,7.863073E-1,1.2887322E0,-2.5969177E-2,1.4881994E0,1.9176213E0,8.711679E-2,5.9113747E-1,1.6739508E0,4.9525883E-2,7.829036E-2,-1.1604345E-2,1.8058417E0,5.1922172E-2,1.7862962E0,3.0204399E-2,-3.2986674E-2,1.5622468E0,1.7484081E0,4.5782175E-2,-8.227504E-3,7.0704624E-2,-9.3480356E-2,9.733839E-2,-6.754026E-2,-3.6658302E-2,8.9356275E-3,-6.14804E-2,-3.8109202E-2,3.9349966E-2,-1.5343207E-2,6.3877046E-2,-9.436555E-2,5.695281E-2,-7.856471E-2,5.1145493E-3,1.2902051E-2,8.921872E-2,2.989305E-2,-8.504542E-2,-7.0872925E-2,4.0360395E-2,-8.281864E-2,6.1131675E-2,1.9456701E-2,8.2974546E-2,-9.382198E-2,-2.8427714E-2,6.9207944E-2,-9.428572E-2,8.216456E-2,-3.673859E-2,7.7040754E-2,1.2354199E-2,7.760185E-2,3.1598654E-2,-7.054737E-2,6.5323286E-2,-5.5055417E-2,7.842713E-2,4.9127903E-2,-9.090909E-2,5.8867496E-2,-4.7541816E-2,7.341415E-2,1.2902051E-2,8.556707E-2,5.3573944E-2,9.338867E-2,6.17989E-2,7.2385906E-3,-6.938618E-2,3.505043E-2,-2.5691355E-2,-1.5385796E-2,5.734999E-2,1.9793138E-2,-6.9402024E-2,-1.0721478E-2,7.086966E-2,8.459954E-2,2.4082607E-2,9.3232915E-2,7.3140524E-2,3.1757977E-2,8.1496336E-2,7.79505E-2,3.8867485E-2,3.491255E-2,-7.440493E-2,1.06083E-2,7.243069E-2,-2.1898935E-3,6.2396403E-2,4.29567E-2,8.123581E-2,5.132853E-2,9.008059E-2,-2.9793544E-2,-9.1111116E-2,7.8291014E-2,9.640121E-2,7.3184475E-2,3.2192204E-2,3.5639297E-2,-9.090909E-2,4.2853907E-2,-2.3523396E-2,1.7872012E-3,-7.345744E-2,7.0497274E-2,1.0259821E-2,3.6598355E-2,-4.1055992E-2,7.78044E-2,9.4225585E-2,-1.9353824E-3,7.319221E-2,6.903965E-2,8.321841E-2,-3.0258838E-2,6.1648887E-2,6.606882E-2,-3.2986674E-2,-3.8547795E-2,5.446096E-2,-4.8555606E-3,9.0270035E-2,9.6927844E-2,5.9595164E-2,7.888269E-2,-1.6591195E-2,8.45618E-2,4.5782175E-2,9.080927E-2,7.273328E-2,7.073583E-2,9.0637445E-2,2.1150284E-2,9.021619E-2,6.787733E-2,9.4373986E-2],"categories":[],"categories_nodes":[],"categories_segments":[],"categories_sizes":[],"default_left":[0,0,0,0,0,0,0,0,0,0,0,0,0,0,0,0,0,0,0,0,0,0,0,0,0,0,0,0,0,0,0,0,0,0,0,0,0,0,0,0,0,0,0,0,0,0,0,0,0,0,0,0,0,0,0,0,0,0,0,0,0,0,0,0,0,0,0,0,0,0,0,0,0,0,0,0,0,0,0,0,0,0,0,0,0,0,0,0,0,0,0,0,0,0,0,0,0,0,0,0,0,0,0,0,0,0,0,0,0,0,0,0,0,0,0,0,0,0,0,0,0,0,0,0,0,0,0,0,0,0,0,0,0,0,0,0,0,0,0,0,0,0,0,0,0,0,0,0,0,0,0,0,0,0,0,0,0,0,0,0,0,0,0,0,0,0,0,0,0,0,0,0,0,0,0,0,0,0,0,0,0,0,0,0,0,0,0,0,0,0,0,0,0,0,0,0,0,0,0,0,0,0,0,0,0,0,0,0,0,0,0,0,0,0,0,0,0,0,0,0,0,0,0,0,0,0,0,0,0,0,0,0,0,0,0,0,0,0,0,0,0,0,0,0,0,0,0,0,0,0,0,0,0,0,0,0,0,0,0,0,0,0,0,0,0,0,0,0,0,0,0,0,0,0,0,0,0,0,0,0,0,0,0,0,0,0,0,0,0,0,0,0,0,0,0,0,0,0,0,0,0,0,0,0,0,0,0,0,0,0,0,0,0,0,0],"id":0,"left_children":[1,3,5,7,9,11,13,15,17,19,21,23,25,27,29,31,33,35,37,39,41,43,45,47,49,51,53,55,-1,57,-1,59,61,63,65,67,69,71,73,75,77,79,81,83,85,87,-1,89,91,93,95,97,99,101,103,-1,-1,105,107,109,111,113,115,117,119,121,123,125,-1,127,129,131,133,135,137,139,141,143,145,-1,-1,147,-1,149,151,153,155,157,159,161,163,165,167,169,-1,-1,171,173,175,177,179,181,183,185,-1,187,189,191,193,195,197,199,201,203,205,207,209,211,213,215,217,219,221,223,225,227,229,231,233,-1,235,237,-1,239,-1,-1,-1,-1,241,-1,-1,243,245,247,249,251,253,-1,255,257,259,261,263,265,-1,267,-1,269,271,273,-1,275,277,279,281,-1,-1,283,285,287,289,-1,-1,291,293,295,297,299,301,-1,303,305,-1,-1,-1,307,-1,309,-1,-1,311,313,-1,-1,-1,-1,-1,-1,-1,-1,-1,-1,-1,-1,-1,-1,-1,-1,-1,-1,-1,-1,-1,-1,-1,-1,-1,-1,-1,-1,-1,-1,-1,-1,-1,-1,-1,-1,-1,-1,-1,-1,-1,-1,-1,-1,-1,-1,-1,-1,-1,-1,-1,-1,-1,-1,-1,-1,-1,-1,-1,-1,-1,-1,-1,-1,-1,-1,-1,-1,-1,-1,-1,-1,-1,-1,-1,-1,-1,-1,-1,-1,-1,-1,-1,-1,-1,-1,-1,-1,-1,-1,-1,-1,-1,-1,-1,-1,-1,-1,-1,-1,-1,-1,-1,-1,-1,-1,-1,-1,-1,-1,-1,-1,-1,-1,-1,-1,-1,-1,-1,-1,-1,-1,-1],"loss_changes":[3.559641E4,2.1542043E4,2.3383398E2,9.111465E3,1.0633931E3,1.8377148E2,4.4143555E1,3.7066094E3,4.32354E2,9.212693E2,3.69042E2,9.34292E1,5.7680664E1,1.3867188E-1,2.6247559E1,3.2357734E3,1.1343204E3,4.7673315E2,7.3447266E1,2.2282373E2,3.0542847E1,1.5042908E2,1.935581E2,1.2487891E2,6.196167E1,5.395752E1,9.15625E0,7.796753E0,0E0,1.9855957E1,0E0,1.4522031E3,6.3898694E2,8.53533E2,3.4423724E2,1.4603247E2,1.5147003E2,5.901245E1,7.628634E1,1.778797E2,1.2526357E2,2.3106892E1,2.1395752E1,2.7860962E1,1.25904785E2,1.0196289E2,0E0,6.448578E1,5.4484863E1,4.8753662E1,7.9836914E1,4.7333008E1,1.7383545E1,1.5936035E1,6.870117E0,0E0,0E0,1.9831543E1,2.5225601E1,2.192293E3,5.95271E2,3.761853E2,2.0563211E2,3.642644E2,4.3019543E2,1.8286435E2,2.2764453E2,8.69187E1,0E0,1.5701306E2,9.04147E1,5.473359E1,1.9606445E1,1.830598E1,2.054773E1,1.187896E1,1.3617773E2,4.5306183E1,1.4012695E2,0E0,0E0,1.3411499E1,0E0,2.3418701E1,5.4117027E1,6.0124428E1,6.604169E1,9.260271E1,6.473389E1,4.969217E1,7.455661E1,1.1196465E1,5.4022705E1,4.117871E1,0E0,0E0,2.5313377E0,2.6487793E1,4.688159E1,9.050903E0,1.3006691E1,4.3980713E0,2.2175644E1,5.854004E0,0E0,1.6679688E1,5.170201E1,3.7144318E0,2.1531393E1,5.410547E2,8.8385645E2,3.680854E2,3.0986575E2,2.803767E2,1.0968196E2,7.539081E1,1.6838673E1,2.3062465E2,1.3067444E2,8.479857E1,1.780274E2,3.1252594E1,1.4532597E2,1.7360265E2,8.1486206E1,6.98009E1,6.601077E1,1.4913173E2,7.5810455E1,0E0,4.6855423E1,1.1116581E1,0E0,2.6781494E1,0E0,0E0,0E0,0E0,5.5758667E-1,0E0,0E0,4.5043335E1,7.724355E1,3.632135E1,2.702726E1,1.1278988E2,1.8853668E1,0E0,1.0276489E1,2.1275513E1,3.159851E1,3.2809402E1,1.4179825E1,6.152387E1,0E0,6.251758E1,0E0,1.8867607E0,8.6109085E0,5.7966797E1,0E0,3.19505E1,5.620142E1,6.0246178E1,2.2344713E1,0E0,0E0,4.1585693E1,1.9075418E1,1.2614624E1,6.4688416E1,0E0,0E0,2.2833984E1,3.0448107E1,4.7641846E1,2.5034204E1,4.0459274E1,4.3288574E0,0E0,2.2496944E1,3.6776123E0,0E0,0E0,0E0,2.5405273E0,0E0,1.1923828E1,0E0,0E0,1.8136719E1,2.4636841E-1,0E0,0E0,0E0,0E0,0E0,0E0,0E0,0E0,0E0,0E0,0E0,0E0,0E0,0E0,0E0,0E0,0E0,0E0,0E0,0E0,0E0,0E0,0E0,0E0,0E0,0E0,0E0,0E0,0E0,0E0,0E0,0E0,0E0,0E0,0E0,0E0,0E0,0E0,0E0,0E0,0E0,0E0,0E0,0E0,0E0,0E0,0E0,0E0,0E0,0E0,0E0,0E0,0E0,0E0,0E0,0E0,0E0,0E0,0E0,0E0,0E0,0E0,0E0,0E0,0E0,0E0,0E0,0E0,0E0,0E0,0E0,0E0,0E0,0E0,0E0,0E0,0E0,0E0,0E0,0E0,0E0,0E0,0E0,0E0,0E0,0E0,0E0,0E0,0E0,0E0,0E0,0E0,0E0,0E0,0E0,0E0,0E0,0E0,0E0,0E0,0E0,0E0,0E0,0E0,0E0,0E0,0E0,0E0,0E0,0E0,0E0,0E0,0E0,0E0,0E0,0E0,0E0,0E0,0E0,0E0,0E0,0E0,0E0],"parents":[2147483647,0,0,1,1,2,2,3,3,4,4,5,5,6,6,7,7,8,8,9,9,10,10,11,11,12,12,13,13,14,14,15,15,16,16,17,17,18,18,19,19,20,20,21,21,22,22,23,23,24,24,25,25,26,26,27,27,29,29,31,31,32,32,33,33,34,34,35,35,36,36,37,37,38,38,39,39,40,40,41,41,42,42,43,43,44,44,45,45,47,47,48,48,49,49,50,50,51,51,52,52,53,53,54,54,57,57,58,58,59,59,60,60,61,61,62,62,63,63,64,64,65,65,66,66,67,67,69,69,70,70,71,71,72,72,73,73,74,74,75,75,76,76,77,77,78,78,81,81,83,83,84,84,85,85,86,86,87,87,88,88,89,89,90,90,91,91,92,92,93,93,96,96,97,97,98,98,99,99,100,100,101,101,102,102,103,103,105,105,106,106,107,107,108,108,109,109,110,110,111,111,112,112,113,113,114,114,115,115,116,116,117,117,118,118,119,119,120,120,121,121,122,122,123,123,124,124,125,125,126,126,127,127,128,128,130,130,131,131,133,133,138,138,141,141,142,142,143,143,144,144,145,145,146,146,148,148,149,149,150,150,151,151,152,152,153,153,155,155,157,157,158,158,159,159,161,161,162,162,163,163,164,164,167,167,168,168,169,169,170,170,173,173,174,174,175,175,176,176,177,177,178,178,180,180,181,181,185,185,187,187,190,190,191,191],"right_children":[2,4,6,8,10,12,14,16,18,20,22,24,26,28,30,32,34,36,38,40,42,44,46,48,50,52,54,56,-1,58,-1,60,62,64,66,68,70,72,74,76,78,80,82,84,86,88,-1,90,92,94,96,98,100,102,104,-1,-1,106,108,110,112,114,116,118,120,122,124,126,-1,128,130,132,134,136,138,140,142,144,146,-1,-1,148,-1,150,152,154,156,158,160,162,164,166,168,170,-1,-1,172,174,176,178,180,182,184,186,-1,188,190,192,194,196,198,200,202,204,206,208,210,212,214,216,218,220,222,224,226,228,230,232,234,-1,236,238,-1,240,-1,-1,-1,-1,242,-1,-1,244,246,248,250,252,254,-1,256,258,260,262,264,266,-1,268,-1,270,272,274,-1,276,278,280,282,-1,-1,284,286,288,290,-1,-1,292,294,296,298,300,302,-1,304,306,-1,-1,-1,308,-1,310,-1,-1,312,314,-1,-1,-1,-1,-1,-1,-1,-1,-1,-1,-1,-1,-1,-1,-1,-1,-1,-1,-1,-1,-1,-1,-1,-1,-1,-1,-1,-1,-1,-1,-1,-1,-1,-1,-1,-1,-1,-1,-1,-1,-1,-1,-1,-1,-1,-1,-1,-1,-1,-1,-1,-1,-1,-1,-1,-1,-1,-1,-1,-1,-1,-1,-1,-1,-1,-1,-1,-1,-1,-1,-1,-1,-1,-1,-1,-1,-1,-1,-1,-1,-1,-1,-1,-1,-1,-1,-1,-1,-1,-1,-1,-1,-1,-1,-1,-1,-1,-1,-1,-1,-1,-1,-1,-1,-1,-1,-1,-1,-1,-1,-1,-1,-1,-1,-1,-1,-1,-1,-1,-1,-1,-1,-1],"split_conditions":[1E0,1E0,1E0,1E0,1.67E2,1E0,0E0,1E0,1E0,1E0,1E0,1.1E1,1E0,3E0,2.99226E5,6E1,1.1E1,1E0,5.4E1,2E0,8.9902E1,1.573E0,2E1,2E0,2.31E-1,4.7E1,9.68E2,5.4E1,9.912317E-2,1.23E2,1.7864738E-2,7E0,9E0,1E0,1.5E1,1.93E2,5.84E-5,5E0,9.1E1,0E0,5.8E1,4.8E1,1.3800044E9,1.19E-4,6.69E-1,1.331057E6,-9.384616E-2,1.022E3,1.3E-1,1.47E2,2E0,2.14153E5,6.6E1,2.64546E5,9.25E-1,4.9525883E-2,9.5196955E-2,6.6E1,1.19E2,1E2,1E0,1.98E-1,7.2E1,1.7E5,4E0,1.85E-1,1.10037E2,5.42E-4,-9.3333334E-2,8E0,1.03E-1,6.3E1,1E0,1E0,1E0,3.98E-1,1E0,2.019E3,1E0,-2.7299497E-2,6.808444E-2,8.01E-3,2.5765926E-2,6E0,4.75E-2,1.78E2,1.15E2,3.55E-1,1.3800044E9,2.019E3,9E0,1.7E-4,9.04E-1,4.474E3,-2.5723606E-2,-5.7238705E-2,2.43E-1,1.70564E2,1.09E2,7E0,3.63E-2,1.775E0,9.1E1,1.66E2,4.25616E-2,1.81E2,7E0,5.1E1,1E0,1.99E2,1E0,1.05E2,1E0,8.7E1,3.6E1,1.94E2,1.67E2,6.64E-1,4.8E1,2.1E1,5.6E1,1E0,6.51E-1,3.78E-1,2.38494E5,6.73E-1,1E0,1E0,1.03E-6,-7.7292636E-2,2E0,2.7E1,-6.872274E-2,1.23E2,9.523107E-2,4.0124162E-4,-9.148937E-2,1.0753954E-2,6.2E1,8.63702E-2,2.7971437E-2,4E0,5.15E-1,4.7E1,1.81E-5,1.07E2,1.5E1,3.859544E-2,1.821E3,1.68015E5,4.71E-1,4.42E-1,6.48E-1,1.03E2,9.299957E-2,1E0,-6.9402024E-2,1.72E-1,2.018E3,1E0,-3.2986674E-2,2.01E-5,2E1,1.63E0,1.11E-1,-4.7541816E-2,2.3114448E-2,8.5E1,1.757E3,3.1E1,2E0,5.0314542E-2,9.008059E-2,2E0,8E0,4.4003E4,1E1,1E0,1.33E2,8.711679E-2,3.4E1,3.73E-1,4.9525883E-2,7.829036E-2,-1.1604345E-2,3.45E-1,5.1922172E-2,4.77E-1,3.0204399E-2,-3.2986674E-2,5.72E-1,8.6E1,4.5782175E-2,-8.227504E-3,7.0704624E-2,-9.3480356E-2,9.733839E-2,-6.754026E-2,-3.6658302E-2,8.9356275E-3,-6.14804E-2,-3.8109202E-2,3.9349966E-2,-1.5343207E-2,6.3877046E-2,-9.436555E-2,5.695281E-2,-7.856471E-2,5.1145493E-3,1.2902051E-2,8.921872E-2,2.989305E-2,-8.504542E-2,-7.0872925E-2,4.0360395E-2,-8.281864E-2,6.1131675E-2,1.9456701E-2,8.2974546E-2,-9.382198E-2,-2.8427714E-2,6.9207944E-2,-9.428572E-2,8.216456E-2,-3.673859E-2,7.7040754E-2,1.2354199E-2,7.760185E-2,3.1598654E-2,-7.054737E-2,6.5323286E-2,-5.5055417E-2,7.842713E-2,4.9127903E-2,-9.090909E-2,5.8867496E-2,-4.7541816E-2,7.341415E-2,1.2902051E-2,8.556707E-2,5.3573944E-2,9.338867E-2,6.17989E-2,7.2385906E-3,-6.938618E-2,3.505043E-2,-2.5691355E-2,-1.5385796E-2,5.734999E-2,1.9793138E-2,-6.9402024E-2,-1.0721478E-2,7.086966E-2,8.459954E-2,2.4082607E-2,9.3232915E-2,7.3140524E-2,3.1757977E-2,8.1496336E-2,7.79505E-2,3.8867485E-2,3.491255E-2,-7.440493E-2,1.06083E-2,7.243069E-2,-2.1898935E-3,6.2396403E-2,4.29567E-2,8.123581E-2,5.132853E-2,9.008059E-2,-2.9793544E-2,-9.1111116E-2,7.8291014E-2,9.640121E-2,7.3184475E-2,3.2192204E-2,3.5639297E-2,-9.090909E-2,4.2853907E-2,-2.3523396E-2,1.7872012E-3,-7.345744E-2,7.0497274E-2,1.0259821E-2,3.6598355E-2,-4.1055992E-2,7.78044E-2,9.4225585E-2,-1.9353824E-3,7.319221E-2,6.903965E-2,8.321841E-2,-3.0258838E-2,6.1648887E-2,6.606882E-2,-3.2986674E-2,-3.8547795E-2,5.446096E-2,-4.8555606E-3,9.0270035E-2,9.6927844E-2,5.9595164E-2,7.888269E-2,-1.6591195E-2,8.45618E-2,4.5782175E-2,9.080927E-2,7.273328E-2,7.073583E-2,9.0637445E-2,2.1150284E-2,9.021619E-2,6.787733E-2,9.4373986E-2],"split_indices":[85,98,41,8,81,99,76,78,43,43,99,101,98,85,74,48,101,79,54,80,69,96,42,85,71,13,79,2,0,57,0,80,101,99,76,8,72,81,3,76,79,31,86,72,66,86,0,79,68,56,76,74,58,74,67,0,0,54,41,81,99,71,22,74,76,73,69,72,0,76,73,4,100,27,31,68,99,102,15,0,0,70,0,76,71,41,54,96,86,102,101,72,67,79,0,0,70,69,48,101,71,96,79,14,0,49,101,56,91,52,99,79,76,81,43,48,48,67,2,80,27,99,67,66,74,67,57,6,72,0,76,27,0,43,0,0,0,0,22,0,0,81,96,81,72,26,80,0,79,74,68,68,67,47,0,78,0,70,102,15,0,72,80,96,73,0,0,54,79,80,85,0,0,85,101,79,101,43,8,0,80,71,0,0,0,71,0,66,0,0,68,49,0,0,0,0,0,0,0,0,0,0,0,0,0,0,0,0,0,0,0,0,0,0,0,0,0,0,0,0,0,0,0,0,0,0,0,0,0,0,0,0,0,0,0,0,0,0,0,0,0,0,0,0,0,0,0,0,0,0,0,0,0,0,0,0,0,0,0,0,0,0,0,0,0,0,0,0,0,0,0,0,0,0,0,0,0,0,0,0,0,0,0,0,0,0,0,0,0,0,0,0,0,0,0,0,0,0,0,0,0,0,0,0,0,0,0,0,0,0,0,0,0,0,0],"split_type":[0,0,0,0,0,0,0,0,0,0,0,0,0,0,0,0,0,0,0,0,0,0,0,0,0,0,0,0,0,0,0,0,0,0,0,0,0,0,0,0,0,0,0,0,0,0,0,0,0,0,0,0,0,0,0,0,0,0,0,0,0,0,0,0,0,0,0,0,0,0,0,0,0,0,0,0,0,0,0,0,0,0,0,0,0,0,0,0,0,0,0,0,0,0,0,0,0,0,0,0,0,0,0,0,0,0,0,0,0,0,0,0,0,0,0,0,0,0,0,0,0,0,0,0,0,0,0,0,0,0,0,0,0,0,0,0,0,0,0,0,0,0,0,0,0,0,0,0,0,0,0,0,0,0,0,0,0,0,0,0,0,0,0,0,0,0,0,0,0,0,0,0,0,0,0,0,0,0,0,0,0,0,0,0,0,0,0,0,0,0,0,0,0,0,0,0,0,0,0,0,0,0,0,0,0,0,0,0,0,0,0,0,0,0,0,0,0,0,0,0,0,0,0,0,0,0,0,0,0,0,0,0,0,0,0,0,0,0,0,0,0,0,0,0,0,0,0,0,0,0,0,0,0,0,0,0,0,0,0,0,0,0,0,0,0,0,0,0,0,0,0,0,0,0,0,0,0,0,0,0,0,0,0,0,0,0,0,0,0,0,0,0,0,0,0,0,0,0,0,0,0,0,0,0,0,0,0,0,0,0,0,0,0,0,0],"sum_hessian":[4.2682266E4,3.1891775E4,1.079049E4,2.5448043E4,6.443732E3,7.8894004E3,2.9010896E3,2.3397412E4,2.0506316E3,1.9174583E3,4.526274E3,3.172988E3,4.7164126E3,1.2261908E3,1.6748988E3,2.0652502E4,2.7449094E3,1.1341472E3,9.164843E2,1.4139255E3,5.0353262E2,1.6400294E3,2.8862444E3,2.065891E3,1.107097E3,2.826597E3,1.8898154E3,8.672011E1,1.1394707E3,1.6600713E3,1.482755E1,1.953262E4,1.1198827E3,1.8283542E3,9.165552E2,6.420644E2,4.9208276E2,8.4834656E2,6.813775E1,5.0294504E2,9.109806E2,2.3882942E1,4.7964966E2,7.0794586E2,9.320836E2,2.8709944E3,1.525E1,6.2081104E2,1.4450801E3,1.0608533E3,4.624373E1,2.269944E3,5.56653E2,4.3922867E2,1.4505868E3,1.4849708E1,7.18704E1,1.5656455E3,9.44258E1,1.7850207E4,1.6824111E3,8.6356775E2,2.56315E2,1.0902932E3,7.3806104E2,1.6180392E2,7.547513E2,6.280644E2,1.4E1,3.4041324E2,1.5166953E2,4.8526966E1,7.998196E2,2.0794315E1,4.7343437E1,4.5593437E1,4.573516E2,3.016666E2,6.0931396E2,1.0783236E1,1.3099708E1,4.6381104E2,1.5838629E1,6.0857544E2,9.93704E1,3.379118E2,5.941718E2,5.049373E1,2.8205007E3,3.2496573E2,2.958453E2,2.057755E1,1.4245026E3,1.0503201E3,1.0533236E1,1.9033236E1,2.7210493E1,1.5075155E3,7.624285E2,5.15115E2,4.1538044E1,4.125625E2,2.666618E1,1.4402703E3,1.0316471E1,1.4863304E3,7.931501E1,6.0737457E1,3.3688335E1,7.5172095E3,1.0332998E4,1.0715481E3,6.108631E2,7.87957E2,7.561079E1,2.2307127E2,3.324373E1,2.3857463E2,8.517186E2,1.181551E2,6.1990594E2,8.459971E1,7.720422E1,1.401204E2,6.1463086E2,5.9368146E2,3.4382942E1,2.478704E2,9.2542854E1,1.4511079E1,1.3715845E2,3.8265884E1,1.0261079E1,4.024074E2,3.974122E2,1.0044314E1,1.075E1,1.3566471E1,3.3776966E1,3.2015884E1,1.357755E1,2.1285452E2,2.4449707E2,2.5973935E2,4.1927258E1,5.370211E2,7.2292854E1,1.6099707E1,4.4771133E2,3.9384094E2,2.1473453E2,2.5588629E1,7.378177E1,3.1748453E2,2.0427258E1,5.8366077E2,1.0511079E1,2.5449415E1,2.5044315E1,2.8087173E3,1.1783236E1,2.724609E2,5.2504807E1,2.567456E2,3.909971E1,1.0522158E1,1.0055393E1,1.3946195E3,2.9882942E1,6.324902E2,4.1782986E2,1.3088629E1,1.4121864E1,1.4607274E3,4.6788044E1,7.3430664E2,2.8121864E1,7.910932E1,4.3600565E2,1.84051E1,2.3132942E1,3.977128E2,1.4849708E1,1.5121864E1,1.1544314E1,1.4256705E3,1.4599708E1,1.4730029E3,1.332755E1,1.1783236E1,6.753177E1,5.0670986E1,1.0066471E1,1.932755E1,1.4360786E1,7.480638E3,3.6571278E1,6.816466E3,3.5165325E3,2.383911E2,8.33157E2,1.8399854E2,4.2686456E2,1.3424854E2,6.537084E2,6.1511078E1,1.4099708E1,1.9192726E2,3.1144022E1,1.1055393E1,2.2188335E1,1.8229138E2,5.6283237E1,8.250525E2,2.666618E1,1.0757755E2,1.057755E1,4.7700375E2,1.4290218E2,5.6011078E1,2.8588629E1,6.0704224E1,1.65E1,4.3854515E1,9.6265884E1,5.60865E2,5.3765884E1,4.9234427E2,1.01337166E2,1.9522158E1,1.4860786E1,2.2569315E2,2.2177258E1,8.2542854E1,1E1,1.2663629E2,1.0522158E1,2.7210493E1,1.1055393E1,3.10787E2,9.16204E1,2.1688335E1,1.2088629E1,2.1099707E1,1.917548E2,7.4443146E1,1.7005392E2,1.8066471E1,2.4167287E2,3.141618E1,1.0511079E1,4.9167767E2,4.5343437E1,5.4193146E1,1.8099707E1,3.3888043E2,1.08830894E2,2.4644022E1,3.691969E2,9.8775505E1,1.1595903E2,1.282755E1,1.2761079E1,1.1305393E1,6.247638E1,2.7593542E2,4.154912E1,4.4076965E2,1.428911E2,1.132755E1,1.4121864E1,1.4794314E1,1.025E1,2.2261877E3,5.8252966E2,2.0783424E2,6.462667E1,4.2504807E1,1E1,2.1686267E2,3.9882942E1,1.732755E1,2.1772158E1,1.3649756E3,2.9644022E1,1.6349707E1,1.3533236E1,2.2652258E2,4.059676E2,3.0882942E1,3.869469E2,4.5765112E2,1.0030763E3,1.1283236E1,3.5504807E1,7.2252344E2,1.1783236E1,1.7044315E1,1.107755E1,1.3305393E1,6.580393E1,4.2215594E2,1.3849708E1,1.0838629E1,1.2294314E1,3.8764633E2,1.0066471E1,1.3808271E3,4.4843437E1,1.0151442E2,1.3714885E3,1.2316471E1,5.52153E1,1.6121864E1,3.454912E1],"tree_param":{"num_deleted":"0","num_feature":"103","num_nodes":"315","size_leaf_vector":"1"}},{"base_weights":[-2.5099968E-3,-5.089965E-1,1.4952253E0,-9.0192413E-1,1.0454836E0,1.8396783E0,1.4356751E0,-1.0672383E0,1.0054951E0,1.2197378E0,1.53691E-1,1.4968969E0,9.389561E-2,1.2507827E0,1.5464958E0,-1.4756745E0,-7.6102644E-1,5.989008E-1,1.5017295E0,8.2330763E-1,1.4518423E0,-3.6061898E-1,1.3636703E0,1.6300461E0,7.7133465E-1,1.2754729E0,-3.3202782E-1,1.4838388E0,1.7053126E0,-1.7655289E0,-4.3570897E-1,-8.653521E-1,6.4775234E-1,1.0444621E0,-2.168277E-1,1.5474713E0,1.6541887E-2,7.177281E-1,1.6651216E0,1.46656E0,-7.607842E-2,-1.0012287E0,1.0227459E-1,-4.3662433E-2,1.4689968E0,4.3648466E-2,1.7158256E0,-3.0205509E-2,8.676007E-2,1.1104727E0,1.4406509E0,-1.6260422E0,1.1842753E0,1.3852129E0,1.6267991E0,1.7198496E0,1.0488104E0,-1.7812057E0,-2.9135326E-1,-8.964434E-1,3.2418147E-1,-1.0959572E0,-4.2917502E-1,8.510719E-1,-1.3200326E0,1.1199572E0,-9.10555E-2,-1.5876592E0,2.1927942E-1,5.703979E-1,1.61733E0,-7.314244E-2,6.598129E-2,3.525371E-2,8.701998E-1,2.4994416E-2,1.7508826E0,1.4158684E-1,1.4964765E0,-7.5788654E-2,-1.2456161E0,7.3315287E-1,-2.907515E-1,-3.8449038E-3,1.5393375E0,1.7819846E0,5.2592248E-2,1.2260718E0,-3.0882922E-1,3.829848E-1,1.4653958E0,-9.623118E-2,-4.750276E-2,1.9764839E-2,8.371956E-2,1.3945035E0,-3.0861152E-2,1.6410183E0,7.9976326E-1,1.7305696E0,9.0245116E-1,-8.629024E-3,7.722865E-2,-1.0903968E0,-1.8094468E0,4.5412037E-1,-9.205504E-2,1.6741693E-2,-1.1796254E0,-7.13625E-1,6.9446504E-1,-1.1338848E0,1.2431264E0,-5.437147E-1,7.854728E-1,1.0759624E0,-1.427871E-1,-1.6802592E0,6.188936E-2,5.5602545E-1,1.4329528E0,-1.6719872E-2,-1.8745295E0,-7.423382E-1,7.253344E-1,1.2166609E0,-6.1802864E-2,1.6358215E0,1.8058592E-2,-6.146342E-1,5.699059E-1,9.0185106E-1,-9.4476365E-2,1.7763503E0,5.8492046E-2,-9.80829E-1,1.5333326E0,1.3841827E0,1.8236569E0,4.2261162E-1,-6.7645065E-2,-1.7094624E0,-8.890101E-1,1.1179937E0,3.1582958E-1,-4.8583913E-1,1.5558926E0,1.1271652E0,1.6843752E0,9.129317E-2,6.184878E-2,1.2464056E0,-7.3833E-2,-8.167604E-1,7.6843715E-1,-3.1136504E-1,5.63339E-2,1.4924755E0,9.329642E-1,1.2562795E0,1.5282892E0,1.4834918E0,1.6910479E0,-7.139442E-3,7.5796664E-2,1.7456806E0,1.1520374E0,6.743073E-3,8.2796365E-2,-9.394184E-2,2.88896E-2,-9.10519E-2,8.339448E-4,-8.9047454E-2,5.981302E-2,6.172788E-2,-2.4464615E-2,-6.6736326E-2,4.1312274E-2,-4.908386E-2,4.3322813E-2,1.0696524E-2,6.8151265E-2,-6.3646674E-2,-3.0829826E-2,8.694457E-2,-5.9293862E-2,-1.631597E-2,-6.889191E-2,2.066318E-2,7.275831E-2,3.4753397E-2,8.476525E-2,3.002814E-2,-6.941754E-2,-9.313869E-2,-2.2780571E-2,5.7939388E-2,3.5028856E-3,7.5471945E-2,3.374566E-3,-9.682568E-2,-6.6141725E-2,-8.383944E-2,3.170609E-2,4.574155E-2,-6.40357E-2,7.409179E-2,1.5680965E-2,8.315985E-2,3.892489E-2,7.472526E-2,-4.3366298E-2,4.7271743E-2,-1.3264621E-2,6.1772794E-2,3.4315895E-2,8.999332E-2,6.1752636E-2,-7.0989184E-2,1.2395943E-2,8.461991E-2,5.4412957E-2,6.557461E-2,8.765355E-2,9.197221E-2,6.968837E-2,-3.185883E-2,4.6093702E-2,-4.4877842E-2,-9.170254E-2,-6.935116E-2,-1.780781E-2,3.0582545E-3,6.6657506E-2,-3.6110233E-3,7.169863E-2,-4.0346976E-2,2.6264891E-2,5.6042533E-2,8.987304E-2,-4.5186672E-3,9.074331E-2,8.765602E-2,6.611776E-2,5.4167192E-2,7.771882E-2,-2.7227594E-2,-9.546044E-2,-7.636107E-3,6.0642313E-2,2.0787327E-2,-4.908661E-2,7.5342454E-2,2.8148994E-2,6.678766E-2,-3.6747143E-2,6.7441724E-2,2.3192177E-3,8.1135E-2,6.539096E-2,7.712483E-2,2.5266442E-2,8.490314E-2,3.866503E-2,8.78225E-2,5.5013992E-2,-2.6840349E-3,8.2728796E-2],"categories":[],"categories_nodes":[],"categories_segments":[],"categories_sizes":[],"default_left":[0,0,0,0,0,0,0,0,0,0,0,0,0,0,0,0,0,0,0,0,0,0,0,0,0,0,0,0,0,0,0,0,0,0,0,0,0,0,0,0,0,0,0,0,0,0,0,0,0,0,0,0,0,0,0,0,0,0,0,0,0,0,0,0,0,0,0,0,0,0,0,0,0,0,0,0,0,0,0,0,0,0,0,0,0,0,0,0,0,0,0,0,0,0,0,0,0,0,0,0,0,0,0,0,0,0,0,0,0,0,0,0,0,0,0,0,0,0,0,0,0,0,0,0,0,0,0,0,0,0,0,0,0,0,0,0,0,0,0,0,0,0,0,0,0,0,0,0,0,0,0,0,0,0,0,0,0,0,0,0,0,0,0,0,0,0,0,0,0,0,0,0,0,0,0,0,0,0,0,0,0,0,0,0,0,0,0,0,0,0,0,0,0,0,0,0,0,0,0,0,0,0,0,0,0,0,0,0,0,0,0,0,0,0,0,0,0,0,0,0,0,0,0,0,0,0,0,0,0,0,0,0,0,0,0,0,0,0,0,0,0,0,0,0,0,0,0,0,0,0,0,0,0,0,0,0,0,0,0,0,0,0,0,0,0,0,0,0,0],"id":1,"left_children":[1,3,5,7,9,11,13,15,17,19,21,23,-1,25,27,29,31,33,35,37,39,41,43,45,47,49,51,53,55,57,59,61,63,65,67,69,71,73,75,77,-1,79,81,-1,83,-1,85,-1,-1,87,89,91,93,95,97,99,101,103,105,107,109,111,113,115,117,119,-1,121,123,125,127,-1,-1,129,131,-1,133,135,137,139,141,143,145,-1,147,149,-1,151,153,155,157,-1,-1,-1,-1,159,-1,161,163,165,167,-1,-1,169,171,173,-1,175,177,179,181,183,185,187,189,191,193,195,-1,197,199,-1,201,203,205,207,-1,209,-1,211,213,215,-1,217,-1,219,221,223,225,227,-1,229,231,233,235,237,239,241,243,-1,-1,245,-1,247,249,251,-1,253,255,257,259,261,263,-1,-1,265,267,-1,-1,-1,-1,-1,-1,-1,-1,-1,-1,-1,-1,-1,-1,-1,-1,-1,-1,-1,-1,-1,-1,-1,-1,-1,-1,-1,-1,-1,-1,-1,-1,-1,-1,-1,-1,-1,-1,-1,-1,-1,-1,-1,-1,-1,-1,-1,-1,-1,-1,-1,-1,-1,-1,-1,-1,-1,-1,-1,-1,-1,-1,-1,-1,-1,-1,-1,-1,-1,-1,-1,-1,-1,-1,-1,-1,-1,-1,-1,-1,-1,-1,-1,-1,-1,-1,-1,-1,-1,-1,-1,-1,-1,-1,-1,-1,-1,-1,-1,-1,-1,-1],"loss_changes":[3.2411174E4,1.9502932E4,2.1883398E2,8.037717E3,1.000999E3,1.8000977E1,1.867832E2,2.9323086E3,4.093452E2,4.947046E2,6.565609E2,1.4613159E1,0E0,1.355166E2,5.4731445E1,3.0283262E3,1.970999E3,4.0702136E2,6.213745E1,1.7589648E2,1.5093066E2,2.1971295E2,7.5420166E1,7.4579773E0,3.733457E1,9.117383E1,1.0766129E2,5.603711E1,1.3669434E1,1.8108594E2,7.675917E2,1.255125E3,3.711873E2,1.5867365E2,2.3721317E2,5.966797E1,5.658377E1,1.8438354E2,2.1238953E1,1.3383398E2,0E0,7.018732E1,1.070401E2,0E0,3.2836914E1,0E0,3.521576E0,0E0,0E0,2.8049E2,4.387085E1,4.1250687E0,9.156834E0,4.6499023E1,1.8467773E1,1.2322754E1,2.3085896E1,1.497168E2,9.77444E1,3.5291174E2,3.1867267E2,7.2578516E2,6.012889E2,1.8766498E2,8.225226E1,1.2382916E2,0E0,3.379637E1,1.472391E2,7.2457886E1,1.8640137E1,0E0,0E0,1.1316244E2,1.2823364E2,0E0,9.661255E-1,1.1987154E2,1.18973145E2,4.2571377E1,3.9133057E1,2.6252617E1,9.664804E1,0E0,1.5308716E1,3.7832642E-1,0E0,8.861084E1,7.142105E1,2.1091236E1,2.2520264E1,0E0,0E0,0E0,0E0,4.3240723E1,0E0,1.0515625E1,2.0724194E1,1.1652832E1,1.2849047E1,0E0,0E0,4.060517E2,1.5811133E2,9.740764E1,0E0,2.002698E2,3.251703E2,9.3278564E1,1.9592221E2,5.771846E2,1.5952502E2,7.1532764E2,9.226921E1,1.6023956E2,1.4498466E2,1.6293793E1,0E0,7.4217125E1,4.7252686E1,0E0,9.524536E-2,1.353956E2,7.644801E1,1.0375099E1,0E0,1.7847168E1,0E0,7.965496E1,5.628216E1,1.0217493E2,0E0,2.612915E-1,0E0,2.3304882E1,5.807648E-1,6.3828613E1,3.1496582E0,2.6103146E1,0E0,9.049744E0,3.693097E1,1.942591E1,3.519279E1,7.883504E1,6.8315125E-1,6.54283E1,2.930359E0,0E0,0E0,7.704028E1,0E0,2.5250618E1,1.7367023E1,1.0914724E1,0E0,2.0215576E1,5.6701355E1,1.3507251E2,2.3612305E1,2.268219E1,6.7158203E0,0E0,0E0,8.641113E0,2.5977333E1,0E0,0E0,0E0,0E0,0E0,0E0,0E0,0E0,0E0,0E0,0E0,0E0,0E0,0E0,0E0,0E0,0E0,0E0,0E0,0E0,0E0,0E0,0E0,0E0,0E0,0E0,0E0,0E0,0E0,0E0,0E0,0E0,0E0,0E0,0E0,0E0,0E0,0E0,0E0,0E0,0E0,0E0,0E0,0E0,0E0,0E0,0E0,0E0,0E0,0E0,0E0,0E0,0E0,0E0,0E0,0E0,0E0,0E0,0E0,0E0,0E0,0E0,0E0,0E0,0E0,0E0,0E0,0E0,0E0,0E0,0E0,0E0,0E0,0E0,0E0,0E0,0E0,0E0,0E0,0E0,0E0,0E0,0E0,0E0,0E0,0E0,0E0,0E0,0E0,0E0,0E0,0E0,0E0,0E0,0E0,0E0,0E0,0E0,0E0,0E0,0E0,0E0],"parents":[2147483647,0,0,1,1,2,2,3,3,4,4,5,5,6,6,7,7,8,8,9,9,10,10,11,11,13,13,14,14,15,15,16,16,17,17,18,18,19,19,20,20,21,21,22,22,23,23,24,24,25,25,26,26,27,27,28,28,29,29,30,30,31,31,32,32,33,33,34,34,35,35,36,36,37,37,38,38,39,39,41,41,42,42,44,44,46,46,49,49,50,50,51,51,52,52,53,53,54,54,55,55,56,56,57,57,58,58,59,59,60,60,61,61,62,62,63,63,64,64,65,65,67,67,68,68,69,69,70,70,73,73,74,74,76,76,77,77,78,78,79,79,80,80,81,81,82,82,84,84,85,85,87,87,88,88,89,89,90,90,95,95,97,97,98,98,99,99,100,100,103,103,104,104,105,105,107,107,108,108,109,109,110,110,111,111,112,112,113,113,114,114,115,115,116,116,117,117,119,119,120,120,122,122,123,123,124,124,125,125,127,127,129,129,130,130,131,131,133,133,135,135,136,136,137,137,138,138,139,139,141,141,142,142,143,143,144,144,145,145,146,146,147,147,148,148,151,151,153,153,154,154,155,155,157,157,158,158,159,159,160,160,161,161,162,162,165,165,166,166],"right_children":[2,4,6,8,10,12,14,16,18,20,22,24,-1,26,28,30,32,34,36,38,40,42,44,46,48,50,52,54,56,58,60,62,64,66,68,70,72,74,76,78,-1,80,82,-1,84,-1,86,-1,-1,88,90,92,94,96,98,100,102,104,106,108,110,112,114,116,118,120,-1,122,124,126,128,-1,-1,130,132,-1,134,136,138,140,142,144,146,-1,148,150,-1,152,154,156,158,-1,-1,-1,-1,160,-1,162,164,166,168,-1,-1,170,172,174,-1,176,178,180,182,184,186,188,190,192,194,196,-1,198,200,-1,202,204,206,208,-1,210,-1,212,214,216,-1,218,-1,220,222,224,226,228,-1,230,232,234,236,238,240,242,244,-1,-1,246,-1,248,250,252,-1,254,256,258,260,262,264,-1,-1,266,268,-1,-1,-1,-1,-1,-1,-1,-1,-1,-1,-1,-1,-1,-1,-1,-1,-1,-1,-1,-1,-1,-1,-1,-1,-1,-1,-1,-1,-1,-1,-1,-1,-1,-1,-1,-1,-1,-1,-1,-1,-1,-1,-1,-1,-1,-1,-1,-1,-1,-1,-1,-1,-1,-1,-1,-1,-1,-1,-1,-1,-1,-1,-1,-1,-1,-1,-1,-1,-1,-1,-1,-1,-1,-1,-1,-1,-1,-1,-1,-1,-1,-1,-1,-1,-1,-1,-1,-1,-1,-1,-1,-1,-1,-1,-1,-1,-1,-1,-1,-1,-1,-1],"split_conditions":[1E0,1E0,0E0,1E0,3E0,2E0,1E0,1E2,1E0,1E0,1E0,2.42794E5,9.389561E-2,6E1,1E0,5E0,4.2E1,2.4E1,8.5E1,2.7E1,2.4E1,3E0,8.79E-3,5.56E-1,3E1,3E0,1E0,1E0,1.9E2,5.6E1,1E0,1E0,7.62E-1,1.93E2,4.4565216E-2,5E0,1.21E2,1.83E2,5.02E-1,1.331057E6,-7.607842E-2,5.24E-1,5E0,-4.3662433E-2,8.6003E1,4.3648466E-2,3.8152613E4,-3.0205509E-2,8.676007E-2,1.7E1,1.52E-1,4.92E-1,9E0,1.93E2,5.8E1,1.65E2,1.5E1,0E0,2.07038E5,1.05E2,5.3276405E-2,1.52E2,6.5E1,9E0,6.9E1,1E0,-9.10555E-2,4.36E-1,1.21E-1,4E1,9.9E1,-7.314244E-2,6.598129E-2,2E0,2E0,2.4994416E-2,1.45E2,6E0,3E0,1.9116208E7,1.86E2,6.08E-1,7E0,-3.8449038E-3,3.0833334E-2,1.1E1,5.2592248E-2,1.9746E4,7.2386056E-2,9E0,2.61906E5,-9.623118E-2,-4.750276E-2,1.9764839E-2,8.371956E-2,3E0,-3.0861152E-2,9.99E2,4.6E1,9.3123E4,1.38E2,-8.629024E-3,7.722865E-2,5.6E1,1.83E2,4.5E1,-9.205504E-2,1.72E5,1.01E2,6.2E1,1.1E1,7.283334E-2,2.044E5,1E0,1E0,1E0,1.9852E5,2.4504E5,6.188936E-2,3E0,7.72E-1,-1.6719872E-2,4.2333335E-2,2.1E1,1.4E1,7.38E-1,-6.1802864E-2,4.05E-1,1.8058592E-2,0E0,4.7E1,1.306E0,-9.4476365E-2,1.57E2,5.8492046E-2,2E0,5.1E1,1E0,1.34E2,1.21E-1,-6.7645065E-2,2E1,6.9E-1,3.747472E3,1.04E2,2.4E1,1.14E2,2.019E3,1.29924E2,9.129317E-2,6.184878E-2,1.1E1,-7.3833E-2,3.1E1,6.82E-1,1.11E-1,5.63339E-2,1.65E2,1.8E1,1.7E1,2.1456E5,2.64546E5,1.71E2,-7.139442E-3,7.5796664E-2,1.51E2,1E0,6.743073E-3,8.2796365E-2,-9.394184E-2,2.88896E-2,-9.10519E-2,8.339448E-4,-8.9047454E-2,5.981302E-2,6.172788E-2,-2.4464615E-2,-6.6736326E-2,4.1312274E-2,-4.908386E-2,4.3322813E-2,1.0696524E-2,6.8151265E-2,-6.3646674E-2,-3.0829826E-2,8.694457E-2,-5.9293862E-2,-1.631597E-2,-6.889191E-2,2.066318E-2,7.275831E-2,3.4753397E-2,8.476525E-2,3.002814E-2,-6.941754E-2,-9.313869E-2,-2.2780571E-2,5.7939388E-2,3.5028856E-3,7.5471945E-2,3.374566E-3,-9.682568E-2,-6.6141725E-2,-8.383944E-2,3.170609E-2,4.574155E-2,-6.40357E-2,7.409179E-2,1.5680965E-2,8.315985E-2,3.892489E-2,7.472526E-2,-4.3366298E-2,4.7271743E-2,-1.3264621E-2,6.1772794E-2,3.4315895E-2,8.999332E-2,6.1752636E-2,-7.0989184E-2,1.2395943E-2,8.461991E-2,5.4412957E-2,6.557461E-2,8.765355E-2,9.197221E-2,6.968837E-2,-3.185883E-2,4.6093702E-2,-4.4877842E-2,-9.170254E-2,-6.935116E-2,-1.780781E-2,3.0582545E-3,6.6657506E-2,-3.6110233E-3,7.169863E-2,-4.0346976E-2,2.6264891E-2,5.6042533E-2,8.987304E-2,-4.5186672E-3,9.074331E-2,8.765602E-2,6.611776E-2,5.4167192E-2,7.771882E-2,-2.7227594E-2,-9.546044E-2,-7.636107E-3,6.0642313E-2,2.0787327E-2,-4.908661E-2,7.5342454E-2,2.8148994E-2,6.678766E-2,-3.6747143E-2,6.7441724E-2,2.3192177E-3,8.1135E-2,6.539096E-2,7.712483E-2,2.5266442E-2,8.490314E-2,3.866503E-2,8.78225E-2,5.5013992E-2,-2.6840349E-3,8.2728796E-2],"split_indices":[85,98,76,8,82,85,99,81,43,99,26,74,0,82,13,80,48,79,54,48,42,80,70,66,20,85,30,98,13,30,99,99,66,8,88,81,21,81,66,86,0,96,82,0,69,0,87,0,0,82,68,68,101,30,82,14,81,76,74,79,88,41,43,101,4,92,0,67,73,27,50,0,0,80,42,0,56,13,55,86,79,67,5,0,88,82,0,79,88,85,74,0,0,0,0,85,0,79,30,79,23,0,0,81,13,81,0,74,13,13,101,88,74,75,56,75,74,74,0,101,67,0,88,80,82,96,0,73,0,76,79,96,0,32,0,80,19,30,32,73,0,81,66,87,81,80,5,102,69,0,0,101,0,82,66,73,0,30,82,82,74,74,44,0,0,30,98,0,0,0,0,0,0,0,0,0,0,0,0,0,0,0,0,0,0,0,0,0,0,0,0,0,0,0,0,0,0,0,0,0,0,0,0,0,0,0,0,0,0,0,0,0,0,0,0,0,0,0,0,0,0,0,0,0,0,0,0,0,0,0,0,0,0,0,0,0,0,0,0,0,0,0,0,0,0,0,0,0,0,0,0,0,0,0,0,0,0,0,0,0,0,0,0,0,0,0,0,0,0],"split_type":[0,0,0,0,0,0,0,0,0,0,0,0,0,0,0,0,0,0,0,0,0,0,0,0,0,0,0,0,0,0,0,0,0,0,0,0,0,0,0,0,0,0,0,0,0,0,0,0,0,0,0,0,0,0,0,0,0,0,0,0,0,0,0,0,0,0,0,0,0,0,0,0,0,0,0,0,0,0,0,0,0,0,0,0,0,0,0,0,0,0,0,0,0,0,0,0,0,0,0,0,0,0,0,0,0,0,0,0,0,0,0,0,0,0,0,0,0,0,0,0,0,0,0,0,0,0,0,0,0,0,0,0,0,0,0,0,0,0,0,0,0,0,0,0,0,0,0,0,0,0,0,0,0,0,0,0,0,0,0,0,0,0,0,0,0,0,0,0,0,0,0,0,0,0,0,0,0,0,0,0,0,0,0,0,0,0,0,0,0,0,0,0,0,0,0,0,0,0,0,0,0,0,0,0,0,0,0,0,0,0,0,0,0,0,0,0,0,0,0,0,0,0,0,0,0,0,0,0,0,0,0,0,0,0,0,0,0,0,0,0,0,0,0,0,0,0,0,0,0,0,0,0,0,0,0,0,0,0,0,0,0,0,0,0,0,0,0,0,0],"sum_hessian":[4.2723957E4,3.192769E4,1.079627E4,2.5485986E4,6.441702E3,1.5869648E3,9.209305E3,2.3453717E4,2.0322698E3,5.388445E3,1.0532573E3,1.632767E2,1.4236881E3,3.4558577E3,5.753447E3,1.0047793E4,1.3405924E4,1.1182379E3,9.140318E2,1.9915178E3,3.396927E3,7.3959106E2,3.1366626E2,1.369062E2,2.6370497E1,3.4029692E3,5.2888504E1,4.133162E3,1.6202848E3,7.8571787E3,2.1906145E3,1.2481971E4,9.239534E2,7.230296E2,3.9520837E2,8.866813E2,2.7350557E1,1.771225E3,2.202928E2,3.3807002E3,1.6226864E1,3.0975314E2,4.2983792E2,1.3777122E1,2.9988916E2,1.5070762E1,1.2183544E2,1.1019225E1,1.5351272E1,1.7062646E3,1.6967046E3,2.8496872E1,2.439163E1,2.4521516E3,1.6810106E3,1.5835992E3,3.6685528E1,7.774297E3,8.288183E1,1.363638E3,8.269765E2,8.16412E3,4.31785E3,8.379414E2,8.601203E1,7.050635E2,1.7966105E1,9.474679E1,3.0046158E2,5.9777187E1,8.2690405E2,1.2751349E1,1.4599208E1,3.236729E2,1.4475521E3,1.5570172E1,2.0472263E2,7.477382E1,3.3059263E3,6.4983894E1,2.4476926E2,1.6466127E2,2.6517667E2,1.3047538E1,2.868416E2,1.09264534E2,1.257091E1,1.5778853E3,1.2837935E2,3.9164795E1,1.6575398E3,1.8484987E1,1.0011885E1,1.0038461E1,1.4353169E1,2.4411292E3,1.102237E1,1.65163E3,2.9380589E1,1.5619968E3,2.1602451E1,1.07797575E1,2.5905771E1,3.068966E2,7.4674004E3,5.643967E1,2.6442154E1,3.2299792E2,1.04064E3,2.172251E2,6.097514E2,8.0343604E3,1.2975977E2,3.9462742E3,3.7157614E2,6.832524E2,1.5468903E2,7.569476E1,1.0317267E1,2.5264444E2,4.5241904E2,1.805124E1,7.669555E1,1.0343847E2,1.9702312E2,4.426705E1,1.5510134E1,8.146102E2,1.2293869E1,1.4602498E2,1.7764793E2,1.431804E3,1.5748141E1,1.9415544E2,1.056719E1,4.1555428E1,3.3218395E1,2.465095E3,8.408314E2,4.722368E1,1.7760216E1,1.04738976E2,1.4003029E2,8.4791016E1,7.9870255E1,2.405055E2,2.467116E1,7.694589E1,2.0989572E2,9.894805E1,1.0316481E1,1.5666377E3,1.1247618E1,8.7408195E1,4.097115E1,2.0554962E1,1.8609833E1,1.5756008E3,8.193904E1,1.2057596E3,1.2353695E3,4.0549988E2,1.2461301E3,1.3031042E1,1.6349546E1,1.5202709E3,4.1725975E1,1.12850275E1,1.0317424E1,2.0831429E2,9.858233E1,7.4203037E3,4.7096684E1,1.3720005E1,4.2719666E1,9.439302E1,2.286049E2,9.6625995E2,7.438006E1,1.8604268E2,3.1182407E1,3.555303E2,2.5422112E2,6.3310845E3,1.7032761E3,1.08000694E2,2.1759071E1,3.1315088E3,8.147654E2,2.3987367E2,1.3170245E2,4.243811E2,2.5887128E2,9.7198814E1,5.749021E1,6.542337E1,1.0271393E1,1.1215289E2,1.4049155E2,4.2832126E2,2.4097788E1,6.669238E1,1.0003165E1,6.1481644E1,4.195682E1,1.8051515E2,1.6507969E1,3.3723366E1,1.0543689E1,7.884926E2,2.611757E1,1.509739E1,1.309276E2,1.2245616E2,5.5191772E1,5.6011676E2,8.716872E2,1.8384343E2,1.031201E1,3.0503109E1,1.105232E1,2.2407585E1,1.0810808E1,2.0631084E3,4.0198648E2,8.07884E2,3.294747E1,1.5034208E1,3.218947E1,1.5025629E1,8.971335E1,7.155289E1,6.84774E1,1.4559644E1,7.023137E1,5.9987186E1,1.9883064E1,1.8269131E2,5.7814186E1,1.0821868E1,1.3849292E1,2.808733E1,4.8858562E1,1.7316936E2,3.672636E1,1.0272534E3,5.393842E2,7.1172424E1,1.6235771E1,1.354721E1,2.742394E1,1.0042366E1,1.0512596E1,1.5509954E3,2.4605377E1,6.616078E1,1.5778263E1,1.1199691E3,8.579063E1,8.605158E2,3.7485373E2,3.8188678E2,2.361309E1,1.2358336E3,1.0296495E1,1.4936262E3,2.6644629E1,1.2537792E1,2.9188183E1],"tree_param":{"num_deleted":"0","num_feature":"103","num_nodes":"269","size_leaf_vector":"1"}},{"base_weights":[3.578393E-3,-3.8634485E-1,1.213113E0,-7.0386046E-1,9.470128E-1,9.161622E-1,1.3935095E0,-9.1860896E-1,1.0563974E0,6.71851E-1,1.5964766E0,7.072694E-1,1.4403034E0,1.3049401E0,1.6800092E0,-1.2219082E0,-4.1157645E-1,6.1617625E-1,1.3238354E0,-1.2938108E0,7.6674265E-1,2.033221E-1,1.6449056E0,5.164948E-1,1.2631887E0,5.459207E-1,1.49808E0,1.3163407E0,-1.3414382E0,1.7234385E0,1.3307197E0,-1.2641735E0,8.067489E-1,-1.4473394E-1,-1.323584E0,2.2315003E-1,1.4349233E0,1.42996E0,6.6768885E-1,-1.5587261E0,-4.7030565E-1,3.8179198E-1,1.134133E0,-9.088189E-2,7.373737E-1,1.6594887E0,-1.0439876E-2,1.016947E0,2.6211163E-1,1.3783318E0,6.49226E-1,9.812866E-1,-7.336568E-2,3.299554E-1,1.5240558E0,1.2327082E0,1.6150042E0,-8.4865496E-2,-4.2935587E-2,1.734167E0,4.6764504E-2,1.6115812E0,-6.149227E-1,-1.3045443E0,2.799415E-1,1.2246772E0,-8.8337654E-1,-2.90748E-1,1.1224939E0,-1.4372132E0,7.528743E-1,4.7710904E-1,-1.1182667E0,-4.9815187E-1,1.5688341E0,1.4555502E0,8.362304E-2,7.112524E-2,1.567857E0,-1.8224093E0,-9.223386E-1,1.2091567E-1,-9.0434276E-2,6.4910084E-1,-4.0552804E-1,4.962908E-1,1.2816322E0,1.5015032E0,-2.7235461E-2,1.6767957E0,5.559164E-1,5.6425077E-1,1.2426449E0,4.3781903E-1,-3.9270565E-1,7.367756E-1,1.455195E0,9.3914014E-1,-6.1920095E-2,5.0798726E-1,7.5848624E-2,-2.1839103E-2,6.1726697E-2,1.5416375E0,2.770418E-2,7.6666796E-1,1.2852724E0,1.6384398E0,4.365074E-1,5.338793E-2,1.7410933E0,1.6634537E0,4.0084742E-2,-8.931644E-2,3.2915972E-2,-1.3369714E0,5.9357065E-1,7.484381E-1,-1.2648704E0,-6.7437515E-2,1.3549263E0,-1.4469572E0,8.203756E-2,-4.7868064E-1,7.596817E-1,6.8059605E-1,1.5410122E0,-1.3584113E-2,-1.5744002E0,-5.9722215E-2,1.0745293E0,-7.56274E-1,6.9357455E-1,6.374974E-2,-1.4759396E0,-5.909365E-2,1.837326E-2,1.6490376E0,8.477723E-1,1.3700738E0,1.7700639E0,-8.886435E-2,6.91408E-2,4.2249677E-1,-1.3753222E0,1.5534642E-2,1.7107439E0,-9.3413286E-2,-6.3403115E-2,-5.7421036E-2,-8.096605E-2,4.0308908E-2,-3.4209277E-2,1.0608743E0,3.1817973E-1,-1.448832E0,1.0746802E0,1.0036684E0,-1.0013353E0,1.3208435E0,1.2166924E-2,5.448999E-2,8.603503E-2,4.6194814E-2,-6.911556E-2,1.7092488E0,1.0901473E0,-4.157212E-2,8.3520696E-2,1.3483131E-1,9.3260455E-1,1.3358761E0,6.725047E-1,3.0949998E-1,1.2680748E0,7.910987E-2,-1.04888E0,1.1123965E0,-5.311942E-2,1.3545353E0,8.770742E-2,-3.5310645E-2,1.1765186E0,6.544231E-2,-2.6003957E-2,3.3313E-2,1.5567003E0,1.2866274E0,-2.4450533E-1,1.1897012E0,1.5524397E0,1.0899427E0,1.6626719E0,-3.2359544E-2,7.5208E-2,1.7470294E0,5.132992E-2,1.702736E0,5.366049E-2,-7.053028E-2,-3.4064747E-2,5.3950418E-2,-6.6541635E-2,-5.5683195E-3,6.3853174E-2,-8.529266E-2,4.0432144E-2,-3.439259E-4,7.944406E-2,-2.0737413E-3,-9.199601E-2,-2.7992714E-2,5.9431892E-2,6.3443296E-2,1.0769662E-2,-3.804223E-2,7.806485E-2,8.307049E-2,-4.5966204E-2,3.259154E-2,-5.2198768E-2,-8.167708E-2,6.324311E-2,1.9875346E-2,8.700334E-2,-6.517189E-2,5.8146548E-2,-8.69966E-3,4.4303276E-2,-9.458288E-2,6.6848076E-4,8.428893E-2,3.675374E-2,-5.2659484E-3,8.033805E-2,6.2402148E-2,8.6051695E-2,8.947327E-2,6.1386175E-2,3.3721697E-2,-8.8769875E-2,-2.5961503E-2,-9.1121405E-2,8.902471E-2,5.5409957E-2,4.4310432E-2,-4.7028013E-2,-7.8219205E-2,5.578598E-2,-3.7383307E-3,4.848854E-2,5.9566345E-2,-8.0304526E-2,6.797022E-2,-6.4213626E-2,-1.9248066E-2,6.0179275E-2,-8.213253E-2,8.7144755E-2,6.800886E-2,1.3154082E-2,-8.269095E-2,8.554621E-2,8.582535E-2,4.2497713E-2,-6.9827186E-3,6.651809E-2,-6.948753E-3,4.89979E-2,5.6556482E-2,1.0035484E-2,6.846941E-2,2.9993782E-2,-4.1885637E-2,6.070126E-2,1.1059578E-2,7.9777814E-2,7.545079E-2,5.691634E-3,3.8816582E-2,-1.9435024E-2,-6.30449E-2,6.8924385E-3,7.652041E-2,9.887423E-3,2.0261189E-2,7.093119E-2,8.220553E-2,3.6800914E-2,7.8985035E-2,5.1259734E-2,7.074196E-2,1.0459078E-4,-5.4760087E-2,3.2487016E-2,4.9811594E-2,7.1230434E-2,7.890158E-2,1.5503518E-2,2.2641078E-2,7.2014734E-2,8.418818E-2,5.1793914E-2,8.771031E-2,5.603922E-2,6.0365003E-2,8.771496E-2],"categories":[],"categories_nodes":[],"categories_segments":[],"categories_sizes":[],"default_left":[0,0,0,0,0,0,0,0,0,0,0,0,0,0,0,0,0,0,0,0,0,0,0,0,0,0,0,0,0,0,0,0,0,0,0,0,0,0,0,0,0,0,0,0,0,0,0,0,0,0,0,0,0,0,0,0,0,0,0,0,0,0,0,0,0,0,0,0,0,0,0,0,0,0,0,0,0,0,0,0,0,0,0,0,0,0,0,0,0,0,0,0,0,0,0,0,0,0,0,0,0,0,0,0,0,0,0,0,0,0,0,0,0,0,0,0,0,0,0,0,0,0,0,0,0,0,0,0,0,0,0,0,0,0,0,0,0,0,0,0,0,0,0,0,0,0,0,0,0,0,0,0,0,0,0,0,0,0,0,0,0,0,0,0,0,0,0,0,0,0,0,0,0,0,0,0,0,0,0,0,0,0,0,0,0,0,0,0,0,0,0,0,0,0,0,0,0,0,0,0,0,0,0,0,0,0,0,0,0,0,0,0,0,0,0,0,0,0,0,0,0,0,0,0,0,0,0,0,0,0,0,0,0,0,0,0,0,0,0,0,0,0,0,0,0,0,0,0,0,0,0,0,0,0,0,0,0,0,0,0,0,0,0,0,0,0,0,0,0,0,0,0,0,0,0,0,0,0,0,0,0,0,0,0,0,0,0,0,0,0,0,0,0,0,0,0,0,0,0,0,0,0,0,0,0,0,0],"id":2,"left_children":[1,3,5,7,9,11,13,15,17,19,21,23,25,27,29,31,33,35,37,39,41,43,45,47,49,51,53,55,57,59,61,63,65,67,69,71,73,75,77,79,81,83,85,-1,87,89,-1,91,93,95,97,99,-1,101,103,105,107,-1,-1,109,-1,111,113,115,117,119,121,123,125,127,129,131,133,135,137,139,141,143,145,147,149,151,-1,153,155,157,159,161,163,165,167,169,171,173,175,177,179,181,-1,183,-1,-1,-1,185,-1,187,189,191,193,-1,195,197,-1,-1,-1,199,201,203,205,-1,207,209,-1,211,213,215,217,219,221,-1,223,225,227,-1,229,-1,-1,231,233,235,237,-1,-1,239,241,-1,243,-1,-1,245,-1,-1,-1,247,249,251,253,255,257,259,261,-1,-1,-1,-1,263,265,-1,-1,267,269,271,273,275,277,279,281,283,-1,285,-1,-1,287,-1,-1,-1,289,291,293,295,297,299,301,-1,-1,303,-1,305,-1,-1,-1,-1,-1,-1,-1,-1,-1,-1,-1,-1,-1,-1,-1,-1,-1,-1,-1,-1,-1,-1,-1,-1,-1,-1,-1,-1,-1,-1,-1,-1,-1,-1,-1,-1,-1,-1,-1,-1,-1,-1,-1,-1,-1,-1,-1,-1,-1,-1,-1,-1,-1,-1,-1,-1,-1,-1,-1,-1,-1,-1,-1,-1,-1,-1,-1,-1,-1,-1,-1,-1,-1,-1,-1,-1,-1,-1,-1,-1,-1,-1,-1,-1,-1,-1,-1,-1,-1,-1,-1,-1,-1,-1,-1,-1,-1,-1,-1,-1,-1,-1,-1,-1,-1,-1,-1,-1,-1],"loss_changes":[2.0062143E4,1.3619415E4,5.5424316E2,9.822397E3,1.1046592E3,4.283943E2,1.6145703E2,3.56067E3,3.318401E2,8.1196277E2,1.2384912E2,2.96969E2,5.6885498E1,1.5052734E2,2.075586E1,1.2433457E3,2.109521E3,3.4389615E2,1.2138013E2,4.3028442E1,5.862344E2,6.93084E1,4.8427246E1,2.659306E2,4.9742554E1,6.2209568E1,3.1307129E1,1.206543E2,2.2609901E0,9.776367E0,9.521011E1,8.851719E2,2.1038673E2,1.241498E3,4.6405176E2,2.4715273E2,9.054382E1,5.194995E1,1.3224292E2,2.3714478E1,3.9984894E1,4.2690137E2,1.9900415E2,0E0,2.9559395E1,3.277588E1,0E0,7.126178E1,1.598315E2,2.8627563E1,6.410228E1,1.3834423E1,0E0,1.7241482E1,1.6630371E1,9.308838E1,2.8862549E1,0E0,0E0,4.274414E0,0E0,5.007782E0,3.469481E1,8.5218164E2,2.6327734E2,8.1599E1,8.6769714E1,1.1879008E3,1.27162415E2,3.6338354E2,6.546138E1,1.6322426E2,1.0078313E2,1.4179241E1,1.7370483E1,3.744629E1,7.3180016E1,7.645023E1,1.7106293E1,3.2495117E-1,2.7854755E1,2.0299797E1,0E0,2.0593414E2,7.9599915E2,3.050836E2,8.57417E1,4.0680313E-1,3.509111E1,3.1208008E1,4.583667E1,3.7229248E1,2.4040222E1,1.1621947E2,9.113568E1,4.609796E1,1.3778198E1,3.999211E1,0E0,2.7098747E1,0E0,0E0,0E0,1.2233398E1,0E0,2.0626244E2,8.622949E1,1.2139648E1,2.6710646E1,0E0,3.777588E0,1.440155E0,0E0,0E0,0E0,6.55666E2,2.1913043E2,1.2683739E2,7.884367E1,0E0,7.234134E1,2.7002953E1,0E0,6.91355E2,2.5284308E2,4.315374E2,1.06759705E2,1.13506096E2,2.8705078E2,0E0,3.9167953E1,9.756251E1,8.681561E1,0E0,6.2545044E1,0E0,0E0,8.53241E0,2.5157051E1,4.7986816E1,1.1018677E0,0E0,0E0,6.812562E1,1.0310974E1,0E0,1.7230225E0,0E0,0E0,1.8938011E1,0E0,0E0,0E0,9.879779E1,2.153269E2,1.2737256E2,1.4498058E2,8.35824E1,1.8196521E2,6.9173584E1,1.5177682E2,0E0,0E0,0E0,0E0,8.796387E0,2.790142E1,0E0,0E0,2.563877E1,1.821846E1,9.099243E0,5.65887E1,1.0746564E2,4.0487045E1,5.640788E1,3.1143707E1,2.090638E1,0E0,2.4125305E1,0E0,0E0,1.6915604E1,0E0,0E0,0E0,1.0467041E1,4.2627197E1,1.0254376E2,1.1424097E2,2.8302734E1,9.909328E0,1.1520264E1,0E0,0E0,3.8823242E0,0E0,1.2140503E0,0E0,0E0,0E0,0E0,0E0,0E0,0E0,0E0,0E0,0E0,0E0,0E0,0E0,0E0,0E0,0E0,0E0,0E0,0E0,0E0,0E0,0E0,0E0,0E0,0E0,0E0,0E0,0E0,0E0,0E0,0E0,0E0,0E0,0E0,0E0,0E0,0E0,0E0,0E0,0E0,0E0,0E0,0E0,0E0,0E0,0E0,0E0,0E0,0E0,0E0,0E0,0E0,0E0,0E0,0E0,0E0,0E0,0E0,0E0,0E0,0E0,0E0,0E0,0E0,0E0,0E0,0E0,0E0,0E0,0E0,0E0,0E0,0E0,0E0,0E0,0E0,0E0,0E0,0E0,0E0,0E0,0E0,0E0,0E0,0E0,0E0,0E0,0E0,0E0,0E0,0E0,0E0,0E0,0E0,0E0,0E0,0E0,0E0,0E0,0E0,0E0,0E0,0E0,0E0,0E0,0E0,0E0,0E0,0E0],"parents":[2147483647,0,0,1,1,2,2,3,3,4,4,5,5,6,6,7,7,8,8,9,9,10,10,11,11,12,12,13,13,14,14,15,15,16,16,17,17,18,18,19,19,20,20,21,21,22,22,23,23,24,24,25,25,26,26,27,27,28,28,29,29,30,30,31,31,32,32,33,33,34,34,35,35,36,36,37,37,38,38,39,39,40,40,41,41,42,42,44,44,45,45,47,47,48,48,49,49,50,50,51,51,53,53,54,54,55,55,56,56,59,59,61,61,62,62,63,63,64,64,65,65,66,66,67,67,68,68,69,69,70,70,71,71,72,72,73,73,74,74,75,75,76,76,77,77,78,78,79,79,80,80,81,81,83,83,84,84,85,85,86,86,87,87,88,88,89,89,90,90,91,91,92,92,93,93,94,94,95,95,96,96,97,97,99,99,103,103,105,105,106,106,107,107,108,108,110,110,111,111,115,115,116,116,117,117,118,118,120,120,121,121,123,123,124,124,125,125,126,126,127,127,128,128,130,130,131,131,132,132,134,134,137,137,138,138,139,139,140,140,143,143,144,144,146,146,149,149,153,153,154,154,155,155,156,156,157,157,158,158,159,159,160,160,165,165,166,166,169,169,170,170,171,171,172,172,173,173,174,174,175,175,176,176,177,177,179,179,182,182,186,186,187,187,188,188,189,189,190,190,191,191,192,192,195,195,197,197],"right_children":[2,4,6,8,10,12,14,16,18,20,22,24,26,28,30,32,34,36,38,40,42,44,46,48,50,52,54,56,58,60,62,64,66,68,70,72,74,76,78,80,82,84,86,-1,88,90,-1,92,94,96,98,100,-1,102,104,106,108,-1,-1,110,-1,112,114,116,118,120,122,124,126,128,130,132,134,136,138,140,142,144,146,148,150,152,-1,154,156,158,160,162,164,166,168,170,172,174,176,178,180,182,-1,184,-1,-1,-1,186,-1,188,190,192,194,-1,196,198,-1,-1,-1,200,202,204,206,-1,208,210,-1,212,214,216,218,220,222,-1,224,226,228,-1,230,-1,-1,232,234,236,238,-1,-1,240,242,-1,244,-1,-1,246,-1,-1,-1,248,250,252,254,256,258,260,262,-1,-1,-1,-1,264,266,-1,-1,268,270,272,274,276,278,280,282,284,-1,286,-1,-1,288,-1,-1,-1,290,292,294,296,298,300,302,-1,-1,304,-1,306,-1,-1,-1,-1,-1,-1,-1,-1,-1,-1,-1,-1,-1,-1,-1,-1,-1,-1,-1,-1,-1,-1,-1,-1,-1,-1,-1,-1,-1,-1,-1,-1,-1,-1,-1,-1,-1,-1,-1,-1,-1,-1,-1,-1,-1,-1,-1,-1,-1,-1,-1,-1,-1,-1,-1,-1,-1,-1,-1,-1,-1,-1,-1,-1,-1,-1,-1,-1,-1,-1,-1,-1,-1,-1,-1,-1,-1,-1,-1,-1,-1,-1,-1,-1,-1,-1,-1,-1,-1,-1,-1,-1,-1,-1,-1,-1,-1,-1,-1,-1,-1,-1,-1,-1,-1,-1,-1,-1,-1],"split_conditions":[1E0,1.973E3,1E0,1E0,1E0,1.973E3,7E0,1E0,1E0,3E-2,3.15E-2,1E0,5.1E-1,4.1E1,1E0,3.5E1,1.44E-1,1.6E1,5E0,1.333E4,1E0,2.018E3,1.75E2,1.019E0,5E0,2.7E1,2.8E-2,1E0,6.19E-1,1.64E2,1E0,1.24E2,8E0,6.4E1,6.2E1,5E0,1.5099456E3,2.31E-2,1E0,1.39917E2,1E0,2.5E1,3.31E3,-9.088189E-2,2.61E-1,1.1E1,-1.0439876E-2,1.74E2,3E0,3E-2,5.1E1,1E0,-7.336568E-2,1E0,1.73E2,1.9066136E3,9.4E1,-8.4865496E-2,-4.2935587E-2,3.78E-3,4.6764504E-2,1.3E2,5.1E1,1.1E2,6.92E-1,8.28E-2,1.38E2,1E0,1.1E1,1E0,4.58E-1,2.73E-1,2.27E-1,1.08E2,1.21E2,1E0,1E0,5.1E1,4.3E-2,3.64E-1,5.98E-2,4.67E-2,-9.0434276E-2,7.99E-2,1.9746E4,1.8E1,1E0,9E0,6E0,9.5E1,8.22E-1,7.02E-1,1.7E-4,6E0,3.3E1,5E0,1E0,4.3E-2,-6.1920095E-2,2.044E5,7.5848624E-2,-2.1839103E-2,6.1726697E-2,1.4508E5,2.770418E-2,2E0,1.483E3,8.4241E1,1E0,5.338793E-2,1.52E2,7.5E1,4.0084742E-2,-8.931644E-2,3.2915972E-2,1E0,1E0,1.1E1,6.8E1,-6.7437515E-2,1.4678188E3,3.37E-2,8.203756E-2,1E0,1.84E5,8E0,6.77E-1,1.424E0,1E0,-5.9722215E-2,1E0,5.9E1,6.16E-1,6.374974E-2,7.366667E-2,-5.909365E-2,1.837326E-2,1.11E2,6.33E-1,7.54E-1,9.94E-5,-8.886435E-2,6.91408E-2,1.7E1,3.03E-1,1.5534642E-2,6.6E1,-9.3413286E-2,-6.3403115E-2,6E0,-8.096605E-2,4.0308908E-2,-3.4209277E-2,3.33E-2,1.1E1,1.94E-1,6.82E-1,3E0,1.67E2,3.5E1,5.4E1,5.448999E-2,8.603503E-2,4.6194814E-2,-6.911556E-2,4.9E1,1E0,-4.157212E-2,8.3520696E-2,8.46E2,7.3E1,5E1,4.75E-2,1.4E1,7.39E-1,5.54E-1,6E1,9.5E1,-5.311942E-2,2.14E-1,8.770742E-2,-3.5310645E-2,1E0,6.544231E-2,-2.6003957E-2,3.3313E-2,1.41E2,8.69E-1,2.019E3,1E0,5.8E1,1.4E1,3.4E-1,-3.2359544E-2,7.5208E-2,3.4E-1,5.132992E-2,8.14E-2,5.366049E-2,-7.053028E-2,-3.4064747E-2,5.3950418E-2,-6.6541635E-2,-5.5683195E-3,6.3853174E-2,-8.529266E-2,4.0432144E-2,-3.439259E-4,7.944406E-2,-2.0737413E-3,-9.199601E-2,-2.7992714E-2,5.9431892E-2,6.3443296E-2,1.0769662E-2,-3.804223E-2,7.806485E-2,8.307049E-2,-4.5966204E-2,3.259154E-2,-5.2198768E-2,-8.167708E-2,6.324311E-2,1.9875346E-2,8.700334E-2,-6.517189E-2,5.8146548E-2,-8.69966E-3,4.4303276E-2,-9.458288E-2,6.6848076E-4,8.428893E-2,3.675374E-2,-5.2659484E-3,8.033805E-2,6.2402148E-2,8.6051695E-2,8.947327E-2,6.1386175E-2,3.3721697E-2,-8.8769875E-2,-2.5961503E-2,-9.1121405E-2,8.902471E-2,5.5409957E-2,4.4310432E-2,-4.7028013E-2,-7.8219205E-2,5.578598E-2,-3.7383307E-3,4.848854E-2,5.9566345E-2,-8.0304526E-2,6.797022E-2,-6.4213626E-2,-1.9248066E-2,6.0179275E-2,-8.213253E-2,8.7144755E-2,6.800886E-2,1.3154082E-2,-8.269095E-2,8.554621E-2,8.582535E-2,4.2497713E-2,-6.9827186E-3,6.651809E-2,-6.948753E-3,4.89979E-2,5.6556482E-2,1.0035484E-2,6.846941E-2,2.9993782E-2,-4.1885637E-2,6.070126E-2,1.1059578E-2,7.9777814E-2,7.545079E-2,5.691634E-3,3.8816582E-2,-1.9435024E-2,-6.30449E-2,6.8924385E-3,7.652041E-2,9.887423E-3,2.0261189E-2,7.093119E-2,8.220553E-2,3.6800914E-2,7.8985035E-2,5.1259734E-2,7.074196E-2,1.0459078E-4,-5.4760087E-2,3.2487016E-2,4.9811594E-2,7.1230434E-2,7.890158E-2,1.5503518E-2,2.2641078E-2,7.2014734E-2,8.418818E-2,5.1793914E-2,8.771031E-2,5.603922E-2,6.0365003E-2,8.771496E-2],"split_indices":[98,79,99,63,41,79,55,99,92,88,88,63,66,42,92,41,71,13,82,79,99,102,49,96,82,82,88,30,66,14,97,13,101,13,43,82,87,72,22,69,97,82,79,0,96,81,0,81,82,88,81,41,0,14,30,87,1,0,0,70,0,19,49,8,66,73,8,78,101,92,68,68,67,37,49,25,57,81,88,73,71,71,0,70,79,82,20,20,8,56,66,67,72,14,81,101,3,70,0,74,0,0,0,74,0,101,79,69,32,0,43,17,0,0,0,78,75,101,43,0,87,71,0,29,74,56,66,96,1,0,19,49,66,0,88,0,0,57,67,68,72,0,0,82,68,0,50,0,0,82,0,0,0,71,101,67,67,81,13,9,48,0,0,0,0,18,4,0,0,79,81,1,71,56,68,66,30,63,0,68,0,0,75,0,0,0,63,68,102,83,82,27,71,0,0,71,0,73,0,0,0,0,0,0,0,0,0,0,0,0,0,0,0,0,0,0,0,0,0,0,0,0,0,0,0,0,0,0,0,0,0,0,0,0,0,0,0,0,0,0,0,0,0,0,0,0,0,0,0,0,0,0,0,0,0,0,0,0,0,0,0,0,0,0,0,0,0,0,0,0,0,0,0,0,0,0,0,0,0,0,0,0,0,0,0,0,0,0,0,0,0,0,0,0,0,0,0,0,0,0,0,0,0,0,0,0,0],"split_type":[0,0,0,0,0,0,0,0,0,0,0,0,0,0,0,0,0,0,0,0,0,0,0,0,0,0,0,0,0,0,0,0,0,0,0,0,0,0,0,0,0,0,0,0,0,0,0,0,0,0,0,0,0,0,0,0,0,0,0,0,0,0,0,0,0,0,0,0,0,0,0,0,0,0,0,0,0,0,0,0,0,0,0,0,0,0,0,0,0,0,0,0,0,0,0,0,0,0,0,0,0,0,0,0,0,0,0,0,0,0,0,0,0,0,0,0,0,0,0,0,0,0,0,0,0,0,0,0,0,0,0,0,0,0,0,0,0,0,0,0,0,0,0,0,0,0,0,0,0,0,0,0,0,0,0,0,0,0,0,0,0,0,0,0,0,0,0,0,0,0,0,0,0,0,0,0,0,0,0,0,0,0,0,0,0,0,0,0,0,0,0,0,0,0,0,0,0,0,0,0,0,0,0,0,0,0,0,0,0,0,0,0,0,0,0,0,0,0,0,0,0,0,0,0,0,0,0,0,0,0,0,0,0,0,0,0,0,0,0,0,0,0,0,0,0,0,0,0,0,0,0,0,0,0,0,0,0,0,0,0,0,0,0,0,0,0,0,0,0,0,0,0,0,0,0,0,0,0,0,0,0,0,0,0,0,0,0,0,0,0,0,0,0,0,0,0,0,0,0,0,0,0,0,0,0,0,0],"sum_hessian":[4.2536285E4,3.2167107E4,1.0369179E4,2.5980729E4,6.1863794E3,3.9209626E3,6.4482163E3,2.315619E4,2.8245383E3,4.346787E3,1.8395922E3,2.8052854E3,1.1156772E3,4.929767E3,1.5184492E3,1.4488172E4,8.668018E3,1.0686957E3,1.7558427E3,1.9959445E2,4.147193E3,6.197444E1,1.7776177E3,2.0899927E3,7.152927E2,6.8332756E1,1.0473445E3,4.909121E3,2.0645742E1,1.3470306E3,1.7141856E2,1.4192853E4,2.9531842E2,6.7068364E3,1.9611816E3,7.22935E2,3.4576062E2,1.5103761E3,2.454666E2,1.5033882E2,4.925562E1,2.0261924E3,2.1210002E3,1.2451593E1,4.9522846E1,1.7638463E3,1.3771448E1,7.0332745E2,1.3866653E3,6.0128265E2,1.1401004E2,5.6604504E1,1.1728251E1,2.3081429E1,1.0242631E3,3.8391904E3,1.0699307E3,1.0436064E1,1.020968E1,1.3277565E3,1.9274166E1,1.4994508E2,2.1473486E1,1.3831387E4,3.6146582E2,2.3699141E2,5.8327015E1,6.014587E3,6.922496E2,1.8597207E3,1.0146092E2,6.083968E2,1.1453825E2,2.2224062E1,3.2353656E2,1.4821239E3,2.8252144E1,1.4827808E2,9.718852E1,1.049781E2,4.5360725E1,3.4794853E1,1.4460766E1,1.5127596E3,5.134327E2,3.991761E2,1.7218241E3,2.4287167E1,2.5235682E1,1.7361E3,2.7746342E1,2.3515755E2,4.6816992E2,1.0935609E3,2.931043E2,6.546333E1,5.3581934E2,9.926652E1,1.4743523E1,3.1086588E1,2.5517918E1,1.2772428E1,1.0309001E1,1.00544885E3,1.8814196E1,3.907077E2,3.4484827E3,1.0486863E3,2.1244488E1,1.5254065E1,1.3125023E3,1.3992882E2,1.0016259E1,1.0974119E1,1.0499368E1,1.3599354E4,2.320332E2,2.7774832E2,8.371748E1,1.0966332E1,2.2602507E2,4.8029797E1,1.029722E1,5.102281E3,9.1230597E2,3.379972E2,3.5425238E2,1.6355571E2,1.6961649E3,1.3998674E1,8.746225E1,9.046264E1,5.1793414E2,1.4558658E1,9.997959E1,1.2212487E1,1.0011576E1,2.8999365E2,3.3542892E1,1.1696112E3,3.1251273E2,1.1463833E1,1.6788311E1,1.1986769E2,2.8410395E1,1.0242872E1,8.694565E1,9.47685E1,1.0209599E1,2.0724775E1,2.463595E1,1.8795616E1,1.599924E1,6.7305475E2,8.3970496E2,3.0117496E2,2.1225774E2,2.9840866E2,1.0076742E2,1.6701946E3,5.162959E1,1.051303E1,1.3774136E1,1.5014884E1,1.0220797E1,1.6432811E3,9.281885E1,1.2473251E1,1.527309E1,1.0920943E2,1.2594811E2,4.0121838E2,6.6951546E1,9.48361E2,1.4519989E2,1.7101625E2,1.2208805E2,5.4472527E1,1.0990803E1,4.0498804E2,1.3083128E2,1.2266697E1,8.6999825E1,1.7320717E1,1.376587E1,1.7773432E1,9.876754E2,2.5784683E2,1.3286086E2,2.543923E3,9.0455963E2,4.6315147E1,1.0023711E3,1.0738459E1,1.0506029E1,1.3002544E3,1.2247924E1,1.294301E2,1.0498729E1,1.2225271E4,1.374082E3,1.8564331E2,4.6389893E1,1.0604934E2,1.7169897E2,6.918165E1,1.4535834E1,3.3279907E1,1.9274516E2,1.0736141E1,3.7293655E1,4.866041E3,2.3623962E2,4.7066537E2,4.4164062E2,1.2824124E2,2.0975597E2,3.380352E2,1.621717E1,9.960156E1,6.3954155E1,1.6619711E3,3.4193916E1,4.4148834E1,4.331342E1,7.064317E1,1.9819466E1,9.406659E1,4.2386752E2,7.795069E1,2.2028902E1,2.7797467E2,1.2018978E1,1.5251825E1,1.8291067E1,8.712341E2,2.983772E2,2.9949896E2,1.3013747E1,1.0816253E2,1.170516E1,1.0488652E1,1.7921741E1,7.6172966E1,1.0772684E1,1.0017573E1,1.0707201E1,1.3210042E1,6.5984467E2,5.243671E2,3.1533786E2,1.6561085E1,2.846139E2,1.8977565E2,2.2482082E1,3.7437946E1,2.609707E2,8.200468E1,1.8762741E1,1.610038E3,6.0156567E1,2.6079578E1,2.555001E1,1.6285282E3,1.4752918E1,1.523589E1,7.7582954E1,8.311664E1,2.6092789E1,9.8645294E1,2.730282E1,3.8292227E2,1.829612E1,1.7526333E1,4.9425213E1,8.885217E2,5.9839306E1,1.1987033E2,2.5329567E1,6.840554E1,1.026107E2,1.0352928E2,1.8558771E1,3.6924225E1,1.7548304E1,2.6074923E1,3.7891312E2,4.0876736E1,4.612309E1,9.448173E2,4.2858086E1,2.343541E2,2.3492746E1,6.797319E1,6.4887665E1,1.3978759E3,1.1460472E3,8.8603766E2,1.8521988E1,1.7245811E1,2.9069336E1,9.681079E2,3.426318E1,1.2837418E3,1.6512663E1,1.4502183E1,1.1492791E2],"tree_param":{"num_deleted":"0","num_feature":"103","num_nodes":"307","size_leaf_vector":"1"}},{"base_weights":[-1.5844684E-3,-4.714648E-1,1.3853768E0,-8.2482755E-1,9.383215E-1,1.6944581E0,1.3328509E0,-1.0210998E0,8.8656634E-1,3.4634322E-1,1.1872654E0,1.3314117E0,8.6566105E-2,1.1708523E0,1.4315873E0,-1.1454153E0,-6.2144037E-2,1.294857E0,3.7715647E-1,-2.965816E-1,9.709537E-1,8.514833E-1,1.3802692E0,1.4715987E0,5.7653487E-1,1.7651717E-1,1.2140229E0,1.1401693E0,1.4592186E0,-1.2840111E0,-9.48414E-2,-5.137188E-1,8.2361746E-1,1.3242886E0,-7.741002E-2,-3.63539E-2,1.2182846E0,-5.359789E-1,9.518124E-1,6.2149185E-1,1.3815778E0,1.1792126E0,6.339694E-1,1.2849417E0,1.6615406E0,3.4677282E-2,1.5911368E0,-3.0568937E-2,7.89046E-2,8.2834953E-1,-5.272547E-1,1.2239721E0,-6.1364423E-2,1.2078859E0,1.938882E-1,1.3861353E0,1.5718696E0,-1.6766754E0,-9.0848595E-1,-5.7056826E-1,5.459074E-1,-1.0556983E0,2.6147702E-1,1.1520326E0,-3.043613E-1,1.3898823E0,5.9230906E-1,-7.6984537E-1,8.304917E-1,1.2435609E-1,1.4358058E0,-6.221235E-1,1.4237621E0,2.1384725E-1,1.4729261E0,-9.4478965E-1,7.653686E-1,6.1098844E-1,1.5496482E0,1.2708803E0,6.997592E-1,4.3830565E-1,1.2551227E0,1.4343361E0,1.0340825E0,7.437891E-1,1.6878968E0,8.262011E-2,5.4418016E-2,4.625948E-1,7.82496E-2,-1.1015575E0,5.3336497E-2,1.1131318E0,1.4222503E0,9.05427E-1,1.3735892E0,-3.9258298E-2,7.057979E-2,1.3139054E0,1.5608184E0,1.5773965E0,4.8665617E-2,-1.6909363E0,9.269237E-2,-1.0518008E0,7.478627E-1,-6.834869E-1,1.7421969E0,-4.90162E-1,7.6959497E-1,1.0013461E0,-1.1477591E0,-1.4665627E0,5.996459E-1,-1.309071E-3,1.4248226E0,-1.7401508E0,8.2452613E-1,1.420607E0,-2.5822237E-1,3.3108566E-2,1.500479E0,-1.0113012E0,8.4129745E-1,1.2361286E0,3.7685093E-1,6.2744945E-1,-8.917829E-2,1.5053856E0,-2.537839E-2,-1.2265033E-1,-9.476135E-1,4.8365254E-2,8.368289E-2,7.243276E-1,-5.3607237E-2,1.6733059E0,2.8001282E-2,1.3876686E-2,-1.3532085E0,5.136546E-1,1.0507891E0,6.301334E-2,7.629639E-2,1.0386742E0,1.6186115E0,-1.8984004E-3,1.3183327E0,1.2982745E0,1.0720734E-1,5.080396E-1,-1.5531318E0,1.3613248E0,1.95487E-1,3.0647868E-1,1.4546756E0,1.3257823E0,7.600041E-1,-6.2871994E-3,7.813119E-2,1.7010596E0,1.2183993E0,-8.770155E-2,1.2463849E0,-1.6035771E0,-5.645001E-3,8.038588E-1,1.2387872E0,1.1127596E0,1.5507846E0,1.0264878E0,-1.1104221E-2,1.4610411E0,6.570227E-1,1.4002762E0,1.1441659E0,1.5723283E0,2.675064E-2,1.5851315E0,1.120866E0,-8.53235E-2,2.9920686E-2,8.779784E-3,-5.603201E-2,1.7026372E-2,7.482455E-2,-4.9585164E-2,6.0390853E-3,2.4738634E-2,1.02160886E-1,-5.812428E-3,-7.260855E-2,4.5840833E-2,-1.729803E-2,-8.512222E-2,9.88199E-2,-6.2390488E-2,4.4304103E-2,-8.051025E-2,-7.26425E-4,1.5961891E-2,7.641736E-2,4.518235E-2,-7.829296E-2,-8.946631E-2,7.452788E-2,-9.250938E-2,-4.1249648E-2,6.654342E-2,-5.854831E-2,5.0989088E-2,7.537085E-2,4.4267144E-2,-7.045666E-2,-4.2277418E-2,6.064583E-2,8.329077E-2,4.491269E-2,5.0584793E-2,-6.040699E-2,7.02325E-2,-6.6096894E-2,-2.142835E-2,6.998186E-2,-2.1335207E-2,5.011278E-2,5.2271623E-2,-3.6732294E-2,7.806779E-2,3.214069E-2,2.1064987E-2,-2.8820405E-2,-3.3240464E-2,-7.965301E-2,6.8915114E-2,1.23383E-3,6.1006844E-2,8.784097E-2,-3.7488285E-2,-9.472514E-2,1.119404E-2,5.6533497E-2,6.1087538E-2,-1.031768E-2,5.1963568E-2,-2.6303438E-2,7.1498625E-2,3.997346E-3,2.938663E-2,8.271534E-2,2.7843852E-2,6.7969665E-2,7.65669E-2,3.1225821E-2,-3.2774843E-2,5.6901097E-2,5.1075112E-2,1.1938549E-2,-9.503419E-2,-4.617078E-2,7.137125E-2,1.8824182E-2,3.6075026E-2,-1.5203719E-2,-3.1291083E-2,6.741487E-2,7.349617E-2,1.6569134E-2,7.102217E-2,-1.8736796E-2,-1.2946545E-2,4.5424588E-2,8.5548215E-2,6.62305E-2,4.1017443E-2,7.709198E-2,5.16742E-2,-5.401361E-2,8.5135885E-2,3.5062656E-2,-4.5732696E-2,-9.3241416E-2,5.9152294E-2,2.1707682E-2,-2.4600642E-2,6.3118756E-2,5.9131928E-2,-2.1265604E-2,7.8874275E-2,2.0698022E-2,5.474819E-2,5.934549E-3,7.480293E-2,2.9068878E-2,-1.0675631E-2,5.259881E-2,7.084022E-2,-2.5070695E-2,5.1558178E-2,8.20246E-2,5.5077273E-2,7.981874E-2,7.953613E-2,4.927655E-2,2.6627114E-2,7.039636E-2],"categories":[],"categories_nodes":[],"categories_segments":[],"categories_sizes":[],"default_left":[0,0,0,0,0,0,0,0,0,0,0,0,0,0,0,0,0,0,0,0,0,0,0,0,0,0,0,0,0,0,0,0,0,0,0,0,0,0,0,0,0,0,0,0,0,0,0,0,0,0,0,0,0,0,0,0,0,0,0,0,0,0,0,0,0,0,0,0,0,0,0,0,0,0,0,0,0,0,0,0,0,0,0,0,0,0,0,0,0,0,0,0,0,0,0,0,0,0,0,0,0,0,0,0,0,0,0,0,0,0,0,0,0,0,0,0,0,0,0,0,0,0,0,0,0,0,0,0,0,0,0,0,0,0,0,0,0,0,0,0,0,0,0,0,0,0,0,0,0,0,0,0,0,0,0,0,0,0,0,0,0,0,0,0,0,0,0,0,0,0,0,0,0,0,0,0,0,0,0,0,0,0,0,0,0,0,0,0,0,0,0,0,0,0,0,0,0,0,0,0,0,0,0,0,0,0,0,0,0,0,0,0,0,0,0,0,0,0,0,0,0,0,0,0,0,0,0,0,0,0,0,0,0,0,0,0,0,0,0,0,0,0,0,0,0,0,0,0,0,0,0,0,0,0,0,0,0,0,0,0,0,0,0,0,0,0,0,0,0,0,0,0,0,0,0,0,0,0,0,0,0,0,0,0,0,0,0,0,0,0,0,0,0,0,0,0,0,0,0,0,0,0,0,0,0,0,0],"id":3,"left_children":[1,3,5,7,9,11,13,15,17,19,21,23,-1,25,27,29,31,33,35,37,39,41,43,45,47,49,51,53,55,57,59,61,63,65,-1,67,69,71,73,75,77,79,81,83,85,-1,87,-1,-1,89,91,93,-1,95,97,99,101,103,105,107,109,111,113,115,117,119,121,123,125,127,129,131,133,135,137,139,141,143,145,147,149,151,153,155,157,159,161,-1,-1,163,-1,165,-1,167,169,171,173,-1,-1,175,177,179,-1,181,-1,183,185,187,189,191,193,195,197,199,201,203,205,207,209,211,213,215,217,219,221,223,225,227,-1,229,-1,231,233,-1,-1,235,-1,237,-1,-1,239,241,243,245,-1,247,249,-1,251,253,255,257,259,261,263,265,267,269,271,-1,-1,273,275,277,279,281,-1,283,285,287,289,291,-1,293,295,297,299,301,-1,303,305,-1,-1,-1,-1,-1,-1,-1,-1,-1,-1,-1,-1,-1,-1,-1,-1,-1,-1,-1,-1,-1,-1,-1,-1,-1,-1,-1,-1,-1,-1,-1,-1,-1,-1,-1,-1,-1,-1,-1,-1,-1,-1,-1,-1,-1,-1,-1,-1,-1,-1,-1,-1,-1,-1,-1,-1,-1,-1,-1,-1,-1,-1,-1,-1,-1,-1,-1,-1,-1,-1,-1,-1,-1,-1,-1,-1,-1,-1,-1,-1,-1,-1,-1,-1,-1,-1,-1,-1,-1,-1,-1,-1,-1,-1,-1,-1,-1,-1,-1,-1,-1,-1,-1,-1,-1,-1,-1,-1,-1,-1,-1,-1,-1,-1,-1,-1,-1,-1,-1,-1,-1,-1,-1,-1,-1,-1],"loss_changes":[2.7510129E4,1.5708181E4,1.7116211E2,8.469527E3,9.309136E2,1.8411621E1,1.4444043E2,2.6963262E3,5.391299E2,7.5214825E2,2.8711328E2,1.4709839E1,0E0,1.4851562E2,4.400293E1,2.9152715E3,1.0390791E3,1.2252417E2,4.0201788E2,2.7647144E2,1.3544855E2,1.1518091E2,7.356201E1,1.0368835E1,3.0317204E1,6.71104E1,8.215332E1,3.1531982E1,4.0438477E1,2.6068047E3,7.119728E2,7.23131E2,3.2530957E2,6.762256E1,0E0,4.9389633E2,9.04657E1,1.3179558E2,5.6961273E1,1.1677507E2,5.55094E1,2.7572876E1,1.1851425E2,7.770386E1,1.5947754E1,0E0,1.471283E0,0E0,0E0,1.971059E1,6.571006E1,7.110596E1,0E0,2.1932861E1,4.19976E1,3.766992E1,5.178711E0,4.3844336E2,2.1476382E3,3.5123428E2,2.3104669E2,1.9294043E2,4.150459E2,2.1382104E2,3.233366E2,6.657861E1,6.0375496E1,1.6452278E2,6.505159E1,6.2816917E1,4.3717346E1,1.2075391E2,2.1401062E0,4.2011757E1,1.5000412E1,2.2228077E1,3.3385773E1,3.986371E1,1.0906311E1,3.3739197E1,3.7513454E1,1.0445886E2,2.6082245E1,2.9874023E1,6.233087E1,1.5605856E1,2.1949463E0,0E0,0E0,2.258077E1,0E0,2.5785095E1,0E0,8.1629395E1,4.5308838E1,2.296994E1,1.7640747E1,0E0,0E0,3.1142334E1,9.969238E0,5.3183594E0,0E0,3.0726758E2,0E0,7.035332E2,2.1929144E2,3.1709326E2,2.2524597E1,6.3622772E1,1.3481982E2,1.19146774E2,1.9845764E2,2.4231018E1,1.5405655E2,1.8688383E2,1.1879138E2,7.3090515E0,1.1458397E2,4.3133545E1,3.385674E1,7.842372E1,3.0162277E0,1.4710355E2,6.934775E1,5.1644043E1,8.561777E1,3.014845E1,0E0,1.3814392E1,0E0,7.292919E1,8.108002E1,0E0,0E0,2.0812675E1,0E0,5.412445E-1,0E0,0E0,9.352314E0,4.4959938E1,4.7606567E1,2.9813753E1,0E0,1.6868107E1,1.0543152E1,0E0,1.5610046E1,7.3234787E0,4.3546906E1,9.958176E1,3.8264122E0,1.3304871E1,6.1308317E0,2.481519E1,2.1745117E1,6.2094604E1,6.238896E1,0E0,0E0,2.2888184E-1,1.6135025E0,3.621967E1,4.168339E0,4.525673E0,0E0,8.599716E1,6.2269043E1,3.8173584E1,2.462793E1,9.23378E0,0E0,7.253784E0,1.1949777E1,4.7097168E1,4.086084E1,8.48584E0,0E0,5.0478516E0,5.4803886E0,0E0,0E0,0E0,0E0,0E0,0E0,0E0,0E0,0E0,0E0,0E0,0E0,0E0,0E0,0E0,0E0,0E0,0E0,0E0,0E0,0E0,0E0,0E0,0E0,0E0,0E0,0E0,0E0,0E0,0E0,0E0,0E0,0E0,0E0,0E0,0E0,0E0,0E0,0E0,0E0,0E0,0E0,0E0,0E0,0E0,0E0,0E0,0E0,0E0,0E0,0E0,0E0,0E0,0E0,0E0,0E0,0E0,0E0,0E0,0E0,0E0,0E0,0E0,0E0,0E0,0E0,0E0,0E0,0E0,0E0,0E0,0E0,0E0,0E0,0E0,0E0,0E0,0E0,0E0,0E0,0E0,0E0,0E0,0E0,0E0,0E0,0E0,0E0,0E0,0E0,0E0,0E0,0E0,0E0,0E0,0E0,0E0,0E0,0E0,0E0,0E0,0E0,0E0,0E0,0E0,0E0,0E0,0E0,0E0,0E0,0E0,0E0,0E0,0E0,0E0,0E0,0E0,0E0,0E0,0E0,0E0,0E0,0E0,0E0,0E0,0E0],"parents":[2147483647,0,0,1,1,2,2,3,3,4,4,5,5,6,6,7,7,8,8,9,9,10,10,11,11,13,13,14,14,15,15,16,16,17,17,18,18,19,19,20,20,21,21,22,22,23,23,24,24,25,25,26,26,27,27,28,28,29,29,30,30,31,31,32,32,33,33,35,35,36,36,37,37,38,38,39,39,40,40,41,41,42,42,43,43,44,44,46,46,49,49,50,50,51,51,53,53,54,54,55,55,56,56,57,57,58,58,59,59,60,60,61,61,62,62,63,63,64,64,65,65,66,66,67,67,68,68,69,69,70,70,71,71,72,72,73,73,74,74,75,75,76,76,77,77,78,78,79,79,80,80,81,81,82,82,83,83,84,84,85,85,86,86,89,89,91,91,93,93,94,94,95,95,96,96,99,99,100,100,101,101,103,103,105,105,106,106,107,107,108,108,109,109,110,110,111,111,112,112,113,113,114,114,115,115,116,116,117,117,118,118,119,119,120,120,121,121,122,122,123,123,124,124,125,125,126,126,127,127,129,129,131,131,132,132,135,135,137,137,140,140,141,141,142,142,143,143,145,145,146,146,148,148,149,149,150,150,151,151,152,152,153,153,154,154,155,155,156,156,157,157,158,158,161,161,162,162,163,163,164,164,165,165,167,167,168,168,169,169,170,170,171,171,173,173,174,174,175,175,176,176,177,177,179,179,180,180],"right_children":[2,4,6,8,10,12,14,16,18,20,22,24,-1,26,28,30,32,34,36,38,40,42,44,46,48,50,52,54,56,58,60,62,64,66,-1,68,70,72,74,76,78,80,82,84,86,-1,88,-1,-1,90,92,94,-1,96,98,100,102,104,106,108,110,112,114,116,118,120,122,124,126,128,130,132,134,136,138,140,142,144,146,148,150,152,154,156,158,160,162,-1,-1,164,-1,166,-1,168,170,172,174,-1,-1,176,178,180,-1,182,-1,184,186,188,190,192,194,196,198,200,202,204,206,208,210,212,214,216,218,220,222,224,226,228,-1,230,-1,232,234,-1,-1,236,-1,238,-1,-1,240,242,244,246,-1,248,250,-1,252,254,256,258,260,262,264,266,268,270,272,-1,-1,274,276,278,280,282,-1,284,286,288,290,292,-1,294,296,298,300,302,-1,304,306,-1,-1,-1,-1,-1,-1,-1,-1,-1,-1,-1,-1,-1,-1,-1,-1,-1,-1,-1,-1,-1,-1,-1,-1,-1,-1,-1,-1,-1,-1,-1,-1,-1,-1,-1,-1,-1,-1,-1,-1,-1,-1,-1,-1,-1,-1,-1,-1,-1,-1,-1,-1,-1,-1,-1,-1,-1,-1,-1,-1,-1,-1,-1,-1,-1,-1,-1,-1,-1,-1,-1,-1,-1,-1,-1,-1,-1,-1,-1,-1,-1,-1,-1,-1,-1,-1,-1,-1,-1,-1,-1,-1,-1,-1,-1,-1,-1,-1,-1,-1,-1,-1,-1,-1,-1,-1,-1,-1,-1,-1,-1,-1,-1,-1,-1,-1,-1,-1,-1,-1,-1,-1,-1,-1,-1,-1],"split_conditions":[1E0,1E0,0E0,1E0,1.67E2,2E0,1E0,1E0,1E0,1.25E0,1E0,2.42794E5,8.6566105E-2,1E0,1E0,1.3333334E0,1.1E1,1E0,1E0,1E0,1E0,1.306E0,7E0,6.15E-1,3E1,2.7E1,1.8E2,9.322034E-1,1E0,1.79E2,1E0,1E0,1E0,1E0,-7.741002E-2,6.4833336E-2,3.3166666E-2,1E0,1E0,2.65E-2,3.0833334E-2,2.99E2,3E0,4E0,1.331057E6,3.4677282E-2,6E0,-3.0568937E-2,7.89046E-2,7E0,6.4E1,1.1E1,-6.1364423E-2,4E0,3.9E1,1E0,9.25E-1,1.99E2,6E1,6.9E1,4.8E-2,1.29E-1,4E0,1.11822E2,3E0,1.94E2,1E0,1E0,1.15E2,8.43E-1,7.8E1,3E0,1E0,3.11E2,1.6E1,1.77666E5,1E0,1E0,1E0,4.49E-1,4.84E-1,1E0,6.739158E7,1.331057E6,2E0,7E0,1.25E2,8.262011E-2,5.4418016E-2,2.73E-1,7.82496E-2,1E0,5.3336497E-2,2E0,2.8E0,4.2E1,2.45826E5,-3.9258298E-2,7.057979E-2,2.1204E5,1.66E2,1.65E2,4.8665617E-2,1.24E2,9.269237E-2,0E0,1E0,1.1E1,6.8E1,1E0,1E0,3.57E-1,2.1E1,1.1E1,5.6E1,9.1882E1,2.14E-1,9.7767256E-2,1.47E2,3E-1,1E0,7.32E-1,6.6E1,-3.1E1,1.08E-1,5E0,1.8E1,1.8E1,-8.917829E-2,5.3E1,-2.537839E-2,1.04953E2,6.01E-1,4.8365254E-2,8.368289E-2,4.91E-1,-5.3607237E-2,1E0,2.8001282E-2,1.3876686E-2,1E0,1.1E1,1E0,3.2E1,7.629639E-2,1.10134E2,9.0004E1,-1.8984004E-3,1.598E5,3E0,1.1E1,1E0,5.5299496E4,2.47603E5,1.1E-1,1E0,9.11E-1,8.75E-1,2.58503E3,-6.2871994E-3,7.813119E-2,1.53E2,4.3E1,4E0,3.544348E3,6E0,-5.645001E-3,4E0,1.3E-1,1.39E2,6.7E1,3E1,-1.1104221E-2,8E0,1E0,1.6E2,1.8E1,3.9666668E-2,2.675064E-2,1.81E2,6.22E-1,-8.53235E-2,2.9920686E-2,8.779784E-3,-5.603201E-2,1.7026372E-2,7.482455E-2,-4.9585164E-2,6.0390853E-3,2.4738634E-2,1.02160886E-1,-5.812428E-3,-7.260855E-2,4.5840833E-2,-1.729803E-2,-8.512222E-2,9.88199E-2,-6.2390488E-2,4.4304103E-2,-8.051025E-2,-7.26425E-4,1.5961891E-2,7.641736E-2,4.518235E-2,-7.829296E-2,-8.946631E-2,7.452788E-2,-9.250938E-2,-4.1249648E-2,6.654342E-2,-5.854831E-2,5.0989088E-2,7.537085E-2,4.4267144E-2,-7.045666E-2,-4.2277418E-2,6.064583E-2,8.329077E-2,4.491269E-2,5.0584793E-2,-6.040699E-2,7.02325E-2,-6.6096894E-2,-2.142835E-2,6.998186E-2,-2.1335207E-2,5.011278E-2,5.2271623E-2,-3.6732294E-2,7.806779E-2,3.214069E-2,2.1064987E-2,-2.8820405E-2,-3.3240464E-2,-7.965301E-2,6.8915114E-2,1.23383E-3,6.1006844E-2,8.784097E-2,-3.7488285E-2,-9.472514E-2,1.119404E-2,5.6533497E-2,6.1087538E-2,-1.031768E-2,5.1963568E-2,-2.6303438E-2,7.1498625E-2,3.997346E-3,2.938663E-2,8.271534E-2,2.7843852E-2,6.7969665E-2,7.65669E-2,3.1225821E-2,-3.2774843E-2,5.6901097E-2,5.1075112E-2,1.1938549E-2,-9.503419E-2,-4.617078E-2,7.137125E-2,1.8824182E-2,3.6075026E-2,-1.5203719E-2,-3.1291083E-2,6.741487E-2,7.349617E-2,1.6569134E-2,7.102217E-2,-1.8736796E-2,-1.2946545E-2,4.5424588E-2,8.5548215E-2,6.62305E-2,4.1017443E-2,7.709198E-2,5.16742E-2,-5.401361E-2,8.5135885E-2,3.5062656E-2,-4.5732696E-2,-9.3241416E-2,5.9152294E-2,2.1707682E-2,-2.4600642E-2,6.3118756E-2,5.9131928E-2,-2.1265604E-2,7.8874275E-2,2.0698022E-2,5.474819E-2,5.934549E-3,7.480293E-2,2.9068878E-2,-1.0675631E-2,5.259881E-2,7.084022E-2,-2.5070695E-2,5.1558178E-2,8.20246E-2,5.5077273E-2,7.981874E-2,7.953613E-2,4.927655E-2,2.6627114E-2,7.039636E-2],"split_indices":[85,98,76,63,81,85,99,78,79,84,99,74,0,84,84,84,101,89,4,63,43,96,55,67,20,82,58,84,98,81,99,99,79,95,0,88,88,15,99,88,88,76,63,76,86,0,82,0,0,85,26,101,0,85,14,13,67,52,48,6,88,67,76,69,80,63,56,77,79,96,54,82,5,79,82,74,99,28,8,67,68,54,86,86,101,18,57,0,0,73,0,98,0,85,84,82,74,0,0,74,41,14,0,41,0,76,56,101,81,97,75,68,8,56,27,69,68,88,79,68,97,68,48,76,73,79,80,35,0,34,0,69,68,0,0,67,0,8,0,0,91,101,57,43,0,69,69,0,74,101,101,76,87,74,73,43,67,68,87,0,0,25,65,80,87,101,0,82,68,63,56,20,0,13,98,2,6,88,0,49,67,0,0,0,0,0,0,0,0,0,0,0,0,0,0,0,0,0,0,0,0,0,0,0,0,0,0,0,0,0,0,0,0,0,0,0,0,0,0,0,0,0,0,0,0,0,0,0,0,0,0,0,0,0,0,0,0,0,0,0,0,0,0,0,0,0,0,0,0,0,0,0,0,0,0,0,0,0,0,0,0,0,0,0,0,0,0,0,0,0,0,0,0,0,0,0,0,0,0,0,0,0,0,0,0,0,0,0,0,0,0,0,0,0,0,0,0,0,0,0,0,0,0,0,0,0,0],"split_type":[0,0,0,0,0,0,0,0,0,0,0,0,0,0,0,0,0,0,0,0,0,0,0,0,0,0,0,0,0,0,0,0,0,0,0,0,0,0,0,0,0,0,0,0,0,0,0,0,0,0,0,0,0,0,0,0,0,0,0,0,0,0,0,0,0,0,0,0,0,0,0,0,0,0,0,0,0,0,0,0,0,0,0,0,0,0,0,0,0,0,0,0,0,0,0,0,0,0,0,0,0,0,0,0,0,0,0,0,0,0,0,0,0,0,0,0,0,0,0,0,0,0,0,0,0,0,0,0,0,0,0,0,0,0,0,0,0,0,0,0,0,0,0,0,0,0,0,0,0,0,0,0,0,0,0,0,0,0,0,0,0,0,0,0,0,0,0,0,0,0,0,0,0,0,0,0,0,0,0,0,0,0,0,0,0,0,0,0,0,0,0,0,0,0,0,0,0,0,0,0,0,0,0,0,0,0,0,0,0,0,0,0,0,0,0,0,0,0,0,0,0,0,0,0,0,0,0,0,0,0,0,0,0,0,0,0,0,0,0,0,0,0,0,0,0,0,0,0,0,0,0,0,0,0,0,0,0,0,0,0,0,0,0,0,0,0,0,0,0,0,0,0,0,0,0,0,0,0,0,0,0,0,0,0,0,0,0,0,0,0,0,0,0,0,0,0,0,0,0,0,0,0,0,0,0,0,0],"sum_hessian":[4.2210492E4,3.152947E4,1.06810205E4,2.52108E4,6.318669E3,1.5469501E3,9.13407E3,2.2617322E4,2.5934775E3,1.8712664E3,4.447403E3,1.4602028E2,1.4009298E3,3.4638025E3,5.670268E3,2.0021602E4,2.5957207E3,1.4387673E3,1.1547101E3,9.2237317E2,9.488931E2,1.625252E3,2.822151E3,1.223495E2,2.3670782E1,1.4434041E2,3.3194622E3,4.947341E2,5.175534E3,1.768792E4,2.333683E3,1.7195089E3,8.762119E2,1.4245544E3,1.4212944E1,7.747761E2,3.79934E2,7.7443494E2,1.4793823E2,5.13982E2,4.3491113E2,6.46598E2,9.786539E2,2.111946E3,7.102049E2,1.7199928E1,1.05149574E2,1.100623E1,1.2664552E1,7.484348E1,6.9496925E1,3.3064856E3,1.2976473E1,4.6143683E2,3.3297276E1,3.1471184E3,2.0284156E3,8.644947E3,9.042972E3,1.3393706E3,9.943124E2,1.0117679E3,7.07741E2,6.7861066E2,1.9760127E2,1.3065718E3,1.1798256E2,4.1972925E2,3.5504688E2,6.327775E1,3.1665625E2,7.4248016E2,3.1954763E1,6.181314E1,8.61251E1,4.2773323E1,4.7120868E2,7.87023E1,3.5620883E2,5.4143005E2,1.05168015E2,7.455201E2,2.3313377E2,1.3207068E3,7.912391E2,2.0642252E1,6.895626E2,9.16902E1,1.34593725E1,5.1099667E1,2.3743818E1,5.1316746E1,1.8180178E1,2.1251255E3,1.1813602E3,1.6561078E2,2.9582605E2,1.8654222E1,1.4643052E1,2.232513E3,9.1460547E2,2.0082369E3,2.01787E1,8.6106875E3,3.4260174E1,8.323178E3,7.1979456E2,1.2776929E3,6.1677704E1,1.7634264E2,8.179697E2,4.29178E1,9.688501E2,1.15287285E2,5.9245374E2,1.2999478E2,5.4861584E2,8.673932E1,1.10861946E2,1.2827955E3,2.3776344E1,7.366203E1,4.4320522E1,3.6534824E2,5.438103E1,1.8653021E2,1.6851666E2,5.060502E1,1.2672729E1,3.059283E2,1.0727959E1,2.9348947E2,4.4899072E2,1.3028274E1,1.8926489E1,4.4561146E1,1.7251995E1,6.9940384E1,1.6184713E1,1.0792827E1,3.1980495E1,2.5187677E2,2.1933191E2,4.989067E1,2.881163E1,4.4268555E1,3.1194028E2,1.8949741E1,5.224803E2,5.172821E1,5.3439804E1,7.210172E2,2.4502888E1,2.1163765E2,2.1496124E1,2.368001E1,1.2970269E3,3.8143906E2,4.0980002E2,1.0421712E1,1.022054E1,6.6820575E2,2.1356882E1,3.0543371E1,2.0556293E1,3.3622147E1,1.76946E1,6.161082E2,1.5090172E3,3.4949274E2,8.318675E2,1.4963416E2,1.597662E1,2.627235E2,3.310253E1,1.4748134E3,7.576996E2,9.0393024E2,1.0675227E1,1.9723469E3,3.5890053E1,8.552909E3,5.7778065E1,4.4193747E2,7.88124E3,4.6709753E2,2.5269702E2,9.2353687E2,3.5415604E2,1.2504197E1,4.9173504E1,1.2779295E2,4.854969E1,7.227636E2,9.520614E1,1.1177344E1,3.1740456E1,9.237925E2,4.5057617E1,1.0481005E2,1.0477238E1,4.5608817E2,1.3636555E2,8.262553E1,4.736925E1,1.0469809E1,5.3814606E2,7.651731E1,1.0222007E1,8.869043E1,2.2171518E1,2.3063565E2,1.0521598E3,1.2041973E1,1.1734371E1,4.2381737E1,3.1280296E1,3.3388E1,1.0932524E1,3.2029293E1,3.3331894E2,4.342334E1,1.0957691E1,1.653766E1,1.6999255E2,7.389278E1,9.462389E1,3.8900265E1,1.1704753E1,2.865262E2,1.9402075E1,1.3351161E2,1.5997786E2,3.1361115E2,1.3537958E2,2.2531046E1,2.2030098E1,1.3312563E1,5.6627823E1,1.6249949E1,1.5730548E1,1.7231429E2,7.9562485E1,1.9309996E2,2.623195E1,1.8487682E1,3.1402988E1,3.1088467E1,1.3180087E1,1.102432E1,3.0091595E2,2.7477692E1,4.950026E2,3.748778E1,1.4240429E1,3.0923483E1,2.2516321E1,2.4707721E2,4.7394E2,1.4488243E1,1.0014645E1,1.9790535E2,1.3732305E1,1.0254437E1,1.1241686E1,1.2707579E1,1.097243E1,1.279352E3,1.7674812E1,3.6148154E2,1.9957544E1,5.2028965E1,3.5777106E2,6.476214E2,2.058434E1,1.1159484E1,1.0197398E1,1.4323099E1,1.6220272E1,1.0033607E1,1.0522687E1,1.0481999E1,2.3140148E1,3.0306775E2,3.130405E2,2.0021929E1,1.4889954E3,3.3452536E2,1.4967349E1,8.123988E2,1.9468681E1,1.3894708E2,1.0687071E1,2.5199161E2,1.073191E1,1.047453E1,2.2627998E1,1.4623585E3,1.2454825E1,6.1968805E2,1.3801154E2,4.6201477E1,8.5772876E2,1.9524879E3,1.9858992E1,1.2705548E1,2.3184504E1],"tree_param":{"num_deleted":"0","num_feature":"103","num_nodes":"307","size_leaf_vector":"1"}},{"base_weights":[5.565349E-3,-4.3952543E-1,1.3297832E0,-6.677982E-1,1.0376629E0,1.257692E0,1.5291646E0,-1.026686E0,-1.2874253E-1,1.2534925E0,4.302144E-1,1.1012253E0,1.3631278E0,1.550217E0,1.012381E0,-1.3593245E0,-6.771313E-1,-7.8858006E-1,2.86161E-1,1.0809101E0,1.5735573E0,-6.1041445E-2,1.188139E0,5.0465405E-1,1.1749703E0,1.3686566E0,-3.792573E-2,1.5653394E0,8.842271E-1,1.3494717E0,1.8995929E-1,-1.585817E0,-4.24262E-1,-7.395323E-1,1.272871E0,-1.3398594E0,5.600166E-1,9.5460755E-1,-1.271738E-1,4.0699303E-2,1.1692119E0,1.5918839E0,1.1485946E0,-1.4475197E0,1.4567988E-1,5.883366E-1,1.4073492E0,6.6152495E-1,-6.0043395E-1,9.5678455E-1,1.2748594E0,1.3801625E0,7.9302406E-1,1.5703622E0,1.6977802E-2,-1.189309E-2,1.248512E0,2.6211431E-2,1.4927377E0,-2.2744553E-2,4.4575706E-2,-1.6037362E0,8.8711016E-2,-1.4585901E0,-2.4696031E-1,-8.353038E-1,1.6318367E-1,-4.4312346E-1,1.452874E0,-1.3746096E0,1.1902187E0,-7.094963E-1,6.936037E-1,1.0376406E0,-1.0221292E0,2.2225508E-1,-8.015934E-1,-1.1214267E0,1.3918772E0,1.2358402E0,1.3653265E-1,1.6185249E0,1.2988802E0,1.8259248E-2,7.441578E-2,-1.6871425E0,-1.2151874E-2,-3.739953E-2,1.5387783E0,-2.4531911E-1,1.0752965E0,1.4610924E0,-4.0753985E-5,3.2701632E-1,1.2932867E0,-1.365254E0,5.2530367E-2,1.0945351E0,2.4594568E-1,-1.8342789E-1,1.293674E0,1.384461E0,2.9043497E-3,-3.7447023E-1,1.553855E0,1.5898604E0,1.2736862E0,2.6020486E-2,1.4921268E0,7.8019165E-2,5.1225215E-2,-1.6208394E0,7.9211396E-1,-1.5275836E0,6.7084463E-4,2.706102E-1,-6.302451E-1,-8.956429E-1,3.9475602E-1,1.717015E0,-1.7841746E-1,2.16794E-2,-6.6078596E-2,1.5660532E0,-2.0254305E-2,-1.3958563E0,7.0541285E-2,8.17122E-2,1.4607117E-2,4.9951705E-3,-1.3675227E0,9.276786E-1,8.191888E-3,8.654857E-1,1.5882477E0,-5.612047E-1,-1.4819423E0,4.628618E-2,1.2159786E0,-1.0434619E0,2.6650128E-1,-5.2920604E-1,-8.96481E-2,1.5392126E0,2.4613654E-2,1.2752538E0,7.7027775E-2,7.7819747E-1,-1.2439077E0,1.6352671E0,1.3468684E0,1.3901826E0,2.6313847E-2,-9.050867E-2,-4.4545952E-2,3.529112E-1,-9.6466166E-1,2.5467196E-2,8.658334E-2,5.4738916E-2,-1.1883554E0,1.2831552E0,1.9081514E-2,1.5182192E0,1.2883519E-2,-2.0101118E-1,1.06533E0,1.4526018E0,2.4982523E-2,-4.93715E-2,-8.702224E-2,1.125406E0,-4.760011E-2,5.671522E-1,-1.3741611E0,-7.163153E-2,4.596931E-2,1.3102529E0,1.0797461E-1,1.3444636E0,1.5339919E0,-1.3474172E0,4.8149858E-2,5.8206856E-2,8.210941E-2,1.5945206E0,2.3287851E-2,6.3484055E-1,1.4306889E0,8.3449915E-2,5.234588E-2,-8.204027E-2,-1.2579407E-2,-8.4451854E-2,7.693227E-2,-7.986724E-2,-3.076013E-2,2.2067111E-2,-7.3082685E-2,9.045227E-3,-4.811845E-2,-4.9705587E-2,-1.1257907E-2,3.7018925E-2,-3.2964885E-2,9.4473E-2,5.3327035E-2,-2.9274775E-2,3.7175383E-2,5.1587727E-2,8.528017E-2,-7.0846856E-2,6.091219E-2,-2.1422615E-2,6.963506E-2,-8.558311E-2,-1.8899811E-2,4.8904017E-2,-6.975626E-2,-4.2840082E-2,2.1274148E-2,5.397431E-2,2.1471983E-2,8.0306776E-2,2.713493E-2,-2.5764685E-3,-8.7875165E-2,-9.2152484E-2,-3.026717E-2,-1.2458947E-2,5.0729405E-2,4.5983523E-2,7.9327606E-2,-8.5132904E-2,-3.915525E-2,-2.5471091E-2,3.3534802E-2,-5.0358713E-2,2.044593E-2,5.0310105E-2,8.125155E-2,4.341261E-2,6.874601E-2,7.632261E-2,-2.8748626E-2,5.5748522E-2,-2.3799956E-2,-3.2813158E-2,-9.2796706E-2,8.2177095E-2,5.531766E-2,2.1408156E-2,7.756429E-2,5.778391E-2,7.525283E-2,-3.8453702E-2,3.85237E-2,-8.919905E-2,-8.743522E-3,-2.3749148E-2,-9.137353E-2,7.268431E-2,2.9986797E-2,3.4843605E-2,7.802219E-2,1.797846E-2,-3.236721E-2,2.359098E-2,7.002455E-2,5.808992E-2,8.347184E-2,5.861304E-2,1.1249049E-2,4.49565E-2,-4.0077128E-2,-9.399977E-2,-3.6245015E-2,5.3694207E-2,6.958217E-2,-4.633937E-2,5.5888563E-2,7.379281E-2,6.268441E-2,7.725578E-2,3.4099538E-2,-3.0221527E-2,-9.6608624E-2,8.040326E-2,6.418758E-2,5.1556673E-2,-1.5233683E-2,7.621949E-2,4.3159526E-2],"categories":[],"categories_nodes":[],"categories_segments":[],"categories_sizes":[],"default_left":[0,0,0,0,0,0,0,0,0,0,0,0,0,0,0,0,0,0,0,0,0,0,0,0,0,0,0,0,0,0,0,0,0,0,0,0,0,0,0,0,0,0,0,0,0,0,0,0,0,0,0,0,0,0,0,0,0,0,0,0,0,0,0,0,0,0,0,0,0,0,0,0,0,0,0,0,0,0,0,0,0,0,0,0,0,0,0,0,0,0,0,0,0,0,0,0,0,0,0,0,0,0,0,0,0,0,0,0,0,0,0,0,0,0,0,0,0,0,0,0,0,0,0,0,0,0,0,0,0,0,0,0,0,0,0,0,0,0,0,0,0,0,0,0,0,0,0,0,0,0,0,0,0,0,0,0,0,0,0,0,0,0,0,0,0,0,0,0,0,0,0,0,0,0,0,0,0,0,0,0,0,0,0,0,0,0,0,0,0,0,0,0,0,0,0,0,0,0,0,0,0,0,0,0,0,0,0,0,0,0,0,0,0,0,0,0,0,0,0,0,0,0,0,0,0,0,0,0,0,0,0,0,0,0,0,0,0,0,0,0,0,0,0,0,0,0,0,0,0,0,0,0,0,0,0,0,0,0,0,0,0,0,0,0,0,0,0,0,0,0,0,0,0,0,0,0,0,0,0,0,0,0,0,0,0,0,0,0,0,0,0,0,0],"id":4,"left_children":[1,3,5,7,9,11,13,15,17,19,21,23,25,27,29,31,33,35,37,39,41,43,45,47,49,51,-1,53,55,57,59,61,63,65,67,69,71,73,75,77,79,81,83,85,87,89,91,93,95,97,99,101,103,105,-1,-1,107,-1,109,-1,-1,111,-1,113,115,117,119,121,123,125,127,129,131,133,135,137,139,141,143,145,147,149,151,-1,-1,153,-1,155,157,159,161,163,-1,165,167,169,-1,171,173,175,177,179,-1,181,183,185,187,-1,189,-1,-1,191,193,195,-1,197,199,201,203,205,207,-1,-1,209,-1,211,-1,-1,-1,213,215,217,219,221,223,225,227,229,231,233,235,237,-1,239,-1,241,243,245,247,249,251,253,-1,-1,-1,255,257,-1,-1,-1,259,261,-1,263,-1,265,267,269,-1,-1,-1,271,-1,273,275,-1,-1,277,279,281,283,285,-1,-1,-1,287,-1,289,291,-1,-1,-1,-1,-1,-1,-1,-1,-1,-1,-1,-1,-1,-1,-1,-1,-1,-1,-1,-1,-1,-1,-1,-1,-1,-1,-1,-1,-1,-1,-1,-1,-1,-1,-1,-1,-1,-1,-1,-1,-1,-1,-1,-1,-1,-1,-1,-1,-1,-1,-1,-1,-1,-1,-1,-1,-1,-1,-1,-1,-1,-1,-1,-1,-1,-1,-1,-1,-1,-1,-1,-1,-1,-1,-1,-1,-1,-1,-1,-1,-1,-1,-1,-1,-1,-1,-1,-1,-1,-1,-1,-1,-1,-1,-1,-1,-1,-1,-1,-1,-1,-1,-1,-1],"loss_changes":[2.4822307E4,1.0629393E4,1.5035742E2,5.281716E3,5.526367E2,1.2695801E2,2.8988281E1,1.9048145E3,2.9878987E3,1.7023535E2,4.1249124E2,1.375459E2,5.555664E1,2.577832E1,3.1022522E1,1.7777139E3,9.736323E2,3.1331235E3,1.8515132E3,1.8599438E2,6.6467285E0,1.9310454E2,5.645227E1,6.058539E1,5.9668213E1,2.9610352E1,0E0,1.5694824E1,2.5712688E1,8.65947E0,1.577095E1,4.0982227E2,3.0016324E2,6.698535E2,7.7320496E1,2.646084E2,2.0794446E2,4.2131494E2,9.7615265E2,2.5204419E2,1.2828638E2,6.020752E0,1.2385857E1,2.4819977E1,1.4966632E2,4.829679E1,2.4091919E1,6.3929245E1,5.6595013E1,8.603247E1,5.2734375E1,2.5742188E1,8.3368225E1,1.3158691E1,0E0,0E0,7.577736E0,0E0,5.3959656E-1,0E0,0E0,2.7681445E2,0E0,2.4353668E1,2.7792444E2,5.20166E2,3.951356E2,1.9313433E1,4.7927795E1,1.7661133E2,1.5896187E1,5.4995396E1,1.7764417E2,2.3159033E2,2.1150475E1,4.771103E2,3.6547614E2,3.3377563E1,9.07785E0,7.999585E1,1.0219253E2,2.1176758E0,5.743744E0,0E0,0E0,5.513153E0,0E0,1.8833371E2,1.2651978E1,5.746676E1,1.0306412E1,2.0688599E1,0E0,7.835255E1,1.2560181E1,2.5750275E0,0E0,4.7697388E1,7.5902985E1,3.6098946E1,3.6994385E1,2.502539E1,0E0,5.019771E1,3.7475586E-2,1.2137695E1,1.5831421E1,0E0,9.8950195E-1,0E0,0E0,1.8211914E2,9.2122955E1,1.3585083E1,0E0,1.7703523E2,2.169679E2,4.4056738E2,1.20046844E2,1.3032928E1,2.2962744E2,0E0,0E0,1.4061951E1,0E0,1.6314258E2,0E0,0E0,0E0,3.492407E1,2.0087738E1,9.799725E1,1.0247646E2,1.7445374E2,1.0054321E1,3.2472652E1,1.5127167E1,6.638036E2,4.36131E1,1.9652307E2,8.245095E1,2.1613602E1,0E0,1.2600403E0,0E0,6.7599365E1,5.6395454E1,3.374217E1,1.1962582E1,2.0771484E0,1.0756027E1,4.557495E-1,0E0,0E0,0E0,1.7219957E2,9.9431854E1,0E0,0E0,0E0,1.1244041E1,5.7933044E0,0E0,9.057678E0,0E0,2.9681694E1,1.5995537E1,3.5455627E0,0E0,0E0,0E0,3.0428589E1,0E0,5.5783253E1,6.577633E0,0E0,0E0,3.434619E1,2.9394714E1,4.0865234E1,7.9375E0,8.464409E0,0E0,0E0,0E0,8.240723E0,0E0,1.3242059E1,5.765625E0,0E0,0E0,0E0,0E0,0E0,0E0,0E0,0E0,0E0,0E0,0E0,0E0,0E0,0E0,0E0,0E0,0E0,0E0,0E0,0E0,0E0,0E0,0E0,0E0,0E0,0E0,0E0,0E0,0E0,0E0,0E0,0E0,0E0,0E0,0E0,0E0,0E0,0E0,0E0,0E0,0E0,0E0,0E0,0E0,0E0,0E0,0E0,0E0,0E0,0E0,0E0,0E0,0E0,0E0,0E0,0E0,0E0,0E0,0E0,0E0,0E0,0E0,0E0,0E0,0E0,0E0,0E0,0E0,0E0,0E0,0E0,0E0,0E0,0E0,0E0,0E0,0E0,0E0,0E0,0E0,0E0,0E0,0E0,0E0,0E0,0E0,0E0,0E0,0E0,0E0,0E0,0E0,0E0,0E0,0E0,0E0,0E0,0E0,0E0,0E0,0E0,0E0,0E0,0E0],"parents":[2147483647,0,0,1,1,2,2,3,3,4,4,5,5,6,6,7,7,8,8,9,9,10,10,11,11,12,12,13,13,14,14,15,15,16,16,17,17,18,18,19,19,20,20,21,21,22,22,23,23,24,24,25,25,27,27,28,28,29,29,30,30,31,31,32,32,33,33,34,34,35,35,36,36,37,37,38,38,39,39,40,40,41,41,42,42,43,43,44,44,45,45,46,46,47,47,48,48,49,49,50,50,51,51,52,52,53,53,56,56,58,58,61,61,63,63,64,64,65,65,66,66,67,67,68,68,69,69,70,70,71,71,72,72,73,73,74,74,75,75,76,76,77,77,78,78,79,79,80,80,81,81,82,82,85,85,87,87,88,88,89,89,90,90,91,91,93,93,94,94,95,95,97,97,98,98,99,99,100,100,101,101,103,103,104,104,105,105,106,106,108,108,111,111,112,112,113,113,115,115,116,116,117,117,118,118,119,119,120,120,123,123,125,125,129,129,130,130,131,131,132,132,133,133,134,134,135,135,136,136,137,137,138,138,139,139,140,140,141,141,143,143,145,145,146,146,147,147,148,148,149,149,150,150,151,151,155,155,156,156,160,160,161,161,163,163,165,165,166,166,167,167,171,171,173,173,174,174,177,177,178,178,179,179,180,180,181,181,185,185,187,187,188,188],"right_children":[2,4,6,8,10,12,14,16,18,20,22,24,26,28,30,32,34,36,38,40,42,44,46,48,50,52,-1,54,56,58,60,62,64,66,68,70,72,74,76,78,80,82,84,86,88,90,92,94,96,98,100,102,104,106,-1,-1,108,-1,110,-1,-1,112,-1,114,116,118,120,122,124,126,128,130,132,134,136,138,140,142,144,146,148,150,152,-1,-1,154,-1,156,158,160,162,164,-1,166,168,170,-1,172,174,176,178,180,-1,182,184,186,188,-1,190,-1,-1,192,194,196,-1,198,200,202,204,206,208,-1,-1,210,-1,212,-1,-1,-1,214,216,218,220,222,224,226,228,230,232,234,236,238,-1,240,-1,242,244,246,248,250,252,254,-1,-1,-1,256,258,-1,-1,-1,260,262,-1,264,-1,266,268,270,-1,-1,-1,272,-1,274,276,-1,-1,278,280,282,284,286,-1,-1,-1,288,-1,290,292,-1,-1,-1,-1,-1,-1,-1,-1,-1,-1,-1,-1,-1,-1,-1,-1,-1,-1,-1,-1,-1,-1,-1,-1,-1,-1,-1,-1,-1,-1,-1,-1,-1,-1,-1,-1,-1,-1,-1,-1,-1,-1,-1,-1,-1,-1,-1,-1,-1,-1,-1,-1,-1,-1,-1,-1,-1,-1,-1,-1,-1,-1,-1,-1,-1,-1,-1,-1,-1,-1,-1,-1,-1,-1,-1,-1,-1,-1,-1,-1,-1,-1,-1,-1,-1,-1,-1,-1,-1,-1,-1,-1,-1,-1,-1,-1,-1,-1,-1,-1,-1,-1,-1,-1],"split_conditions":[1E0,1E0,1E0,1E0,3E0,1E0,1.23E2,1.99E2,1.29E2,1E0,1E0,1.4E0,1.94E2,6.6E1,1.32E2,1.3333334E0,1.9E1,1.25E0,1E0,2.14E-1,6.36E-4,3E-2,3.533333E-2,6E1,2E0,5.9E1,-3.792573E-2,1.83E2,1E0,4.7166668E-2,3.5E1,2E2,1.6955454E3,5E1,4.45E-2,1.9E1,1.4678188E3,2.644E0,9.04E-2,1E0,1E0,1.29E2,1.08E-2,6.8E-1,7.2E1,1E0,2.12E-3,1.3E1,1E0,5.032E3,1.3E-1,6.6E1,1E0,6.8E1,1.6977802E-2,-1.189309E-2,1.21E2,2.6211431E-2,1.12E2,-2.2744553E-2,4.4575706E-2,1.78E2,8.8711016E-2,6.3E1,5.8E1,1E0,6.7E1,1.71E-5,1.44E-1,1E0,9.3951E1,1.25E0,7.53E-2,1E0,1.44E-1,3.3E1,1E0,1.03E-6,6.3E1,1.94E2,1.24E-1,1.31E2,1E0,1.8259248E-2,7.441578E-2,7.7E1,-1.2151874E-2,1.64E-1,4.3E1,1.022E3,3E0,1.23E2,-4.0753985E-5,1.9E1,1.117647E0,1E0,5.2530367E-2,1.7E1,1E0,5.35E-5,1.73E2,7E0,2.9043497E-3,1E0,1.26088E2,1.76E2,2.5E0,2.6020486E-2,3E-1,7.8019165E-2,5.1225215E-2,2.9E1,8.2E-2,1.6E1,6.7084463E-4,3.51E-3,3.7E-2,1E0,1E0,1.06138E2,1E0,2.16794E-2,-6.6078596E-2,2.65E-2,-2.0254305E-2,5.7E1,7.0541285E-2,8.17122E-2,1.4607117E-2,8.06E-1,2.277E0,1.18E2,5.18E-1,1.481E0,9.51E-1,6.44E-1,6.74E-1,1E0,1E0,4.42E-1,7.13253E6,2.5186607E4,-8.96481E-2,1E0,2.4613654E-2,3.9866555E-2,3.69E-1,1.594E0,2.72E-1,1E0,7E0,3.15E-2,2.6313847E-2,-9.050867E-2,-4.4545952E-2,7.3E-2,7.27E2,2.5467196E-2,8.658334E-2,5.4738916E-2,5.8E1,6.3E1,1.9081514E-2,8.4871E1,1.2883519E-2,1.04036E2,1.28989E2,1E0,2.4982523E-2,-4.93715E-2,-8.702224E-2,8.4E1,-4.760011E-2,1E0,7.11E-1,-7.163153E-2,4.596931E-2,2.8E0,7E0,5E0,9.17E-2,7.57E-1,4.8149858E-2,5.8206856E-2,8.210941E-2,1.2E1,2.3287851E-2,8.5E1,1.16E2,8.3449915E-2,5.234588E-2,-8.204027E-2,-1.2579407E-2,-8.4451854E-2,7.693227E-2,-7.986724E-2,-3.076013E-2,2.2067111E-2,-7.3082685E-2,9.045227E-3,-4.811845E-2,-4.9705587E-2,-1.1257907E-2,3.7018925E-2,-3.2964885E-2,9.4473E-2,5.3327035E-2,-2.9274775E-2,3.7175383E-2,5.1587727E-2,8.528017E-2,-7.0846856E-2,6.091219E-2,-2.1422615E-2,6.963506E-2,-8.558311E-2,-1.8899811E-2,4.8904017E-2,-6.975626E-2,-4.2840082E-2,2.1274148E-2,5.397431E-2,2.1471983E-2,8.0306776E-2,2.713493E-2,-2.5764685E-3,-8.7875165E-2,-9.2152484E-2,-3.026717E-2,-1.2458947E-2,5.0729405E-2,4.5983523E-2,7.9327606E-2,-8.5132904E-2,-3.915525E-2,-2.5471091E-2,3.3534802E-2,-5.0358713E-2,2.044593E-2,5.0310105E-2,8.125155E-2,4.341261E-2,6.874601E-2,7.632261E-2,-2.8748626E-2,5.5748522E-2,-2.3799956E-2,-3.2813158E-2,-9.2796706E-2,8.2177095E-2,5.531766E-2,2.1408156E-2,7.756429E-2,5.778391E-2,7.525283E-2,-3.8453702E-2,3.85237E-2,-8.919905E-2,-8.743522E-3,-2.3749148E-2,-9.137353E-2,7.268431E-2,2.9986797E-2,3.4843605E-2,7.802219E-2,1.797846E-2,-3.236721E-2,2.359098E-2,7.002455E-2,5.808992E-2,8.347184E-2,5.861304E-2,1.1249049E-2,4.49565E-2,-4.0077128E-2,-9.399977E-2,-3.6245015E-2,5.3694207E-2,6.958217E-2,-4.633937E-2,5.5888563E-2,7.379281E-2,6.268441E-2,7.725578E-2,3.4099538E-2,-3.0221527E-2,-9.6608624E-2,8.040326E-2,6.418758E-2,5.1556673E-2,-1.5233683E-2,7.621949E-2,4.3159526E-2],"split_indices":[85,63,41,99,82,99,57,81,81,52,13,84,30,54,41,84,41,84,92,68,72,88,88,82,85,82,0,63,43,88,53,52,87,58,71,11,87,96,71,2,95,19,72,68,40,59,72,85,30,79,68,35,30,27,0,0,2,0,56,0,0,41,0,41,79,55,58,72,71,2,69,96,71,10,70,48,100,72,62,63,71,79,10,0,0,26,0,71,81,79,84,40,0,81,84,75,0,82,95,72,30,85,0,91,69,3,84,0,96,0,0,30,71,84,0,72,71,77,91,69,78,0,0,88,0,52,0,0,0,70,96,55,68,96,68,68,68,78,56,68,86,87,0,99,0,88,67,96,71,51,40,88,0,0,0,70,79,0,0,0,43,46,0,69,0,69,69,77,0,0,0,58,0,92,67,0,0,84,84,82,72,96,0,0,0,81,0,57,41,0,0,0,0,0,0,0,0,0,0,0,0,0,0,0,0,0,0,0,0,0,0,0,0,0,0,0,0,0,0,0,0,0,0,0,0,0,0,0,0,0,0,0,0,0,0,0,0,0,0,0,0,0,0,0,0,0,0,0,0,0,0,0,0,0,0,0,0,0,0,0,0,0,0,0,0,0,0,0,0,0,0,0,0,0,0,0,0,0,0,0,0,0,0,0,0,0,0,0,0,0,0,0,0],"split_type":[0,0,0,0,0,0,0,0,0,0,0,0,0,0,0,0,0,0,0,0,0,0,0,0,0,0,0,0,0,0,0,0,0,0,0,0,0,0,0,0,0,0,0,0,0,0,0,0,0,0,0,0,0,0,0,0,0,0,0,0,0,0,0,0,0,0,0,0,0,0,0,0,0,0,0,0,0,0,0,0,0,0,0,0,0,0,0,0,0,0,0,0,0,0,0,0,0,0,0,0,0,0,0,0,0,0,0,0,0,0,0,0,0,0,0,0,0,0,0,0,0,0,0,0,0,0,0,0,0,0,0,0,0,0,0,0,0,0,0,0,0,0,0,0,0,0,0,0,0,0,0,0,0,0,0,0,0,0,0,0,0,0,0,0,0,0,0,0,0,0,0,0,0,0,0,0,0,0,0,0,0,0,0,0,0,0,0,0,0,0,0,0,0,0,0,0,0,0,0,0,0,0,0,0,0,0,0,0,0,0,0,0,0,0,0,0,0,0,0,0,0,0,0,0,0,0,0,0,0,0,0,0,0,0,0,0,0,0,0,0,0,0,0,0,0,0,0,0,0,0,0,0,0,0,0,0,0,0,0,0,0,0,0,0,0,0,0,0,0,0,0,0,0,0,0,0,0,0,0,0,0,0,0,0,0,0,0,0,0,0,0,0,0],"sum_hessian":[4.211275E4,3.1519283E4,1.0593467E4,2.7300959E4,4.2183228E3,7.7856763E3,2.8077903E3,1.638884E4,1.091212E4,3.1116675E3,1.1066553E3,3.1389377E3,4.646739E3,2.695964E3,1.1182612E2,8.396134E3,7.992706E3,4.212274E3,6.6998467E3,2.0244432E3,1.0872241E3,6.720071E2,4.3464816E2,3.4619376E2,2.7927441E3,4.635015E3,1.1723533E1,2.6347866E3,6.117759E1,7.886175E1,3.2964367E1,6.7584043E3,1.637729E3,7.7454683E3,2.4723785E2,2.99002E3,1.2222539E3,2.5594253E3,4.1404214E3,1.5851923E2,1.8659241E3,1.0396432E3,4.7580914E1,8.6415665E1,5.8559143E2,1.1732041E2,3.1732776E2,3.0351074E2,4.2682987E1,8.803635E2,1.9123805E3,4.542815E3,9.2200005E1,2.6237544E3,1.1032306E1,1.5078641E1,4.609895E1,1.2354765E1,6.650699E1,1.7359539E1,1.5604826E1,6.7230728E3,3.5331696E1,2.3859662E2,1.3991323E3,7.0026167E3,7.428513E2,2.333359E1,2.2390427E2,2.9499595E3,4.006045E1,1.1595855E2,1.1062953E3,2.456706E3,1.0271916E2,2.72778E3,1.4126412E3,8.5312965E1,7.320625E1,1.7526467E3,1.1327728E2,9.4884656E2,9.079664E1,1.5019748E1,3.2561165E1,7.174234E1,1.4673326E1,5.1843274E2,6.715868E1,4.3443363E1,7.3877045E1,3.0562585E2,1.1701898E1,1.9943202E2,1.04078735E2,2.9288584E1,1.3394403E1,7.37003E2,1.4336055E2,2.4247412E1,1.8881332E3,4.5280454E3,1.4769771E1,3.6578358E1,5.562165E1,2.4578591E3,1.6589516E2,1.2343524E1,3.3755424E1,5.607355E1,1.0433434E1,6.67574E3,4.7332462E1,2.2787814E2,1.0718474E1,5.954106E2,8.0372174E2,6.6754336E3,3.2718326E2,1.3315349E2,6.096978E2,1.19318E1,1.140179E1,2.111962E2,1.2708073E1,2.9281233E3,2.1836246E1,2.6258204E1,1.3802249E1,5.606981E1,5.988874E1,8.244009E2,2.8189447E2,1.8735018E3,5.832043E2,5.2406506E1,5.0312656E1,2.318301E3,4.0947897E2,1.1518333E3,2.6080798E2,4.6283783E1,3.9029186E1,6.2293034E1,1.0913216E1,1.6948993E3,5.7747425E1,7.762938E1,3.56479E1,8.890357E2,5.981085E1,8.048588E1,1.0310764E1,6.1037487E1,1.0704849E1,3.6529092E2,1.5314182E2,1.1172474E1,5.5986214E1,1.787759E1,2.5565775E1,5.6189827E1,1.7687218E1,2.9152545E2,1.4100406E1,1.1669895E2,8.273306E1,8.5987274E1,1.8091461E1,1.6402632E1,1.2885952E1,7.2649426E2,1.0508682E1,1.2018274E2,2.317781E1,1.1228905E1,1.3018507E1,1.8619929E3,2.6140202E1,3.580344E3,9.4770135E2,2.1170406E1,1.5407952E1,1.2897597E1,4.2724052E1,2.4472952E3,1.056405E1,3.3722294E1,1.3217287E2,2.2190754E1,1.15646715E1,6.5796006E3,9.613978E1,1.0655528E1,3.6676937E1,2.1099464E2,1.6883505E1,5.426702E2,5.2740376E1,2.3361551E2,5.7010626E2,5.8201855E3,8.552479E2,2.4661589E2,8.056736E1,1.03745224E2,2.9408257E1,4.2319855E2,1.8649928E2,4.5475792E1,1.657204E2,2.9051533E3,2.2970087E1,4.3251526E1,1.2818284E1,4.3893574E1,1.5995168E1,8.07459E2,1.694188E1,9.139355E1,1.9050093E2,1.2557404E3,6.1776154E2,5.728672E2,1.0337112E1,3.7481026E1,1.4925477E1,3.485283E1,1.5459825E1,1.776858E3,5.414431E2,2.2947441E2,1.8000456E2,3.24555E2,8.272783E2,8.923854E1,1.7156944E2,3.0613039E1,1.5670741E1,1.0403369E1,5.1889668E1,3.35313E2,1.3595863E3,1.750093E1,4.0246494E1,6.1284473E1,1.6344908E1,1.92434E1,1.6404501E1,8.732661E2,1.576962E1,1.1449285E1,4.8361565E1,3.0099987E1,5.0385887E1,9.884744E1,2.6644348E2,7.454794E1,7.859388E1,1.2904791E1,1.2660983E1,4.4066906E1,1.2122919E1,1.5110084E1,2.7641537E2,5.1815144E1,6.488381E1,3.0727636E1,5.200543E1,3.944477E1,4.6542503E1,6.9027313E2,3.622116E1,9.699871E1,2.3184025E1,1.1962398E1,1.1215412E1,4.805644E2,1.3814286E3,1.2951107E1,1.3189095E1,1.4566558E3,2.1236882E3,9.3468475E2,1.3016623E1,1.0219374E1,1.0951033E1,2.3410862E3,1.0620899E2,2.3649342E1,1.0072954E1,1.1199499E2,2.017788E1],"tree_param":{"num_deleted":"0","num_feature":"103","num_nodes":"293","size_leaf_vector":"1"}},{"base_weights":[5.5857333E-3,-4.2363033E-1,1.2786775E0,-7.5933146E-1,8.950037E-1,1.5812037E0,1.2252645E0,-9.4240576E-1,8.200819E-1,1.134917E0,3.932941E-1,1.2587557E0,1.6149957E0,1.0766103E0,1.3148941E0,-1.0318954E0,2.5845018E-1,1.186823E0,3.69261E-1,1.1563083E0,-9.0275705E-2,-6.412506E-1,7.376725E-1,1.3331188E0,8.892744E-3,6.0067512E-2,8.092497E-2,2.1424253E-1,1.1147993E0,9.918183E-1,1.3463688E0,-1.1367935E0,-1.46568E-1,8.8100624E-1,-1.9308731E-1,1.2132759E0,-7.410559E-2,2.4429955E-2,1.1030477E0,8.650235E-1,1.3199277E0,1.039526E0,-7.761664E-1,4.5351997E-1,1.3245713E0,2.0775845E-2,1.4325433E0,7.008403E-1,-3.3722195E-1,1.1757023E0,6.654669E-1,1.0659999E0,-2.5097886E-1,1.2656965E0,1.4676529E0,-7.675069E-1,-1.5409362E0,3.2151523E-1,-7.6711756E-1,1.0803969E0,1.21939525E-1,-9.143491E-1,4.6154246E-1,1.2461199E0,-2.928883E-1,-6.172543E-1,7.9269004E-1,8.137153E-2,1.3214633E0,5.3095394E-1,1.0342116E0,1.3289464E0,-4.3403115E-2,8.7377345E-3,1.3742206E0,-8.714614E-1,7.785069E-2,-9.4152975E-1,5.588828E-1,7.376098E-1,1.4563891E0,1.5025294E0,3.3087995E-2,1.1589195E0,-5.5557907E-1,-1.1768589E0,1.0835291E0,1.1937152E0,3.1683195E-1,9.046825E-2,1.2259376E0,7.723835E-1,1.3020855E0,5.1995188E-2,-4.983717E-2,1.2948551E0,7.1924114E-1,1.372952E0,1.5035228E0,-5.8340603E-1,-1.3807536E0,-1.5590053E0,2.4559848E-1,-1.1267295E0,5.252748E-1,-1.092692E0,1.358601E-1,1.1412416E0,-5.6112494E-2,-1.2110288E0,4.7492743E-1,-1.0511847E0,9.3814366E-2,1.3761204E0,1.4915902E-2,9.61588E-1,1.4056488E0,6.357347E-2,-6.450057E-2,-1.1922734E0,1.3107154E-1,4.9032893E-2,9.9887604E-1,5.720291E-1,-8.550514E-2,3.0318245E-1,1.429219E0,7.299346E-1,-1.19449146E-1,1.1183453E0,3.4768623E-1,3.5757047E-1,1.3472583E0,8.3956674E-2,4.2155463E-2,-9.591404E-1,7.995781E-2,1.8068288E-2,-1.4136804E0,1.869101E-1,9.034396E-1,-1.448836E-1,1.3194482E0,3.6988475E-3,1.4962851E0,7.7940576E-2,4.660401E-2,2.4739405E-2,1.4790545E0,1.8120086E-2,-7.029266E-2,-1.5235138E0,-2.2196153E-3,2.3542522E-2,7.4750476E-2,1.1199307E0,1.4075792E0,6.688778E-2,-1.9505334E-1,-8.26642E-1,3.9400575E-1,3.5454684E-3,1.2915328E0,9.129431E-1,-4.9859768E-1,1.3798064E0,4.3890458E-1,1.3010082E0,-1.5153271E-2,-8.3694094E-1,9.635202E-1,1.3920646E0,2.3458323E-2,1.5087913E0,4.063161E-2,-4.2220693E-2,-5.104694E-3,-7.150742E-2,9.36272E-2,-7.8356914E-2,5.860856E-2,-6.7079164E-2,7.776748E-2,-7.838432E-2,-2.4351794E-2,4.3350022E-2,-7.057123E-3,2.1135706E-2,-6.1998684E-2,-4.956403E-2,2.8325498E-2,4.3894198E-2,7.92011E-2,-8.519583E-2,-1.3620513E-2,-6.903948E-2,4.3850135E-2,7.7907066E-3,-6.2178727E-2,-3.347646E-2,8.553181E-2,-2.470843E-2,4.0589932E-2,5.8291044E-2,1.8789656E-2,7.160737E-2,2.2244386E-2,-7.6371126E-2,-2.9933458E-2,2.2523887E-2,-6.2507235E-2,-3.1040335E-2,7.1734585E-2,5.5717956E-2,-4.6562325E-2,-5.741911E-2,5.7155665E-2,-5.2308686E-2,5.814734E-2,7.4045315E-2,3.85182E-2,5.5004567E-2,2.1460121E-2,-2.0591969E-2,4.3042254E-2,5.7244368E-2,-4.5789607E-2,3.823477E-2,-7.532098E-2,6.700473E-2,-3.7682097E-2,6.327658E-2,7.895487E-2,-7.38151E-2,-3.2504197E-2,-9.192489E-2,-3.4845E-2,1.4796233E-3,4.765367E-2,4.8941985E-2,-2.9557616E-2,4.388948E-2,-5.1838815E-2,1.9009167E-2,7.6939456E-2,3.1173304E-2,7.627719E-2,5.2810837E-2,8.1694536E-2,-8.942301E-2,-4.2157736E-2,5.6516975E-2,-3.9012894E-2,7.971746E-2,6.2172282E-2,-4.759212E-2,3.5878327E-2,1.8121859E-2,-7.5344354E-2,-4.0797584E-2,3.3201884E-2,3.0779487E-2,6.9727816E-2,5.113882E-2,4.9920552E-3,3.954538E-3,-5.26912E-2,7.087535E-2,2.4780871E-2,-4.350574E-3,5.0756227E-2,6.277036E-2,7.5355254E-2,6.027616E-3,-8.295881E-2,5.531143E-2,-2.6709158E-2,5.697186E-2,7.290134E-2,5.8558553E-2,7.584427E-2],"categories":[],"categories_nodes":[],"categories_segments":[],"categories_sizes":[],"default_left":[0,0,0,0,0,0,0,0,0,0,0,0,0,0,0,0,0,0,0,0,0,0,0,0,0,0,0,0,0,0,0,0,0,0,0,0,0,0,0,0,0,0,0,0,0,0,0,0,0,0,0,0,0,0,0,0,0,0,0,0,0,0,0,0,0,0,0,0,0,0,0,0,0,0,0,0,0,0,0,0,0,0,0,0,0,0,0,0,0,0,0,0,0,0,0,0,0,0,0,0,0,0,0,0,0,0,0,0,0,0,0,0,0,0,0,0,0,0,0,0,0,0,0,0,0,0,0,0,0,0,0,0,0,0,0,0,0,0,0,0,0,0,0,0,0,0,0,0,0,0,0,0,0,0,0,0,0,0,0,0,0,0,0,0,0,0,0,0,0,0,0,0,0,0,0,0,0,0,0,0,0,0,0,0,0,0,0,0,0,0,0,0,0,0,0,0,0,0,0,0,0,0,0,0,0,0,0,0,0,0,0,0,0,0,0,0,0,0,0,0,0,0,0,0,0,0,0,0,0,0,0,0,0,0,0,0,0,0,0,0,0,0,0,0,0,0,0,0,0,0,0,0,0,0,0,0,0,0,0,0,0,0,0,0,0,0,0,0,0,0,0,0,0,0,0,0,0,0,0,0,0],"id":5,"left_children":[1,3,5,7,9,11,13,15,17,19,21,23,25,27,29,31,33,35,37,39,-1,41,43,45,-1,-1,-1,47,49,51,53,55,57,59,61,63,-1,65,67,69,71,73,75,77,79,-1,81,83,85,87,89,91,93,95,97,99,101,103,105,107,109,111,113,115,117,119,121,123,125,127,129,131,-1,-1,133,135,-1,137,139,141,143,145,-1,147,149,151,153,155,157,159,161,163,165,-1,-1,167,169,171,173,175,177,179,181,183,185,187,189,191,-1,193,195,197,-1,199,201,203,205,-1,-1,207,209,211,213,215,-1,217,219,221,223,225,227,229,231,-1,-1,233,-1,-1,235,237,239,241,243,-1,245,-1,-1,-1,247,-1,-1,249,-1,-1,-1,251,253,-1,255,257,259,-1,261,263,265,267,269,271,-1,273,275,277,-1,279,-1,-1,-1,-1,-1,-1,-1,-1,-1,-1,-1,-1,-1,-1,-1,-1,-1,-1,-1,-1,-1,-1,-1,-1,-1,-1,-1,-1,-1,-1,-1,-1,-1,-1,-1,-1,-1,-1,-1,-1,-1,-1,-1,-1,-1,-1,-1,-1,-1,-1,-1,-1,-1,-1,-1,-1,-1,-1,-1,-1,-1,-1,-1,-1,-1,-1,-1,-1,-1,-1,-1,-1,-1,-1,-1,-1,-1,-1,-1,-1,-1,-1,-1,-1,-1,-1,-1,-1,-1,-1,-1,-1,-1,-1,-1,-1,-1,-1,-1,-1,-1,-1,-1,-1,-1,-1,-1],"loss_changes":[2.2796133E4,1.3811652E4,1.6803125E2,7.191629E3,7.616592E2,1.5128662E1,1.1776367E2,2.3952383E3,4.2674316E2,2.714702E2,7.307522E2,1.2136139E1,1.1669922E-1,1.1074658E2,5.536133E1,1.9260117E3,4.348806E2,1.02353516E2,2.9360773E2,2.0152881E2,0E0,1.1701216E2,2.5594153E2,1.2530609E1,0E0,0E0,0E0,3.8917114E1,8.7523926E1,4.6250275E1,4.782617E1,2.766332E3,6.387818E2,9.828845E1,4.240163E2,7.015747E1,0E0,3.901847E2,8.267529E1,8.606384E1,5.484668E1,1.090464E1,1.06956635E2,1.530991E2,3.7712585E1,0E0,5.986023E0,4.490426E1,8.2685875E1,4.3564697E1,1.2476062E2,3.1633972E1,2.8861828E1,4.7774414E1,4.8046875E0,1.0933677E3,2.861621E2,3.705771E2,2.7811334E2,7.028351E1,6.4757416E1,1.6509583E2,1.9235449E2,6.1330322E1,4.9868855E1,1.8574063E2,5.518103E1,5.934804E1,3.309546E1,6.702594E1,5.8305786E1,4.7728027E1,0E0,0E0,3.0564117E0,1.00519104E2,0E0,4.5580154E1,1.2360626E2,4.8437176E1,2.2410583E1,2.3304443E0,0E0,1.1318939E1,1.7074564E1,1.6960072E1,5.8182373E0,4.2318604E1,3.1464481E1,5.386833E1,1.4768524E1,3.8385902E1,1.6806488E1,0E0,0E0,2.891504E1,6.0525078E1,9.1414795E0,4.0739746E0,9.3653516E2,3.621504E2,1.9651367E2,1.8815164E2,4.294754E1,2.5058817E2,1.5565308E2,1.22618E2,5.7092407E1,0E0,1.2878693E1,8.2215805E1,9.490402E1,0E0,1.0688098E2,1.2918172E2,5.9293213E1,2.183435E1,0E0,0E0,4.7625366E1,8.363724E1,7.4440155E1,6.3885254E1,5.3264465E1,0E0,3.6612816E1,8.260132E0,4.363231E1,3.53313E1,4.9898315E1,8.8048676E1,5.724653E1,4.839746E1,0E0,0E0,6.9672485E1,0E0,0E0,1.5155655E1,5.6097878E1,5.7047302E1,3.578529E1,1.1101494E1,0E0,9.183044E0,0E0,0E0,0E0,7.4523926E-1,0E0,0E0,4.4728394E0,0E0,0E0,0E0,4.188452E1,1.9771606E1,0E0,2.8752583E1,3.9494144E1,4.7978325E1,0E0,1.2062042E1,1.700267E1,7.0722413E0,7.218994E0,7.0296855E0,2.5266602E1,0E0,1.7401558E1,2.9711487E1,7.583374E0,0E0,2.1689453E0,0E0,0E0,0E0,0E0,0E0,0E0,0E0,0E0,0E0,0E0,0E0,0E0,0E0,0E0,0E0,0E0,0E0,0E0,0E0,0E0,0E0,0E0,0E0,0E0,0E0,0E0,0E0,0E0,0E0,0E0,0E0,0E0,0E0,0E0,0E0,0E0,0E0,0E0,0E0,0E0,0E0,0E0,0E0,0E0,0E0,0E0,0E0,0E0,0E0,0E0,0E0,0E0,0E0,0E0,0E0,0E0,0E0,0E0,0E0,0E0,0E0,0E0,0E0,0E0,0E0,0E0,0E0,0E0,0E0,0E0,0E0,0E0,0E0,0E0,0E0,0E0,0E0,0E0,0E0,0E0,0E0,0E0,0E0,0E0,0E0,0E0,0E0,0E0,0E0,0E0,0E0,0E0,0E0,0E0,0E0,0E0,0E0,0E0,0E0,0E0,0E0,0E0,0E0,0E0,0E0,0E0,0E0],"parents":[2147483647,0,0,1,1,2,2,3,3,4,4,5,5,6,6,7,7,8,8,9,9,10,10,